// Neural Network File Format by Kyle Julian, Stanford 2016
6,3,9,20,
3,20,20,20,20,20,9,
0,
-8000.0,-100.0,0.0,
8000.0,100.0,40.0,
0.0,0.0,20.0,-0.7194709316423972,
16000.0,200.0,40.0,26.24923585890485,
1.25809e+00,6.89761e-02,-2.72701e-01,
1.51965e-01,-2.08923e-01,-2.04511e-01,
-1.07274e-01,4.18343e-01,-2.28562e-01,
-1.42234e+00,-1.26879e-01,-2.20430e-01,
8.10223e-01,-3.26521e-01,-9.83673e-02,
-7.28898e-01,7.32054e-02,-2.53481e-01,
-8.50225e-01,1.22228e-01,-3.46459e-01,
1.40976e+00,-2.79285e-04,-3.04243e-01,
-1.16017e+00,-1.31499e-01,-1.46556e-01,
-9.13608e-01,1.78753e-02,-1.85500e-01,
-1.84431e-02,1.18461e-03,-3.88807e-03,
2.14460e+00,1.38358e-01,-1.64569e-01,
9.73140e-01,7.17452e-01,3.01279e-02,
1.55195e+00,1.75836e-01,-2.53292e-01,
-4.52315e-01,1.31359e-01,-3.60236e-01,
5.96184e-01,-2.66904e-01,-1.44873e-01,
-1.05784e+00,-2.03456e-01,-1.79379e-01,
1.20550e+00,-7.83330e-02,-1.75057e-01,
9.35289e-02,-3.17482e-01,-1.13999e-01,
8.09685e-01,8.98033e-02,-1.88392e-01,
-1.19845e-01,
8.71222e-02,
-5.50028e-02,
5.49045e-03,
5.94201e-02,
-4.98950e-02,
-4.79927e-02,
-1.59854e-01,
4.48315e-02,
2.03763e-02,
-1.29028e-02,
-2.45078e-02,
-1.68376e-01,
1.24328e-02,
5.35296e-02,
7.10606e-02,
-5.28564e-03,
-4.22886e-02,
1.24188e-01,
3.40689e-02,
-6.12168e-02,1.73444e-02,2.08954e-01,1.39324e-01,-2.65321e-03,1.81835e-01,2.04887e-01,3.84120e-01,1.25169e-01,1.38535e-01,2.67127e-02,-2.66414e-01,3.52666e-01,-1.49567e-01,1.05072e-01,-2.65957e-02,1.41367e-01,-2.38080e-02,1.50916e-02,2.08448e-02,
2.62453e-01,1.03129e-01,1.41377e-01,1.82610e-01,1.22668e-01,-3.79778e-02,-1.00732e-01,-2.40464e-01,1.81125e-01,6.50697e-02,2.05123e-02,2.29682e-01,2.45736e-01,1.69558e-01,2.88090e-02,1.17494e-01,1.41577e-01,-2.82199e-02,1.35735e-01,5.25004e-02,
3.27355e-01,1.41831e-01,1.62987e-01,1.07586e-01,3.00447e-02,-1.80526e-02,-1.05110e-01,-1.16820e-01,1.56973e-01,1.00677e-01,-2.73415e-02,3.02662e-01,3.20356e-01,1.90158e-01,-7.08465e-02,7.83815e-02,1.07734e-01,2.02397e-02,1.71897e-01,7.09447e-02,
-1.01149e-02,-5.67611e-02,-5.18009e-02,4.12202e-02,4.43790e-02,5.89788e-04,1.38477e-02,3.75619e-02,-2.95107e-02,-3.35760e-02,-4.95518e-02,-4.99001e-02,3.58733e-02,2.01836e-03,9.80937e-03,2.47781e-02,9.39413e-03,-1.45405e-02,-3.76516e-02,-2.46834e-02,
3.22050e-01,-7.50707e-02,2.31204e-01,3.00137e-01,-1.25930e-01,-8.19978e-02,-9.57757e-02,-2.23123e-01,3.36681e-01,1.80614e-01,3.55535e-02,4.51314e-01,4.90383e-01,1.31941e-01,-7.34242e-02,-1.40892e-01,1.54301e-01,-2.66450e-01,-1.66388e-02,-4.74063e-02,
-4.90124e-01,-3.55162e-01,-2.67113e-03,-1.22299e-01,1.32668e-01,-4.07341e-02,-1.15795e-01,-1.16325e+00,1.33087e-01,-4.91778e-02,5.90808e-03,6.20786e-02,2.78459e-01,-1.07862e-01,-7.01839e-02,-1.06396e-01,-5.77532e-03,-9.46650e-02,-2.34856e-01,-1.49519e-01,
6.11778e-01,-7.88385e-02,-8.87888e-02,-2.62086e-01,1.36192e-01,-2.89408e-01,-2.82867e-01,1.06344e+00,-2.38725e-01,-2.53137e-01,-4.64168e-02,2.86903e-01,1.08867e-01,2.49004e-01,-2.66814e-01,1.64468e-01,-6.40268e-02,2.10017e-01,9.35950e-02,-2.89942e-03,
3.89039e-01,1.03474e-01,2.19794e-01,2.72208e-02,3.01004e-03,5.24423e-02,-7.73677e-02,2.01891e-01,5.93433e-02,6.12367e-02,2.99636e-02,3.95938e-01,2.00722e-01,3.32169e-01,-3.20362e-02,7.84962e-02,2.47983e-02,5.99856e-02,8.14698e-02,2.36630e-01,
3.54709e-01,6.07028e-03,1.79989e-01,3.78710e-01,-6.23181e-02,-7.69728e-02,-1.29446e-01,-2.68620e-01,3.47302e-01,1.24313e-01,-2.61443e-02,3.68420e-01,5.12355e-01,7.68578e-02,-1.12955e-01,-6.16951e-02,2.19798e-01,-2.88731e-01,9.26600e-02,-1.21144e-01,
1.83184e-01,5.28725e-02,1.18947e-01,-1.34548e-01,3.21449e-01,-2.55038e-01,-2.55008e-01,3.62378e-01,-1.20092e-01,-1.78844e-01,-1.28797e-02,3.57333e-01,-5.87714e-01,2.80676e-01,-2.43912e-01,2.55937e-01,8.13452e-03,2.90120e-01,2.23374e-01,-4.04694e-03,
2.73429e-01,6.20825e-02,1.38806e-01,2.02501e-01,7.03595e-02,-3.94622e-02,-4.93570e-02,-2.44785e-01,2.38831e-01,9.31654e-02,-2.95943e-02,2.48725e-01,2.85147e-01,1.56080e-01,-1.80982e-02,2.70257e-02,1.10408e-01,-8.17374e-02,1.30066e-01,6.80977e-02,
1.99758e-01,-1.21002e-02,2.33722e-01,3.61626e-01,-1.05330e-01,-5.17955e-02,2.20746e-02,-3.75852e-01,2.75385e-01,2.15840e-01,2.90917e-02,3.71430e-01,3.94842e-01,1.26650e-01,-2.69870e-03,-1.48336e-01,1.88104e-01,-3.85288e-01,1.01195e-02,-5.60971e-02,
5.42837e-01,-8.33715e-02,6.09238e-01,2.40804e-01,-2.87382e-01,3.18412e-02,-7.36852e-02,-1.42730e-01,1.97490e-01,1.40745e-01,-2.23682e-02,5.64788e-01,2.84625e-01,3.83768e-01,-5.54453e-02,-2.41452e-01,-3.17125e-02,-2.89491e-01,-7.29350e-02,4.94375e-03,
3.63162e-01,9.87055e-02,1.00702e-01,1.54409e-01,3.17342e-02,-9.90336e-02,-1.33320e-01,4.01020e-02,1.35923e-01,8.71898e-02,6.56635e-03,2.78470e-01,3.41902e-01,2.07135e-01,-1.03500e-02,1.08367e-01,1.20436e-01,5.47072e-02,1.96773e-01,1.53094e-01,
3.33647e-01,1.55289e-01,2.01685e-01,5.57186e-02,4.08262e-03,1.34433e-02,-6.40421e-02,-2.63672e-03,1.26294e-01,3.83546e-02,-1.30756e-02,3.25023e-01,1.69472e-01,2.73532e-01,5.63567e-02,1.64160e-02,-3.68936e-03,-4.54352e-03,9.86564e-02,1.42908e-01,
2.28998e-01,1.67248e-01,2.37665e-02,2.57604e-01,1.15386e-01,1.81848e-02,-1.09888e-01,-2.27374e-01,1.49806e-01,1.29904e-01,8.83739e-03,2.51799e-01,2.99994e-01,1.22213e-01,-5.74924e-02,8.28873e-02,1.72578e-01,-2.34849e-02,2.16608e-01,1.08358e-01,
3.50878e-01,4.87729e-02,2.07203e-01,2.25121e-01,-1.52431e-02,-6.35758e-02,-7.44422e-02,-2.94874e-01,1.78453e-01,1.68717e-01,9.23746e-03,3.05190e-01,3.88545e-01,1.74305e-01,-6.96259e-02,-1.95100e-03,1.77881e-01,-1.69672e-01,9.90065e-02,4.07861e-02,
2.70576e-01,1.07379e-01,9.70682e-02,1.97809e-01,7.24413e-02,-4.54498e-02,-1.21547e-01,-3.78267e-02,1.50940e-01,5.09001e-02,-3.35421e-02,2.26274e-01,3.28485e-01,1.18596e-01,-8.82553e-02,1.05215e-01,1.69819e-01,1.40007e-02,1.76255e-01,1.09441e-01,
-3.73760e-01,-1.52729e-01,1.75884e-01,3.77632e-01,-3.31119e-01,2.65288e-01,2.88442e-01,-1.09039e-01,3.02992e-01,2.66905e-01,-6.53636e-03,-4.01793e-01,2.21510e-01,-3.49437e-01,1.67300e-01,-2.64331e-01,1.71142e-01,-3.19853e-01,-2.16286e-01,-1.41492e-01,
3.96275e-01,1.61588e-01,1.51584e-01,8.12769e-02,9.83900e-02,-1.57471e-02,-3.98756e-02,2.28511e-01,1.05471e-02,7.43347e-03,5.58542e-03,3.45420e-01,2.56645e-01,3.16884e-01,-1.24946e-02,9.82071e-02,-8.82259e-03,1.50137e-01,1.48809e-01,2.39314e-01,
5.58737e-03,
1.80434e-02,
2.24277e-02,
-9.63643e-03,
1.24282e-02,
1.06617e-01,
1.25307e-01,
2.35724e-02,
-1.24066e-03,
-4.55383e-02,
1.10599e-02,
3.14419e-02,
6.86970e-03,
1.92388e-02,
2.68779e-02,
1.61044e-02,
8.90116e-03,
1.36942e-02,
6.07521e-02,
3.34814e-02,
-6.02303e-02,5.03092e-02,6.60446e-02,-1.11585e-02,2.50245e-01,-1.16742e+00,-9.71727e-01,6.27722e-02,1.71650e-01,-1.86941e+00,1.58076e-01,1.98300e-01,2.24765e-02,1.42175e-01,7.18699e-02,1.13635e-01,1.49442e-01,8.36119e-02,-2.09959e-02,1.25596e-01,
2.49375e-02,-7.97773e-02,-1.85461e-02,1.24210e-02,-1.64691e-02,2.39720e-01,1.11914e+00,7.85114e-02,-8.69544e-02,1.58545e+00,4.75753e-03,-4.52964e-02,2.12199e-01,-5.35407e-02,-2.79595e-02,-1.02278e-01,-2.25917e-02,-4.03979e-02,7.59148e-01,4.54149e-02,
1.92585e-01,-3.65352e-02,-6.88389e-02,4.74285e-02,-4.54836e-02,6.40696e-01,9.03358e-01,-4.12680e-02,-3.67401e-02,1.09798e+00,-6.52750e-03,-5.64551e-03,3.47636e-02,-5.93054e-02,-2.43408e-02,-4.99097e-02,-4.60729e-02,-1.07936e-01,1.12065e+00,-9.20357e-03,
-4.89014e-01,-6.27999e-02,3.11874e-03,-4.52910e-02,-1.07409e-01,-4.40609e-01,8.50194e-01,6.50780e-02,-9.58162e-02,-2.34017e-01,-6.53034e-02,-1.73741e-01,-4.59960e-02,4.43658e-02,8.42223e-03,-4.34879e-02,-6.23841e-02,8.59819e-03,-8.12218e-01,5.35114e-02,
-2.49409e-01,1.37066e-01,1.62500e-01,-1.08982e-02,2.24801e-01,-1.44171e+00,-5.33269e-01,1.72396e-01,2.55022e-01,-1.20935e+00,7.26831e-02,2.19607e-01,2.54297e-01,1.40831e-01,6.62110e-02,1.40760e-01,1.30129e-01,1.38670e-01,-6.43134e-01,1.32029e-01,
-2.63448e-01,1.85237e-01,1.60910e-01,5.41573e-03,3.21945e-01,-6.51572e-01,-6.19310e-01,1.28171e-01,2.90603e-01,-4.29261e-01,1.95652e-01,1.78484e-01,3.90014e-01,1.73924e-01,1.22059e-01,1.85595e-01,2.14123e-01,1.71940e-01,-1.17389e+00,1.42841e-01,
-5.61075e-01,1.16078e-03,2.08862e-02,2.65693e-02,-1.56300e-01,-4.69152e-01,9.12090e-01,6.53716e-02,-5.63501e-02,-1.30784e-01,4.76915e-03,-2.19740e-01,-7.65514e-02,2.92038e-02,5.94904e-03,-1.47513e-02,-4.75228e-02,-1.37218e-02,-8.35940e-01,1.29801e-01,
-2.21261e-01,7.33546e-02,4.42058e-02,2.27374e-02,5.17348e-02,-1.16372e+00,-1.25180e+00,1.24756e-01,-2.75655e-03,-7.78473e-01,8.69069e-02,7.06880e-02,1.86570e-01,7.68453e-02,1.85643e-01,9.05831e-02,8.30042e-02,2.06081e-02,-1.50845e+00,1.52748e-01,
3.57768e-02,-2.12247e-02,-4.09282e-02,-3.21953e-02,4.93332e-02,-4.16815e-02,-2.93722e-02,2.52682e-02,-3.09938e-02,-3.52837e-02,-1.45245e-02,-4.24650e-02,4.49904e-02,-2.60941e-02,-4.82201e-02,-3.76896e-02,3.07417e-02,3.40155e-02,-2.45343e-02,-2.54875e-02,
1.06714e-01,-7.62456e-02,5.00159e-03,4.47017e-02,4.54579e-03,5.63356e-01,1.05799e+00,-1.89319e-02,-8.33746e-02,1.44822e+00,-4.22948e-02,-1.17821e-02,1.79412e-01,3.96594e-03,4.67815e-02,-1.10694e-01,-4.14541e-02,-7.44189e-02,8.40183e-01,-2.54712e-02,
-5.82854e-02,1.35541e-01,1.38875e-01,-3.85245e-02,-3.73751e-02,-9.42395e-01,-1.50535e+00,4.67190e-02,2.75007e-02,1.95279e-01,1.07510e-01,1.46771e-02,-7.06188e-02,1.08496e-01,5.71345e-02,1.28753e-01,6.99276e-02,1.37638e-01,-1.72077e+00,8.42713e-02,
-2.16967e-01,2.65331e-02,5.35708e-02,1.24857e-03,4.19395e-02,-1.10348e-01,-1.29191e+00,1.47293e-01,-5.84108e-02,-1.86666e+00,8.81308e-03,1.17152e-01,1.27551e-01,1.51341e-02,7.37491e-02,-1.20433e-02,4.97569e-02,4.07168e-02,-1.12761e+00,8.53657e-02,
-8.70748e-02,1.11933e-01,1.56047e-01,-2.34414e-02,3.28986e-01,-7.78568e-01,-7.77390e-01,1.61693e-01,2.88408e-01,-1.65417e+00,1.78325e-01,2.14609e-01,1.83356e-01,1.52814e-01,1.27410e-01,8.86399e-02,1.77205e-01,1.37383e-01,2.01744e-03,1.64478e-01,
-3.61136e-02,4.53965e-02,-3.14395e-02,1.31853e-02,-3.79671e-02,1.31442e-02,-2.84949e-02,2.43824e-02,-2.00475e-02,-2.27554e-02,4.33176e-02,-7.63957e-04,-4.29150e-02,-2.04283e-02,-1.32535e-02,1.45532e-02,-1.26992e-02,-2.42444e-02,-3.23983e-02,-2.70800e-02,
-3.01040e-01,9.75126e-02,1.22074e-01,-9.83515e-03,2.87464e-01,-1.69598e+00,-6.18669e-01,1.64292e-01,2.04708e-01,-1.67084e+00,7.27183e-02,1.62620e-01,2.93069e-01,1.36015e-01,1.45387e-01,8.12772e-02,1.57137e-01,1.33163e-01,-3.51515e-01,1.47001e-01,
-2.27797e-01,5.65547e-02,1.39621e-01,-7.84056e-03,2.38622e-01,-1.69318e+00,-7.57928e-01,1.17606e-01,2.41618e-01,-1.65981e+00,5.82333e-02,2.58148e-01,2.95033e-01,1.61346e-01,1.17144e-01,4.41614e-02,1.74558e-01,1.18889e-01,-3.49102e-01,1.17068e-01,
-1.88503e-01,1.20224e-01,8.22296e-02,5.31860e-03,-8.80554e-02,-7.36926e-01,-1.45754e+00,9.92005e-02,-1.10319e-02,-5.84626e-01,7.52391e-02,2.08292e-02,-1.10684e-02,1.12187e-01,1.26049e-01,1.18729e-01,1.72211e-02,4.61133e-02,-1.71842e+00,1.31773e-01,
5.62386e-02,-2.62725e-02,-4.25411e-02,-4.07489e-02,-8.56118e-02,3.92322e-01,1.19920e+00,6.86255e-02,-3.17945e-02,1.55130e+00,-6.15211e-02,-5.70456e-02,1.45259e-01,-2.33339e-02,2.24402e-02,-9.56124e-02,-6.55496e-02,6.85219e-03,7.61250e-01,4.79742e-02,
1.39041e-01,-2.08890e-02,-7.61593e-04,-8.32121e-03,1.89173e-03,5.46061e-01,9.99055e-01,4.12270e-02,-9.10076e-02,1.37762e+00,-4.10783e-02,-7.61848e-02,3.36878e-02,-2.61202e-02,1.42062e-03,-4.65644e-02,1.04569e-03,-9.95910e-02,9.85124e-01,1.47799e-02,
-3.51676e-02,-3.49720e-02,-2.60200e-03,4.03327e-02,-4.60351e-02,-3.37286e-02,3.31093e-02,-3.44928e-02,2.32011e-02,-4.31182e-02,-2.37149e-02,3.24855e-02,5.43643e-04,1.17671e-05,-2.78649e-02,-2.22746e-02,-5.53328e-02,-4.79437e-02,-4.07286e-03,-2.45534e-02,
7.63728e-02,
8.86630e-02,
1.28178e-01,
2.10338e-01,
7.49303e-02,
2.17904e-02,
2.11989e-01,
2.80637e-02,
-6.99992e-04,
7.52639e-02,
5.49772e-02,
4.76461e-02,
9.68417e-02,
-6.94361e-04,
5.27241e-02,
5.75326e-02,
3.62180e-02,
6.03997e-02,
7.23092e-02,
-3.75730e-03,
3.56720e-03,-1.50784e-02,1.77084e-02,-4.44909e-02,3.15591e-02,-2.21334e-02,2.13203e-03,-1.83108e-02,1.94067e-02,-2.00353e-02,-9.12916e-03,2.14752e-02,-3.15075e-02,3.45462e-02,1.00452e-02,-1.16536e-03,-3.11578e-03,-3.84649e-02,-3.56456e-02,2.98587e-02,
2.81613e-01,-2.47343e-01,-8.40379e-02,2.44473e-01,1.70063e-01,2.52845e-02,2.42975e-01,-2.60630e-02,3.33038e-02,-2.97830e-01,-7.39486e-02,1.00808e-01,2.59072e-01,1.13362e-02,2.11493e-01,1.90697e-01,-8.65745e-02,-2.65434e-01,-1.74357e-01,-8.11945e-03,
2.08196e-01,-6.51528e-02,-2.49961e-01,-3.94091e-01,2.31104e-01,1.39513e-01,-3.49366e-01,2.73041e-01,-3.03881e-02,-2.26197e-01,2.75421e-01,4.57022e-01,2.38254e-01,1.33728e-02,1.99474e-01,2.39715e-01,2.92215e-01,-2.14204e-01,-2.07482e-01,-3.41060e-03,
6.15903e-02,-3.66945e-01,-5.41373e-01,7.09628e-01,1.21394e-01,1.01988e-01,7.06230e-01,2.02443e-01,-1.91569e-02,-4.83915e-01,1.49422e-01,2.52318e-01,2.15155e-02,3.16126e-02,1.11060e-01,1.15712e-01,1.11847e-01,-4.43002e-01,-5.01501e-01,-3.21053e-03,
-2.44443e-03,-3.50253e-02,2.31440e-02,2.02090e-02,2.77699e-02,-8.49762e-03,-5.09790e-02,-1.44068e-02,-1.91152e-02,-3.51888e-02,-9.19175e-03,2.12901e-02,-1.04247e-02,3.39967e-02,-1.33774e-02,1.83826e-03,-4.69175e-02,-3.74683e-02,1.28440e-02,3.80644e-02,
4.22945e-02,2.88490e-02,2.28588e-02,2.73385e-02,-1.61429e-02,-7.76341e-04,-3.80756e-02,1.09438e-02,1.58452e-02,-3.88364e-02,-5.46060e-02,-2.12183e-02,-3.07061e-02,-9.58407e-03,4.53060e-03,1.72364e-02,-1.71647e-02,-9.06840e-03,-2.93783e-02,3.76483e-03,
1.43899e-01,-4.05217e-01,-4.63286e-01,7.92465e-01,1.49987e-01,8.73415e-02,8.23015e-01,-9.62158e-02,-3.05764e-02,-4.79841e-01,-1.05498e-01,-1.17104e-01,2.09824e-01,-1.17376e-02,1.25271e-01,1.12630e-01,-1.22882e-01,-4.70625e-01,-4.91170e-01,1.99878e-02,
2.53754e-02,2.12518e-02,4.77129e-03,3.18000e-02,-3.40199e-02,-3.60678e-02,-9.98695e-03,-1.08280e-02,1.63441e-03,-1.49215e-02,-2.09961e-02,2.27890e-02,1.51140e-03,-6.30647e-03,-3.83438e-02,-3.13942e-02,3.27311e-02,-1.96478e-05,-5.46435e-02,-3.71065e-02,
2.82587e-01,-5.14784e-01,-6.26383e-01,3.16998e-01,2.21309e-01,1.75569e-01,2.30089e-01,3.06544e-01,1.21259e-04,-6.23496e-01,1.66165e-01,5.16064e-01,2.78609e-01,-1.48227e-02,1.47637e-01,2.14691e-01,2.24530e-01,-5.63505e-01,-6.73007e-01,-4.45213e-02,
1.95211e-01,-5.59869e-01,-6.37445e-01,1.94629e-01,2.09887e-01,1.91022e-01,1.80536e-01,2.78149e-01,5.37976e-03,-6.71388e-01,3.59897e-01,4.58445e-01,1.77925e-01,-4.51166e-02,1.29509e-01,2.09230e-01,3.54141e-01,-6.13302e-01,-6.49018e-01,1.12934e-02,
1.34795e-01,1.46658e-01,1.68637e-01,-2.68515e-01,2.07742e-01,2.25319e-01,-3.83209e-01,3.14797e-01,2.11840e-02,1.60624e-01,2.27392e-01,2.29563e-01,2.29310e-01,4.87671e-02,2.82807e-01,2.68392e-01,5.19630e-01,7.02646e-02,1.11383e-01,1.89136e-02,
-8.77310e-02,-6.00094e-03,-4.34220e-01,5.43205e-01,1.32251e-01,3.64542e-01,6.54952e-01,4.62580e-01,-3.79362e-02,-1.38991e-01,4.06782e-01,3.66173e-01,-4.79135e-02,1.89998e-02,2.53234e-02,-2.10365e-03,4.85096e-01,-4.97878e-04,-2.09582e-01,-1.08163e-02,
-3.57204e-02,8.80612e-03,-4.96462e-02,4.44512e-02,-1.60011e-02,-4.27126e-03,-2.63334e-02,1.13030e-02,-4.99378e-02,-9.61957e-03,4.84828e-03,4.07373e-02,2.00813e-02,-1.64941e-02,6.78742e-03,-1.75575e-02,-2.05046e-02,-1.44915e-02,1.85128e-03,3.68882e-02,
2.36491e-02,-8.06501e-02,-4.22832e-01,5.66042e-01,1.80943e-01,2.38361e-01,5.47488e-01,6.83172e-01,4.60863e-02,-1.80871e-01,4.31779e-01,5.96804e-01,6.75992e-02,-3.44609e-02,1.24747e-01,1.17903e-01,4.94240e-01,-1.23950e-01,-2.50885e-01,-1.97615e-02,
-2.55329e-01,-6.90757e-03,4.51079e-02,-1.33259e-01,-2.14256e-01,1.36507e-01,-1.03734e-01,3.34932e-01,-3.72656e-02,-8.64469e-03,1.35791e+00,-8.27812e-01,-1.18170e-01,2.90186e-02,-4.28681e-01,-3.48378e-01,1.22886e+00,-3.42703e-02,1.86783e-02,-2.07270e-02,
2.54635e-01,-3.45154e-01,-5.10005e-01,4.64230e-01,1.56157e-01,2.06496e-01,5.26392e-01,2.24133e-01,3.43919e-02,-4.58229e-01,1.69238e-01,4.57206e-01,1.67915e-01,4.68311e-02,2.22126e-01,1.93715e-01,1.29386e-01,-3.84161e-01,-4.71245e-01,2.10627e-02,
1.16241e-01,3.00284e-02,9.13461e-02,-9.80716e-02,3.19588e-02,-4.10287e-01,-1.24118e-01,-1.30468e-01,2.98335e-02,7.01640e-02,5.38076e-01,-2.50593e-02,9.33960e-02,9.58125e-03,-1.64538e-02,-6.29582e-02,-9.53995e-02,9.07372e-02,1.47138e-01,4.80241e-02,
-2.13271e-02,-1.31830e-01,-4.86555e-01,4.64882e-01,6.80687e-02,1.87217e-01,5.07653e-01,4.17615e-01,3.10475e-02,-2.91496e-01,2.87317e-01,1.35636e-01,1.63478e-02,-4.54002e-02,6.87629e-02,2.46418e-02,2.18715e-01,-1.26664e-01,-2.91838e-01,-2.48953e-02,
6.01437e-03,-2.23258e-02,-2.10863e-02,-8.43774e-03,-1.13548e-02,-3.56640e-02,-6.64725e-02,-4.61086e-02,1.58780e-03,-2.68583e-02,3.52438e-02,-4.71564e-02,1.10917e-02,3.76964e-02,1.17101e-02,2.74206e-02,-3.44615e-02,-2.12367e-02,2.81157e-02,4.18291e-02,
2.31498e-01,-4.98581e-01,-6.73846e-01,-9.83007e-03,1.45561e-01,1.94217e-01,-4.72638e-02,2.36670e-01,-1.13558e-02,-7.24487e-01,4.29787e-01,4.98743e-01,2.08846e-01,-1.01692e-02,2.04949e-01,1.57061e-01,4.07344e-01,-6.64262e-01,-6.81020e-01,7.25937e-03,
-1.03008e-03,
7.11200e-02,
-3.73949e-02,
-2.07512e-02,
-1.22780e-02,
-2.80749e-03,
9.81778e-02,
-6.96498e-03,
1.18822e-01,
1.28706e-01,
-2.03331e-03,
-8.41051e-02,
-6.94538e-04,
-9.99236e-02,
1.94229e-01,
-1.47020e-02,
-6.86263e-02,
-8.34360e-02,
-9.27521e-03,
1.44934e-01,
1.36582e-02,-1.99532e-02,7.11273e-02,-4.78974e-01,-2.04405e-02,3.85497e-02,4.08375e-01,4.33670e-02,3.09644e-01,2.78967e-01,9.26141e-02,3.81168e-01,-4.90892e-02,8.98398e-02,4.19696e-01,2.54529e-01,-2.97957e-02,-2.94530e-01,8.57224e-03,2.38968e-01,
-7.30462e-03,-1.11516e-01,2.00864e-02,-4.16427e-01,-2.55438e-02,9.98449e-05,-4.04994e-01,-7.00739e-03,8.36942e-02,-1.99197e-01,1.78348e-01,-4.23106e-01,3.22948e-02,4.26614e-01,1.38015e-01,7.22252e-02,-2.54486e-01,-8.52238e-01,-3.22108e-02,-3.37662e-01,
5.33152e-03,1.24431e-01,2.36097e-01,-8.18933e-01,9.57952e-03,-1.10490e-02,-1.83932e-01,9.24795e-03,1.82542e-01,2.14437e-01,1.11011e-01,-2.04983e-01,4.99670e-02,-1.14472e-01,7.61726e-02,-1.90334e-01,-7.83274e-02,-2.09322e-01,5.64152e-03,4.38425e-01,
-3.58274e-02,4.54673e-02,-1.66927e-01,2.87131e-01,-3.65065e-02,4.42977e-02,5.69316e-01,-4.21644e-02,2.52235e-01,1.66202e-01,-6.15156e-03,-5.42496e-02,4.56434e-03,1.59828e-01,-9.81968e-01,3.99371e-01,-8.88669e-03,-2.04186e-01,-5.84112e-03,-2.06950e-02,
2.46631e-03,-6.60319e-02,-2.15542e-01,3.87346e-01,2.49298e-02,4.06652e-02,1.53896e-01,9.92275e-03,2.80256e-02,6.17821e-02,-2.44425e-01,3.78469e-01,2.81707e-02,3.50783e-01,-3.56670e-02,9.46020e-02,1.45078e-01,2.83020e-01,1.25203e-02,-8.70329e-02,
-1.16347e-02,-5.08926e-02,2.71459e-02,-5.99116e-02,2.69240e-03,-1.31936e-02,-4.16162e-02,4.79557e-02,5.39532e-04,-1.24891e-03,-6.92839e-02,4.53535e-03,4.60121e-02,1.42554e-02,1.50597e-03,-1.58607e-02,-3.90257e-02,1.22921e-02,-3.12822e-02,-3.15323e-02,
1.20563e-02,6.16770e-02,3.21379e-01,3.27414e-02,3.41521e-03,-3.33357e-02,-4.22585e-01,1.18075e-02,-4.81068e-03,9.27953e-02,2.85198e-01,1.50748e-01,-4.84222e-03,4.10265e-01,7.26878e-02,8.46840e-02,-3.03000e-01,4.74959e-02,-7.20826e-03,1.31596e-01,
-2.45862e-03,1.42457e-01,2.12380e-01,-1.58631e-01,-2.87393e-02,-2.74939e-02,-2.88345e-01,4.36275e-02,-1.81508e-01,-1.37856e-01,-1.00512e-01,3.45364e-01,8.27973e-03,4.67757e-01,-3.75730e-01,-6.59339e-02,8.88379e-02,3.38629e-01,-4.23262e-03,1.40460e-01,
-4.89709e-02,-1.80594e-02,3.20221e-02,2.11836e-02,-7.03735e-03,2.21351e-02,1.28929e-02,1.79153e-02,-2.17768e-02,-3.85869e-03,-4.24554e-02,-2.61584e-02,6.79698e-03,-4.60235e-02,-4.62915e-02,4.86015e-02,3.78698e-02,-2.98670e-02,1.22091e-02,-1.53517e-02,
2.51152e-03,-1.36623e-01,-1.91741e-02,9.38554e-02,-3.12708e-02,2.91204e-02,-1.55981e-01,4.51532e-02,4.55966e-01,5.71839e-01,-1.92785e-01,5.59425e-01,-1.65757e-02,3.26308e-01,-2.60590e-01,3.28737e-01,2.42269e-01,-1.36781e-01,-1.39264e-02,6.51578e-01,
1.73024e-02,2.80733e-01,2.00030e-01,-8.07608e-02,3.67443e-02,3.18441e-02,5.99592e-02,-4.25082e-02,1.36014e-01,2.44719e-01,4.85925e-02,1.65950e-01,1.00977e-02,3.18525e-01,-1.55256e-01,1.73407e-01,-1.26234e-02,4.32168e-02,-4.27874e-02,3.59175e-01,
1.89998e-02,-2.06897e-01,7.35581e-03,1.08257e-01,3.64661e-02,1.72070e-02,-4.97228e-02,-3.95663e-02,1.37998e-01,1.17655e-01,-1.06842e-01,2.45997e-01,4.21427e-02,4.97113e-01,1.99473e-01,1.77595e-01,1.87141e-01,2.43815e-01,-2.96942e-02,7.52538e-02,
4.33785e-02,1.56190e-01,3.90077e-01,2.98222e-01,-2.68806e-02,1.91919e-02,-2.75620e-02,-4.23068e-02,-3.86310e-01,-3.34008e-01,-9.10927e-03,7.01312e-02,-4.25005e-02,1.46638e-01,8.89221e-03,-1.58709e-01,-3.76953e-02,7.72339e-01,4.19864e-02,-7.75582e-02,
-3.89948e-02,-1.03733e-02,-1.02306e-01,-6.27912e-02,6.01138e-02,-1.48708e-02,3.32074e-01,-1.93604e-02,4.68759e-01,5.70090e-01,7.72692e-03,1.31669e-02,-4.40236e-02,-4.28621e-02,1.61299e-01,2.50532e-01,-1.37528e-02,-5.74389e-01,-3.53598e-02,4.55174e-01,
2.88200e-03,-1.89510e-02,4.68472e-02,-3.89780e-01,-5.27467e-02,1.41987e-02,3.19005e-01,-2.73194e-02,8.10962e-02,1.76298e-01,2.29620e-02,1.60518e-01,-1.33041e-02,2.05413e-01,1.19502e-01,1.46698e-01,-4.68509e-02,-1.35170e-01,-3.56612e-02,2.74993e-01,
-8.16463e-03,1.79812e-02,-4.39488e-03,-3.31721e-02,-2.71603e-02,-3.74351e-02,-2.02497e-02,7.08908e-03,-2.05082e-02,2.58429e-02,-6.07975e-02,1.34253e-02,3.95363e-02,-5.90876e-03,-3.10481e-02,-3.27314e-02,1.05036e-02,3.65588e-02,1.59201e-02,-2.73204e-02,
3.22568e-03,-4.07578e-02,-2.96719e-02,-3.96382e-02,-1.56122e-02,-3.84170e-02,-1.56504e-02,-3.94393e-02,2.78543e-02,-2.21848e-02,-3.55183e-02,-1.29244e-02,-6.01917e-03,-3.72079e-02,-2.39947e-02,3.75832e-02,-2.02786e-03,2.67785e-02,-3.45642e-02,-4.73048e-02,
-7.81939e-03,2.31838e-01,1.33626e-01,3.22293e-01,-1.58327e-02,-4.91657e-02,3.66343e-01,-4.48654e-02,2.61492e-01,4.44035e-01,-4.10860e-03,1.23925e-01,-1.61042e-02,7.81205e-02,2.78595e-02,2.31690e-01,-3.05953e-01,-1.04839e-01,-2.21335e-02,5.23446e-01,
3.78196e-02,-2.67261e-01,1.79196e-01,-6.07947e-01,-2.59643e-02,-1.56118e-02,-5.58057e-01,-2.64445e-02,-5.43716e-02,-2.65393e-02,1.13612e-01,-7.32118e-03,-3.18844e-02,4.00740e-01,2.56594e-01,-1.14673e-02,-2.50470e-01,-2.69068e-02,4.79545e-02,2.38907e-01,
4.87466e-02,2.16972e-02,1.88100e-02,-2.02908e-02,-2.95320e-02,-7.75968e-03,9.19608e-03,-2.65383e-02,-4.90629e-02,-4.12540e-02,-5.13247e-02,-1.00210e-02,4.94043e-02,3.59142e-02,-1.59041e-02,-2.60435e-02,-2.55593e-02,-4.34767e-02,-1.67462e-02,3.63922e-02,
-7.12603e-02,
8.17612e-02,
6.21764e-02,
6.86179e-03,
-6.56141e-03,
-1.13892e-02,
-2.40725e-01,
3.85245e-02,
-1.00602e-02,
-3.07282e-02,
-6.11687e-02,
-9.48959e-03,
7.04316e-02,
2.78208e-02,
2.55692e-02,
-1.56032e-02,
0.00000e+00,
3.23124e-02,
-1.70593e-02,
-1.25082e-02,
3.92826e-02,-8.40128e-02,5.33142e-02,-3.32592e-02,1.20967e-01,-3.07036e-02,1.50625e-01,-1.83257e-01,-2.34780e-02,-4.84960e-01,-1.48130e-01,-1.28173e-01,1.60842e-01,-1.76177e-01,-6.70905e-02,-2.63817e-02,-4.68031e-02,-8.06345e-02,1.95467e-01,-1.67114e-02,
8.44780e-02,-7.21902e-02,-1.11588e-01,-8.81099e-01,-3.33836e-01,8.35630e-03,-6.11515e-01,-1.19022e-02,-1.85100e-03,-1.35128e-01,1.37509e-02,1.98254e-01,2.26521e-01,-2.32285e-01,4.46972e-02,3.34163e-03,2.51804e-02,-1.03146e-01,-1.28609e-01,-3.12994e-04,
-1.14087e-01,1.00970e-01,6.10141e-02,-1.55304e-01,-3.07512e-01,7.80433e-03,-1.69953e-01,2.68931e-01,9.03310e-03,-2.04411e-01,-3.19491e-02,-8.27287e-02,1.26015e-02,-2.20081e-01,-1.32153e-01,7.69898e-03,-2.23606e-02,-1.74952e-01,-7.64266e-01,-2.60369e-02,
-3.77059e-01,9.28347e-02,-4.29945e-01,-1.77719e-01,6.74524e-01,1.81960e-02,-3.13774e-01,2.37937e-01,4.01437e-02,-4.48942e-02,1.78748e-02,1.54440e-01,2.69685e-01,-3.03889e-01,-1.68020e-01,-5.07593e-02,3.13733e-02,-6.47701e-02,-3.75314e-01,-3.85267e-02,
-1.90522e-01,-3.90320e-01,1.76806e-01,3.64344e-03,-4.33520e-01,1.65160e-02,-7.02437e-01,-3.04810e-02,-1.44017e-02,-2.83150e-02,-1.93641e-03,-8.14380e-01,6.66309e-02,-6.26651e-02,-1.27812e-01,1.72929e-02,-4.37609e-03,6.22479e-02,-8.16428e-01,-4.28247e-02,
-2.54893e-01,1.22432e-01,-2.63504e-01,-1.70372e-01,8.23326e-01,-2.94188e-02,-3.89088e-01,-1.42992e-01,1.92231e-02,-1.04139e-01,-2.28122e-01,-2.21567e-02,-2.75742e-01,-8.89743e-03,-2.58736e-01,4.26368e-02,-2.65561e-02,-5.96382e-02,-9.47119e-02,3.37890e-02,
-1.34753e-01,-1.69905e-01,7.66163e-02,8.71247e-02,2.69347e-01,6.96134e-03,-2.94128e-01,1.29318e-01,-4.26463e-02,-1.16635e-01,-2.86856e-01,-2.79144e-01,-3.71943e-01,6.35188e-03,-7.73947e-02,1.47395e-02,4.66094e-02,-2.88243e-01,-2.71322e-02,2.55397e-02,
-4.44519e-02,4.16231e-01,-5.44601e-01,-1.80632e-01,5.98253e-01,3.94586e-02,-2.94891e-01,-5.54704e-01,-3.44424e-02,-1.65921e-01,-1.80793e-01,3.12917e-01,-2.12356e-01,-3.17804e-02,-1.23076e-01,-5.12523e-03,-4.72708e-02,-9.89939e-02,-7.99096e-01,-3.91902e-03,
-1.35676e-01,-4.84257e-02,-8.84016e-02,2.74107e-01,-2.68885e-01,3.60871e-02,-2.77200e-01,1.40993e-02,-4.17656e-02,-1.31609e-01,-1.10234e-01,-1.14941e-01,-4.31656e-01,-1.22618e-01,-1.90930e-01,-4.49586e-02,3.10658e-02,-2.16870e-01,-8.76837e-02,1.20724e-02,
3.37852e-02,
3.17936e-02,
5.71527e-03,
4.10552e-02,
3.66297e-02,
1.56892e-02,
1.22508e-03,
2.06561e-03,
1.41047e-02,
