// Neural Network File Format by Kyle Julian, Stanford 2016
6,3,9,20,
3,20,20,20,20,20,9,
0,
-8000.0,-100.0,0.0,
8000.0,100.0,40.0,
0.0,0.0,20.0,-0.7194709316423972,
16000.0,200.0,40.0,26.24923585890485,
5.12095e-01,1.35841e-02,-2.56359e-01,
-4.86046e-02,-4.01565e-01,-8.29216e-03,
1.05333e+00,1.53109e-01,-2.63476e-01,
6.93401e-01,-1.35605e-01,-1.73121e-01,
1.26009e+00,-3.64300e-01,-2.85608e-01,
-4.21530e-01,-2.46691e-01,-3.05276e-01,
1.31135e+00,-3.07835e-01,-1.47808e-01,
-6.83294e-01,-3.15353e-01,-1.30822e-01,
9.49647e-01,7.66914e-02,-7.38904e-02,
-4.00506e-01,-5.64789e-02,-2.36932e-01,
1.10228e+00,-2.99679e-03,-3.09192e-01,
-2.70826e-01,1.70803e-02,-2.59355e-01,
1.99819e-01,-1.57427e-02,-2.69358e-01,
6.08734e-01,-4.38392e-02,-2.86010e-01,
5.66213e-01,-2.87263e-02,-2.35562e-01,
8.24926e-01,1.78266e-01,-8.51110e-02,
-5.04939e-04,-9.73590e-03,7.07978e-04,
-8.39082e-01,-2.61052e-01,-2.71967e-01,
-1.35757e-02,-7.48748e-04,3.12094e-03,
-1.05131e+00,-1.91749e-02,-2.45141e-01,
-1.25394e-01,
-9.46728e-02,
-7.87833e-02,
-1.07924e-01,
-4.59033e-02,
-2.89510e-02,
8.18481e-02,
1.31829e-01,
1.36128e-01,
-8.51767e-02,
-1.37185e-02,
-5.06142e-02,
-9.66992e-04,
-6.12160e-02,
-8.06515e-02,
9.75528e-02,
-6.32466e-03,
-4.02731e-02,
-9.67718e-03,
-1.19779e-01,
-5.06904e-01,-1.33281e+00,3.31888e-01,-8.53394e-01,1.07258e-01,4.37731e-02,2.08223e-01,3.27185e-02,1.24157e-01,7.72359e-02,3.61272e-01,2.71695e-01,2.67162e-01,5.79753e-01,4.77821e-01,1.28582e-01,-3.48971e-02,-2.57372e-01,-4.68489e-02,-1.19290e+00,
-1.01596e-01,7.43466e-01,-1.50956e-01,-5.70809e-01,2.77849e-01,-1.04623e-02,5.67374e-01,1.24569e-01,-1.00747e-01,-5.15245e-01,7.51701e-03,-4.47206e-01,-5.02442e-02,2.05052e-01,2.38824e-01,-6.83492e-02,1.43491e-04,-1.27834e-01,4.13467e-02,-7.57554e-01,
-7.77937e-01,-5.56334e-01,2.43706e-01,-9.36256e-01,1.42000e-01,1.04981e-01,2.17389e-01,7.06695e-02,1.97750e-01,1.17668e-01,3.22243e-01,2.43133e-01,1.66590e-01,4.26407e-01,2.77026e-01,1.72037e-01,-1.89128e-02,-1.30319e-01,-4.11330e-02,-1.05359e+00,
-5.63905e-02,3.89320e-02,5.76557e-03,-2.98271e-02,-1.95015e-02,3.84594e-02,1.66887e-02,-3.83336e-02,-2.83377e-02,6.00491e-03,-2.96417e-02,-5.17710e-02,-1.78455e-02,-5.16817e-02,-1.85144e-02,-5.01211e-02,2.70591e-02,1.99541e-02,-1.77303e-02,-2.43482e-02,
-3.31029e-01,1.35238e-01,3.20210e-01,7.15315e-01,-4.24687e-02,1.64205e-01,5.88963e-02,2.01387e-01,4.20113e-01,2.10927e-01,2.34332e-01,1.90622e-01,-1.54320e-02,6.61539e-02,-4.24553e-02,3.32927e-01,3.59732e-02,5.17548e-02,2.79121e-02,1.82261e-01,
-4.68641e-01,2.89874e-01,3.45024e-01,5.57414e-01,-7.67468e-02,1.15622e-01,8.69624e-02,6.95674e-03,2.90734e-01,3.22620e-01,2.59124e-01,2.86383e-01,8.42786e-02,6.92227e-02,1.59313e-02,2.50897e-01,-2.76143e-02,1.35410e-01,-3.77766e-02,2.02047e-01,
-2.99568e-02,-1.00888e-02,2.31741e-02,7.23980e-03,-3.07397e-02,-5.41520e-02,-3.16383e-02,-1.30276e-02,2.36545e-02,1.87737e-02,-3.03750e-02,1.24032e-02,-2.47004e-02,5.36415e-03,-5.20657e-02,1.57661e-02,4.81798e-02,2.45617e-02,3.35810e-03,6.68717e-03,
9.17599e-01,9.88817e-01,3.01452e-01,-3.78304e-01,3.90360e-01,-5.91381e-01,-3.25757e-02,-6.82645e-01,2.67212e-01,-1.32613e-01,3.05180e-01,2.42319e-01,-4.94821e-02,2.12518e-01,4.12975e-01,2.56501e-01,-4.25069e-02,-1.37137e+00,-4.33385e-02,-3.24415e-01,
-1.46875e-03,4.16269e-01,-5.47942e-02,2.19797e-02,-5.10688e-03,2.25682e-01,-9.68848e-02,-9.06147e-03,-1.07162e-01,-1.24697e-02,-1.61637e-01,-3.62313e-01,-3.46024e-01,-3.86191e-01,3.44315e-02,-1.54760e-02,-3.37557e-02,1.62040e-01,1.39794e-02,3.78294e-01,
-7.95318e-01,-3.47110e-01,1.95995e-01,-6.22340e-01,8.09110e-02,6.10849e-02,2.20447e-01,1.04057e-01,1.89798e-01,7.27993e-02,3.18669e-01,1.97832e-01,1.57104e-01,3.91689e-01,1.73057e-01,2.02761e-01,2.26793e-02,-1.07962e-01,4.50155e-02,-1.02081e+00,
4.03349e-01,4.89643e-01,1.50119e-01,-2.97198e-01,5.71428e-01,-2.79084e-01,6.08777e-01,-3.79922e-01,7.46161e-02,-2.50942e-01,1.07298e-01,-1.39894e-01,-1.45141e-01,1.94442e-01,2.45332e-01,1.50333e-02,2.55537e-02,-3.09651e-01,-4.03672e-02,-2.14243e-01,
-2.53760e-01,1.74573e-01,2.75311e-01,7.59092e-01,-1.67119e-01,3.20699e-02,2.01698e-03,1.41328e-01,3.54078e-01,1.94084e-01,2.56093e-01,1.19125e-01,-1.24031e-02,-3.38001e-02,-1.17296e-01,3.11386e-01,-2.55611e-02,-8.63965e-02,-3.22431e-02,1.53590e-01,
-6.90143e-01,-3.94508e-01,3.15390e-01,-2.76348e-01,4.03392e-02,4.97056e-02,1.90879e-01,8.08366e-02,1.48945e-01,5.19248e-02,3.54530e-01,1.92668e-01,1.68073e-01,3.84125e-01,2.69141e-01,2.10445e-01,-2.52233e-02,-2.32260e-01,2.56639e-02,-8.56698e-01,
-7.99220e-01,1.59311e-03,9.14564e-02,-2.77197e-01,2.13625e-01,2.32308e-01,2.50372e-01,2.16126e-01,1.07025e-01,2.66728e-01,2.82949e-01,1.79862e-01,1.05118e-01,3.16279e-01,1.62994e-01,1.16050e-01,-1.33598e-02,7.09622e-03,-2.32302e-02,-4.54070e-01,
-8.29439e-01,-2.52863e-01,2.33511e-01,-2.34253e-01,2.26339e-02,8.88819e-02,2.79226e-01,1.69684e-01,1.40742e-01,2.16693e-02,3.85099e-01,1.79345e-01,2.14641e-01,3.22657e-01,8.96731e-02,2.38327e-01,2.64646e-02,-2.19235e-01,-6.35907e-03,-8.16018e-01,
-7.30822e-01,6.81558e-02,1.89629e-01,3.70176e-01,8.42435e-03,1.33590e-01,1.68616e-01,8.90198e-02,2.31045e-01,2.45367e-01,2.95297e-01,2.78569e-01,7.42702e-02,1.49599e-01,5.07908e-02,2.08805e-01,-2.03524e-02,2.26144e-02,2.11064e-02,-1.64310e-01,
-7.38882e-01,-3.24188e-01,3.07241e-01,-6.46452e-01,3.44400e-02,1.30637e-02,1.91106e-01,5.96101e-02,1.78524e-01,3.88503e-03,4.73457e-01,1.44962e-01,3.53142e-01,3.65782e-01,2.15873e-01,2.81612e-01,2.44037e-02,-3.33843e-01,2.25328e-02,-9.76632e-01,
3.78348e-01,1.14150e-01,1.22987e-01,-3.33744e-01,6.59867e-01,-2.72156e-01,5.02063e-01,-3.22159e-01,1.11084e-01,-9.17031e-02,1.81544e-01,-4.65512e-02,-5.07105e-02,3.35826e-01,3.19353e-01,1.44535e-02,1.74383e-02,-3.09389e-01,-4.93272e-02,-2.60461e-01,
-8.22431e-01,6.59429e-01,2.14199e-01,-1.70520e-01,-9.23313e-03,2.47212e-01,2.46814e-01,3.16628e-01,1.53550e-01,7.36917e-02,2.74188e-01,3.26289e-02,1.77338e-02,3.87548e-01,1.19713e-01,2.17451e-01,2.58162e-02,9.68017e-02,-1.52579e-02,-4.63532e-01,
-7.47496e-01,2.92373e-01,2.60217e-01,2.14050e-02,-8.72139e-02,2.52231e-01,3.71553e-02,3.54662e-01,5.43029e-02,2.18667e-01,2.89016e-01,1.70416e-01,1.16045e-01,2.76361e-01,1.09085e-01,2.01368e-01,3.75165e-02,2.70667e-01,-3.78893e-02,-1.83273e-01,
-1.33152e-01,
3.21620e-02,
-1.46755e-01,
-8.97738e-03,
-1.58460e-02,
-1.44426e-01,
-2.29452e-02,
-4.57413e-02,
-6.97659e-02,
-1.44681e-01,
1.79717e-02,
-3.20459e-02,
-1.28341e-01,
-1.91716e-01,
-1.01067e-01,
-1.54444e-01,
-6.90133e-02,
-4.02218e-02,
-1.35149e-01,
-1.32060e-01,
1.96650e-01,-3.88683e-01,2.42759e-01,-3.33859e-03,1.22607e-01,2.59527e-01,1.70396e-02,-2.73453e-01,7.56131e-02,1.96161e-01,-8.20049e-01,1.86872e-01,2.38671e-01,6.55783e-02,5.62005e-02,8.40665e-02,1.47068e-01,-1.05872e+00,1.09985e-01,1.11161e-01,
4.52504e-02,3.27037e-02,7.29179e-03,3.88491e-02,-3.94471e-02,-2.51416e-02,1.90212e-02,-3.72103e-02,2.69417e-02,5.03970e-02,-2.41227e-02,-4.29965e-02,-4.15940e-02,2.24681e-02,-1.46655e-02,-1.23874e-02,-4.51199e-02,2.75813e-02,3.24267e-02,-5.09725e-02,
-1.01262e-01,-3.01939e-01,9.17750e-02,-2.27129e-02,2.67737e-01,4.21085e-01,8.48593e-03,3.64235e-01,-1.18765e-01,1.12976e-01,-7.48929e-01,2.65004e-01,8.04565e-02,1.52177e-01,1.32289e-01,3.01598e-01,4.16846e-02,-1.02687e+00,1.52108e-01,2.56573e-01,
1.03782e-01,3.63441e-01,1.81896e-01,-1.73147e-02,2.31555e-01,2.08436e-02,4.54831e-02,-5.39685e-01,1.54726e-01,2.76959e-01,-5.20764e-01,2.29647e-01,1.99408e-01,1.50469e-01,2.87895e-01,2.01950e-01,2.62401e-01,-5.95296e-01,3.55896e-01,1.95616e-01,
2.83178e-01,-2.52891e-01,2.57842e-01,1.63776e-02,2.15457e-01,8.63118e-02,-2.42534e-02,5.84925e-02,-8.27813e-02,1.81831e-01,-9.87852e-01,1.52731e-01,2.11934e-01,-6.52900e-02,9.07651e-02,4.92984e-04,9.48084e-02,-1.22676e+00,-1.99040e-02,1.53968e-01,
-1.54484e-03,-7.78393e-03,1.99497e-02,3.80419e-02,-1.67925e-02,-3.87913e-02,-3.12039e-02,4.16498e-02,-2.48755e-02,3.37138e-02,-1.86771e-02,-1.06688e-02,3.80600e-02,-4.80913e-02,-3.04640e-02,1.39910e-02,-4.56635e-02,2.02497e-02,-3.09628e-02,1.42214e-02,
3.01220e-02,-3.64556e-02,2.50987e-02,2.41920e-02,1.11785e-03,-3.07087e-02,3.21540e-02,-2.32123e-02,-2.51853e-02,5.12560e-02,-1.21918e-02,-4.61673e-02,-2.16133e-02,1.57577e-03,-1.93233e-02,-4.78846e-02,-2.11604e-02,4.13861e-04,1.02395e-02,1.90656e-02,
3.01594e-01,5.33412e-01,4.14820e-01,4.31382e-02,1.25386e-01,1.65668e-01,-1.21693e-02,-5.86216e-01,6.27768e-01,4.87095e-01,7.34604e-02,4.93713e-02,3.99019e-01,5.01479e-01,3.84084e-01,3.72979e-01,3.38270e-01,1.08702e-01,5.24403e-01,3.09236e-01,
3.49345e-02,-5.01039e-02,2.99421e-02,2.27373e-03,-5.34106e-02,2.68036e-02,5.68254e-03,4.04578e-02,1.51618e-02,-3.68844e-03,1.85446e-02,-5.54291e-02,-5.74206e-04,-6.39490e-03,-4.60310e-02,-4.35390e-02,-4.18873e-02,-2.76666e-02,1.04246e-02,2.54153e-02,
-1.00131e-01,-1.17119e-01,2.09251e-02,3.94711e-02,2.87095e-01,4.08070e-01,1.58562e-02,3.49932e-01,-3.12207e-01,1.20298e-01,-7.06624e-01,2.31224e-01,8.86033e-02,1.20597e-02,1.29908e-01,2.52344e-01,2.57849e-02,-9.96992e-01,1.58154e-01,2.32329e-01,
4.12575e-02,-2.60181e-01,2.21309e-01,3.08029e-02,6.74684e-02,9.42636e-02,-1.98948e-02,-3.07001e-01,4.03850e-01,1.91448e-01,-8.33629e-01,-9.63532e-02,1.03414e-01,3.10268e-01,1.27319e-01,1.40269e-01,5.53815e-02,-1.07496e+00,1.19289e-01,2.56591e-01,
3.61428e-02,1.15306e-02,3.52769e-03,-1.01785e-02,-4.07552e-02,1.14945e-02,-1.83724e-02,7.54630e-04,-4.96362e-02,1.59432e-02,3.18801e-03,-3.91238e-02,-1.54362e-02,-1.52682e-02,1.57395e-02,-1.08673e-02,2.13447e-02,1.26072e-02,-3.82491e-02,-1.56925e-02,
6.00144e-01,3.36598e-01,6.46306e-01,-3.64141e-02,6.83333e-02,-2.08455e-01,-3.46370e-02,-5.75431e-01,6.99739e-01,5.24184e-01,1.05113e+00,6.76442e-02,5.13350e-01,4.21591e-01,4.92276e-01,1.02088e-01,5.94461e-01,1.36787e+00,5.71368e-01,3.94853e-01,
6.01301e-02,-7.03974e-02,1.69647e-01,-2.94035e-02,1.66666e-01,4.17700e-01,-1.79814e-02,2.08697e-02,-2.07586e-01,2.47955e-01,-6.25110e-01,1.90520e-01,1.63170e-01,1.91915e-01,2.82856e-01,3.49762e-01,2.45445e-01,-8.07875e-01,1.88695e-01,2.31188e-01,
2.41401e-01,-3.26630e-01,2.21704e-01,-2.39373e-02,1.39970e-01,1.45355e-01,3.49946e-02,-2.15089e-01,-7.99318e-02,1.20170e-01,-8.04143e-01,1.41658e-01,2.42965e-01,-2.30543e-02,1.26411e-01,9.67525e-02,1.28361e-01,-1.08682e+00,5.49750e-02,1.46341e-01,
4.49773e-01,-3.64120e-01,3.81240e-01,8.91939e-03,6.80246e-02,9.48492e-02,1.42866e-02,-3.87529e-01,2.50693e-02,2.63155e-01,6.50898e-01,1.10436e-01,3.61674e-01,-1.08641e-01,1.89792e-01,-1.55686e-02,2.77624e-01,8.78322e-01,-1.01745e-01,-1.84896e-02,
1.94571e-01,3.07452e-01,2.88854e-01,2.26257e-02,2.22794e-01,2.04451e-01,1.42129e-03,-3.45803e-01,6.32491e-02,3.46289e-01,-4.97431e-01,1.63756e-01,2.05746e-01,2.41526e-01,3.52161e-01,2.53403e-01,3.93557e-01,-4.56703e-01,3.34724e-01,3.39998e-01,
-1.26291e-01,-1.35840e-01,-5.44927e-02,-3.32393e-02,3.23595e-01,2.29340e-01,-3.15502e-02,3.24633e-01,-5.17209e-02,8.05076e-02,-7.48077e-01,2.71972e-01,2.22648e-02,2.20894e-02,1.06594e-01,1.42763e-01,5.76237e-03,-1.05803e+00,1.52294e-01,2.07721e-01,
-5.00808e-01,5.95362e-01,-3.14958e-01,1.48753e-03,-3.44544e-02,-3.11072e-02,-2.21423e-02,-2.55808e-01,-1.23821e-02,-1.58996e-01,-4.12159e-01,-1.51847e-01,-2.38591e-01,5.11350e-01,1.46861e-01,3.01774e-01,8.15741e-02,3.25148e-02,4.02495e-01,3.39036e-01,
8.70252e-02,1.67652e-01,3.93763e-02,4.02358e-03,-1.02152e-01,1.13930e-01,-4.19249e-02,1.84797e-01,-7.05999e-01,2.40052e-02,-2.36846e-01,-2.56700e-01,-6.36002e-02,2.34233e-01,4.20044e-02,1.67044e-01,-2.57344e-02,-4.10325e-02,9.48444e-02,1.41932e-01,
-6.24117e-02,
-1.65211e-02,
-2.04490e-02,
-2.90887e-02,
1.84955e-02,
-8.91332e-03,
-8.89217e-03,
-1.67510e-01,
-8.92115e-03,
4.79963e-03,
1.07501e-02,
-1.22914e-02,
-7.30174e-02,
-5.00770e-02,
-2.79826e-02,
-1.77470e-01,
-1.15190e-02,
2.84925e-02,
1.70295e-01,
3.95187e-02,
3.35370e-01,-3.31080e-02,4.12502e-01,2.07578e-01,4.26212e-01,9.98867e-03,-3.76600e-03,3.27294e-01,3.14445e-02,3.32579e-01,6.96130e-01,-3.95120e-02,2.85423e-01,3.27697e-01,4.16466e-01,3.12460e-01,2.81303e-01,2.70187e-01,-3.10800e-02,-1.78306e-01,
-2.83886e-01,-2.40786e-02,-3.92209e-01,1.04680e-01,-2.33918e-01,2.14075e-02,-1.22557e-02,5.05651e-02,1.80287e-02,-1.34254e-01,-8.38400e-01,-6.99000e-03,1.59386e-01,6.74418e-03,-3.59182e-02,-1.04636e-01,1.91095e-01,-2.48455e-01,-1.78936e-01,9.73731e-02,
-4.39271e-02,4.69472e-03,-3.00737e-02,6.95888e-03,-2.64941e-02,-6.23610e-03,-4.68519e-02,-4.14117e-02,2.12168e-02,-1.62880e-02,2.21735e-02,-1.14477e-02,-1.56419e-02,-2.88623e-02,-8.16690e-03,3.68675e-02,4.88582e-03,-8.76029e-03,8.70073e-03,4.02441e-03,
-2.93701e-02,-1.94007e-02,-5.09474e-03,1.86405e-02,4.44517e-02,-7.24861e-03,4.92778e-02,1.81201e-02,8.63801e-04,4.21003e-02,3.85608e-02,-4.22231e-02,-2.68990e-02,-4.08482e-02,-4.65064e-02,2.68481e-02,-4.93958e-02,-3.93562e-02,3.85488e-02,2.88108e-02,
3.46445e-01,-2.65537e-02,3.21589e-01,1.64195e-01,3.77650e-01,1.10222e-02,3.77025e-02,3.36149e-01,-2.84960e-02,4.35802e-01,3.44826e-01,-5.26829e-02,2.42819e-01,2.59468e-01,4.33197e-01,3.38232e-01,2.75684e-01,3.28514e-01,1.35045e-01,-5.06652e-03,
-6.50076e-01,3.61249e-02,-5.72381e-01,1.79345e-01,-5.85789e-01,2.17217e-02,-2.61035e-02,4.75378e-01,-1.14605e-02,-4.56012e-01,-3.11534e-01,-1.08957e-02,1.01389e+00,-1.10834e-01,-6.87916e-01,9.40311e-01,-3.10316e-02,-4.35570e-01,1.15523e-01,-2.05168e-01,
4.33222e-01,-3.85006e-02,4.66505e-01,3.79633e-01,4.63858e-01,-3.98445e-02,-5.33648e-02,3.01325e-01,-2.70415e-02,4.07351e-01,4.38528e-01,9.79223e-03,-2.29173e-01,4.63229e-01,5.53585e-01,-4.36623e-01,3.11684e-01,3.96053e-01,-1.15817e-01,-8.08670e-02,
4.88672e-01,-3.07216e-02,4.46418e-01,1.53448e-01,4.28157e-01,-4.41242e-02,-3.35729e-02,2.53977e-01,-2.89917e-03,2.54264e-01,8.60093e-01,-7.39563e-02,-9.22585e-02,2.97121e-01,1.84785e-01,-7.05155e-01,1.96873e-01,3.83617e-01,-2.33131e-01,-4.44644e-01,
1.98381e-02,-2.70043e-02,7.04063e-03,2.66940e-02,-4.13768e-02,-1.57614e-02,-2.61686e-02,2.73951e-02,-5.05163e-02,-1.48897e-02,-1.42231e-02,-3.64388e-02,-2.49026e-02,2.37303e-03,2.58987e-02,-9.53401e-03,-1.69668e-02,-4.76008e-02,-8.08264e-03,2.80145e-02,
8.66921e-04,-7.26330e-03,1.92915e-02,-3.80824e-03,-5.21935e-02,-2.31647e-02,7.51844e-03,-4.56366e-02,1.88162e-02,2.64645e-02,-2.01894e-02,1.31188e-02,-1.46306e-02,-5.50557e-02,1.43729e-02,-4.39167e-02,-8.59082e-03,-5.58597e-02,3.10857e-02,-3.82298e-02,
3.28794e-01,3.90595e-02,2.54710e-01,3.45326e-01,3.20205e-01,3.38059e-02,1.85356e-02,7.14662e-02,-3.33586e-02,3.12872e-01,2.31185e-01,-3.27008e-02,1.34143e-01,2.71802e-01,6.16991e-01,1.21678e-01,3.01001e-01,3.33385e-01,3.99474e-02,-5.18974e-01,
-3.48227e-01,-2.49050e-02,-4.54409e-01,-5.12529e-02,-8.89686e-01,4.63775e-02,-4.78797e-03,2.08533e-01,4.50298e-02,-2.42450e-01,-3.76973e-01,1.11199e-02,2.12956e-01,9.26132e-03,-6.90518e-01,2.74532e-01,4.43961e-02,-4.39732e-01,6.87261e-01,4.94904e-01,
-1.82740e-01,-3.45235e-02,1.65521e-01,2.36808e-01,1.39974e-01,2.93326e-02,1.05810e-02,4.78349e-01,-3.50449e-02,1.17971e-01,-1.13870e-01,1.02214e-02,2.60508e-01,3.77009e-01,4.86043e-01,1.25043e-01,2.59992e-01,-3.61922e-02,3.34850e-01,2.53794e-01,
3.86643e-01,-2.42866e-02,3.14116e-01,2.73699e-01,4.56257e-01,-4.13088e-02,3.28877e-02,2.56445e-01,-5.63878e-02,3.27326e-01,5.84648e-01,-4.03565e-02,1.53869e-01,2.72318e-01,4.57610e-01,2.38091e-01,2.80220e-01,3.02497e-01,4.14195e-02,-1.04437e-01,
-7.27912e-01,-2.80691e-02,-3.86490e-02,-1.20391e-01,-2.84203e-01,-7.91882e-03,-6.49801e-03,8.61467e-02,-1.32420e-02,-1.90602e-01,-2.07983e+00,-3.27933e-02,4.07921e-01,-1.31944e-01,-2.81755e-01,3.99127e-01,-3.65183e-02,-3.79106e-01,-6.50748e-01,1.86762e-01,
4.55470e-01,2.17599e-02,2.46340e-01,3.00140e-01,3.94732e-01,-5.40998e-03,-4.33856e-02,3.34638e-01,1.41627e-03,2.71489e-01,7.30545e-01,-6.80933e-03,-2.31978e-01,3.56359e-01,1.65562e-01,-8.93755e-01,2.76467e-01,2.05676e-01,1.24811e-01,2.15385e-01,
4.60182e-01,-2.83357e-02,2.29630e-01,3.05824e-01,2.30099e-01,-3.95011e-02,-4.15349e-03,2.16288e-01,3.49882e-02,3.30666e-01,2.69798e-01,3.72971e-02,2.40998e-01,2.18474e-01,4.36520e-01,3.01925e-01,2.74396e-01,3.29298e-01,7.42701e-02,-4.62339e-01,
-4.21703e-02,-4.69002e-02,4.60401e-02,2.59213e-02,-1.49585e-02,-3.14148e-03,4.57975e-02,3.22699e-02,-2.18179e-02,-4.45152e-02,-1.67547e-02,2.89801e-02,-3.24931e-02,-1.19150e-02,-5.80595e-03,3.81066e-02,-1.39985e-02,-4.48200e-02,4.78121e-03,-4.94337e-02,
-3.18763e-01,4.65466e-02,-3.99353e-01,2.58776e-01,-2.57449e-01,2.69503e-02,-1.32279e-02,2.60369e-01,1.66161e-02,-3.66339e-01,-1.49935e-01,3.23289e-03,4.43728e-01,-1.65239e-03,-2.23551e-01,2.82107e-01,1.32592e-01,-2.50581e-01,2.36838e-01,-3.76951e-01,
7.62976e-01,-6.96431e-03,2.02361e-01,3.76734e-01,1.55055e-01,2.00632e-02,5.12929e-03,-4.05493e-03,-4.41837e-02,2.49311e-01,9.85730e-02,-5.39721e-02,-7.20874e-02,3.81041e-02,3.68046e-01,-4.21958e-01,2.90329e-01,3.19283e-01,1.88911e-01,-4.38603e-01,
-2.75201e-02,
1.03323e-01,
-5.85450e-03,
-1.01601e-02,
-6.08982e-02,
7.20687e-02,
-1.21991e-01,
1.26703e-02,
-1.07567e-02,
-9.48128e-03,
-3.62121e-03,
-1.53735e-01,
-7.50130e-02,
-3.97984e-02,
1.10291e-01,
-7.12304e-02,
-1.29472e-02,
-8.42609e-03,
-2.61159e-02,
-7.89693e-03,
1.88794e-02,4.70642e-02,-4.16623e-02,4.07189e-02,1.29729e-02,-8.70419e-03,1.34397e-02,2.80380e-02,2.10793e-02,1.07436e-02,-7.03908e-02,4.03047e-02,-3.61311e-02,-4.45962e-02,-3.72618e-02,1.62005e-02,1.04432e-03,-4.46718e-03,4.84443e-03,-2.59829e-02,
-5.07889e-02,3.98063e-02,-2.28686e-02,-1.12894e-04,-2.52652e-02,-3.93981e-02,8.24627e-03,-2.82300e-02,1.17706e-02,3.45649e-02,2.34657e-02,-2.13388e-02,1.93208e-02,-6.11465e-03,4.90652e-03,3.01776e-02,-4.15127e-02,-1.93041e-02,4.30031e-03,-6.66155e-03,
2.03352e-01,-3.99051e-01,-4.10938e-02,-3.03821e-02,1.61449e-01,-1.93481e-01,-5.60703e-02,-2.68598e-02,2.50853e-02,7.08025e-03,2.22775e-01,-8.44720e-01,2.00314e-02,1.77732e-01,4.98591e-01,-2.01877e-01,2.02207e-01,3.58767e-02,-2.34424e-01,7.83419e-02,
1.89208e-02,-2.62836e-01,-1.21950e-02,7.15645e-03,2.78223e-02,-7.21457e-01,2.84882e-01,1.13227e-01,4.15616e-02,4.27202e-02,4.69906e-02,-4.24640e-01,1.87151e-01,4.07430e-02,-5.17530e-01,4.21256e-01,-3.70644e-03,9.46880e-03,-4.16232e-01,1.61862e-01,
1.90510e-01,-4.25906e-01,-2.35053e-02,-1.98860e-03,1.08515e-01,-9.73551e-01,2.01538e-01,2.68489e-01,3.58329e-02,-6.99126e-03,2.01263e-01,-1.15489e-01,-7.06193e-02,1.74051e-01,1.40407e+00,1.96566e-01,1.27955e-01,-4.16402e-02,-1.65677e+00,1.29205e-01,
1.83292e-01,-3.15981e-01,2.71533e-03,1.99641e-02,1.28468e-01,1.63604e-01,1.21821e-01,1.79740e-01,1.66708e-02,-1.14731e-03,1.01680e-01,-9.25534e-01,8.48970e-02,1.69853e-01,-1.00998e+00,1.54825e-01,1.47109e-01,3.56760e-02,2.44771e-01,1.48598e-01,
-3.47680e-02,5.80852e-02,3.54186e-02,-3.65003e-02,-5.05865e-02,1.61799e-01,-2.55259e-01,-7.05792e-01,9.93912e-03,3.60378e-02,-3.49043e-02,2.95159e-01,2.19303e-01,-4.10848e-02,2.79373e-01,-3.76260e-01,-4.59596e-03,1.99922e-02,3.07827e-01,-1.59752e-01,
-1.66596e-02,1.14125e-02,-4.68433e-02,2.29571e-02,-5.11241e-02,1.95156e-02,-2.99809e-02,3.23682e-02,-3.00829e-02,4.74921e-02,1.45192e-03,-3.82867e-02,-4.05650e-02,-4.66337e-03,-4.31628e-02,-1.53729e-02,3.46145e-02,-7.34834e-03,-2.01762e-02,-3.43648e-02,
6.50239e-02,-2.19160e-01,4.44131e-03,4.01979e-02,2.17753e-03,6.88440e-01,-9.13724e-02,2.92908e-02,1.02541e-02,2.61027e-02,3.19448e-02,3.74809e-03,5.87599e-02,4.02782e-02,-5.08119e-02,-2.79760e-01,2.79847e-02,-1.99463e-02,5.68293e-01,-1.04140e-01,
6.63192e-02,-4.65531e-01,1.62310e-02,1.64284e-02,1.17292e-01,4.33294e-01,1.18989e-01,2.15987e-01,-3.97419e-02,2.54509e-03,-1.63941e-02,-7.24507e-02,-1.38342e-03,7.94934e-02,-8.62559e-02,1.40472e-01,8.07963e-02,2.86217e-02,1.98781e-01,3.38150e-02,
2.58199e-01,-2.49875e-01,-3.00381e-03,4.92185e-02,2.38557e-01,-5.78643e-01,4.75382e-01,2.10028e-01,3.91004e-03,1.04278e-02,1.83417e-01,-2.54025e-01,4.32654e-01,2.09354e-01,-3.41735e-01,3.23763e-01,1.73553e-01,6.50651e-03,-5.88840e-01,1.83071e-01,
2.88319e-02,4.29423e-01,-1.39361e-02,3.06949e-02,6.32673e-02,2.60546e-01,-5.82638e-01,-4.25607e-01,5.31077e-02,2.52524e-02,-9.64036e-02,4.97735e-01,1.88251e-01,-7.14561e-02,3.72075e-01,-2.88798e-01,1.02138e-02,-2.29456e-02,3.48370e-01,-2.23542e-01,
1.88129e-01,-5.57014e-01,4.08456e-02,-2.13608e-02,1.74331e-01,5.39818e-01,2.26520e-01,2.51965e-01,-3.31789e-02,4.15358e-02,1.14057e-01,-2.18872e-01,9.57889e-02,1.09510e-01,-2.17595e-01,2.52440e-01,7.72994e-02,1.24056e-02,1.84269e-01,1.71943e-01,
2.72620e-01,-1.81432e-01,2.75759e-03,-6.14327e-03,2.57056e-01,5.66094e-02,7.92357e-02,9.09609e-02,-6.61918e-03,-7.74972e-03,2.26975e-01,-1.59659e+00,1.01889e-01,2.93215e-01,-1.05433e+00,1.95146e-01,2.39310e-01,1.71897e-02,-5.63871e-02,2.14984e-01,
1.22064e-02,4.46860e-02,4.95913e-02,4.83419e-02,-8.25180e-02,7.99782e-02,2.77791e-01,2.24358e-01,-1.32783e-02,2.61634e-02,-3.35930e-01,2.57617e-02,2.97781e-01,-6.32172e-02,-1.29355e-02,2.87306e-01,-2.61407e-01,-3.24056e-02,-4.29232e-02,-4.49284e-01,
1.65050e-02,3.45005e-03,4.45010e-03,3.02658e-02,-2.07695e-02,-3.58412e-02,-2.74050e-02,6.74677e-03,-4.44401e-03,1.96886e-02,-4.42955e-02,3.32568e-02,-1.54176e-02,1.39114e-02,4.29210e-03,-4.82020e-02,3.12836e-02,-3.89352e-02,-3.81697e-02,3.02687e-04,
-4.16324e-02,-4.84287e-02,4.08977e-02,2.84416e-02,-3.66745e-02,-2.04839e-02,2.99665e-02,-5.25667e-02,1.22843e-02,-4.50910e-02,3.41734e-02,-2.55009e-02,-3.51749e-02,-1.76405e-02,3.84721e-02,-3.37745e-02,3.25676e-02,3.67359e-02,1.57308e-03,-1.09663e-03,
-2.46944e-02,-3.54408e-03,-4.19492e-02,-4.58808e-02,2.66437e-02,1.37166e-01,-1.24213e+00,-7.72391e-01,-1.92788e-02,-1.84474e-02,-1.24348e-02,8.48587e-02,-3.94299e-02,-1.46513e-02,1.06835e-01,-4.57340e-01,4.97396e-02,4.21770e-02,5.89658e-02,-1.40302e-01,
-2.03928e-02,-2.72923e-02,2.31279e-02,-4.14183e-02,-4.58122e-02,-1.55506e-02,-2.70262e-02,-8.64470e-03,1.35315e-02,-2.10736e-02,-4.97058e-02,-4.47405e-02,6.06125e-04,2.77868e-02,-3.48621e-02,-4.40383e-02,2.31777e-02,1.20088e-02,-4.14972e-02,-4.34950e-02,
-3.01179e-02,1.75578e-02,4.78407e-02,-9.34727e-04,-3.19817e-02,-1.80457e-02,-4.77502e-02,-1.38829e-02,1.44659e-02,-1.80312e-02,1.15714e-02,-9.43519e-03,4.05236e-02,3.83580e-03,-7.36143e-03,3.43445e-02,4.55171e-02,3.96036e-03,-1.36594e-02,-4.38975e-02,
-7.44256e-03,
-9.73565e-03,
-1.93646e-02,
-2.01553e-02,
1.57445e-02,
-2.75750e-02,
5.81944e-02,
-9.73852e-03,
-3.62517e-02,
1.66080e-02,
3.73736e-02,
-4.50492e-02,
1.17596e-02,
-1.69942e-02,
7.40820e-02,
-6.94538e-04,
-1.01568e-02,
1.77435e-02,
0.00000e+00,
-2.09966e-03,
-1.68196e-02,-2.12209e-02,1.26895e-02,4.65764e-02,4.05492e-01,-3.25132e-01,9.69902e-02,-8.16122e-03,-9.93327e-02,-1.99050e-02,2.07803e-01,2.01967e-01,-2.82473e-02,-3.61996e-01,3.56879e-01,-2.29257e-02,-3.91028e-03,-3.74488e-01,4.01878e-02,-4.35137e-02,
-1.16614e-02,5.32651e-03,-2.40252e-01,7.45426e-01,3.92090e-01,-1.64707e-01,-8.16776e-02,2.46450e-02,1.16510e-01,-1.30377e-02,-3.34867e-02,-3.71534e-02,-1.68920e-02,-4.98296e-01,-1.19931e-01,3.65218e-02,-4.92194e-02,-1.01725e-01,-4.88032e-02,-3.72819e-02,
-1.28751e-02,1.14707e-02,1.35950e-01,-1.00652e-01,2.57088e-01,-2.68604e-01,3.37302e-01,8.69269e-03,-2.85955e-01,-1.94548e-01,2.16863e-01,4.43221e-01,-1.96543e-01,-4.51487e-02,-9.35405e-02,2.34172e-02,-7.08926e-03,-1.23070e-01,-2.02912e-02,-1.85664e-02,
2.53525e-02,-3.19060e-03,-8.73734e-02,8.41071e-01,3.87347e-01,-2.17563e-01,4.13241e-02,2.69610e-02,2.14738e-01,-4.03963e-03,-4.08318e-01,-1.98580e-01,-6.91361e-02,-4.70766e-02,-3.82957e-01,-3.93961e-02,3.33807e-02,-1.37246e-01,1.16014e-03,-2.39753e-02,
2.79291e-02,-5.19069e-03,1.05837e-03,9.23367e-02,-1.06972e-01,-1.34859e-01,2.25845e-01,2.12357e-02,-6.34124e-01,-9.27415e-02,2.25527e-01,6.10717e-01,-7.30197e-02,-7.40996e-02,-5.73630e-01,-1.97952e-02,1.25119e-02,4.18805e-01,1.96278e-03,-1.35594e-03,
2.32691e-02,2.96509e-02,-2.06431e-01,3.03321e-01,4.57207e-01,-5.47817e-02,6.17830e-02,2.94200e-02,-2.43208e-02,-1.45179e-01,-1.15236e-01,2.53129e-01,-1.80164e-01,-8.56456e-02,-2.23868e-02,-3.37183e-02,2.19349e-02,-8.57326e-02,-3.18537e-02,2.06999e-02,
6.90707e-03,-2.99424e-02,-6.65845e-02,3.53964e-01,3.14444e-01,-2.07793e-01,8.74555e-02,-9.33264e-03,-3.59880e-02,-1.77912e-01,4.22936e-02,2.87231e-01,-2.13997e-01,-1.09865e-01,-5.45859e-02,3.59392e-02,3.70587e-03,-4.37965e-02,-4.95782e-02,4.74141e-02,
-1.14967e-02,-4.24150e-02,-3.73576e-01,2.56250e-01,5.70891e-01,7.12495e-02,-3.99471e-01,5.54969e-03,-1.05030e-01,-7.17624e-02,-3.69500e-01,3.23408e-01,-7.77617e-02,1.59233e-02,5.78509e-03,-2.88456e-02,3.46973e-02,5.88067e-01,1.03217e-02,-1.82107e-02,
-4.35512e-02,-1.27073e-02,3.58605e-02,6.77144e-02,-9.82489e-02,-7.49571e-02,3.49176e-01,1.48204e-02,-3.33316e-01,-2.67759e-01,2.33980e-01,4.74684e-01,-1.95154e-01,-2.14358e-02,-1.99077e-01,-4.28676e-02,4.59459e-02,1.12243e-01,-4.85609e-02,-4.16461e-02,
1.10651e-02,
3.25625e-02,
6.54759e-03,
4.42172e-02,
2.46034e-02,
-2.17395e-02,
-2.24090e-02,
-1.22069e-02,
-3.80240e-02,
