// Neural Network File Format by Kyle Julian, Stanford 2016
6,3,9,20,
3,20,20,20,20,20,9,
0,
-8000.0,-100.0,0.0,
8000.0,100.0,40.0,
0.0,0.0,20.0,-0.7194709316423972,
16000.0,200.0,40.0,26.24923585890485,
6.83758e-01,-9.12135e-02,-2.11199e-01,
4.83379e-01,-2.17285e-01,-2.11898e-01,
5.39140e-01,-2.68673e-01,-3.07396e-01,
6.43490e-01,-1.37919e-01,-1.63890e-01,
-2.70861e-01,-2.91400e-04,-2.01227e-01,
5.68075e-03,2.47371e-03,3.01581e-04,
1.07496e+00,-1.35056e-02,-3.80807e-04,
6.48717e-01,4.62359e-01,-1.07305e-01,
-3.55041e-03,-4.20100e-03,7.14398e-03,
1.02407e+00,-1.40007e-01,8.54935e-02,
4.95448e-03,1.08822e-02,2.46671e-04,
7.67349e-01,-1.22313e-01,-1.01873e-01,
1.36903e+00,2.82580e-03,-2.64403e-01,
1.00143e+00,3.49621e-02,-4.51545e-02,
-5.21146e-04,-3.58114e-03,1.16796e-03,
1.54026e+00,-1.33600e-01,1.52650e-02,
7.17026e-01,-8.05371e-02,-1.21965e-01,
1.31398e+00,-2.90485e-02,-1.49415e-01,
5.91820e-01,-1.85621e-01,-2.39315e-01,
6.96655e-01,-9.81510e-02,-2.16362e-01,
3.34376e-02,
4.90481e-02,
-6.24331e-02,
3.26513e-02,
-8.93234e-02,
-5.29489e-03,
5.45047e-02,
6.40572e-02,
-8.34078e-03,
7.56345e-02,
-8.88048e-03,
1.83458e-02,
-1.01763e-01,
5.64069e-02,
-4.11916e-03,
2.26478e-02,
3.78654e-02,
-3.38661e-02,
8.01734e-03,
4.77700e-02,
1.34514e-01,1.34909e-01,-4.93559e-02,1.54169e-01,-3.65461e-01,-3.04423e-02,1.35120e-01,-7.97323e-02,1.93970e-02,2.21487e-01,-4.12526e-02,1.30088e-01,2.68849e-01,1.31473e-01,2.90022e-02,-9.78498e-01,1.76791e-01,1.43924e-01,3.18298e-02,1.46487e-01,
1.86771e-01,5.26122e-02,-1.37126e-01,1.47307e-01,-1.90142e-01,-2.95524e-02,2.43949e-01,1.53913e-01,5.04246e-02,9.94244e-02,3.13229e-02,1.00924e-01,6.51677e-01,2.85322e-01,-4.16535e-02,-8.71483e-01,1.55272e-01,3.87653e-01,1.14181e-01,1.83730e-01,
1.25538e-01,1.41722e-01,3.62436e-02,1.75897e-01,-6.00488e-01,2.95695e-02,1.31939e-01,-2.79494e-01,3.77191e-02,3.87813e-01,-3.78802e-02,1.67229e-01,8.18385e-02,7.32716e-02,-2.45391e-02,-8.07371e-01,1.68346e-01,2.74671e-02,5.27982e-02,1.08273e-01,
1.81264e-01,7.12631e-02,-6.97340e-02,1.07747e-01,-1.72554e-01,2.33576e-02,2.13138e-01,8.42193e-02,-2.73640e-02,2.03263e-01,1.59474e-02,1.30369e-01,5.03408e-01,2.56839e-01,-3.46944e-02,-9.12243e-01,1.40500e-01,2.72343e-01,8.96340e-02,1.92320e-01,
2.98478e-02,1.23014e-01,3.55922e-01,9.26709e-02,-2.02996e-01,3.00793e-02,6.89344e-02,-4.63725e-02,2.04864e-02,1.37596e-01,3.19167e-02,1.80025e-01,6.32728e-02,-5.49280e-02,-3.06361e-02,1.73208e+00,-4.10068e-02,-5.13163e-02,2.15091e-01,1.97377e-02,
9.20847e-02,1.29105e-01,3.63754e-02,1.77805e-01,-4.71394e-01,-5.06518e-02,1.50683e-01,-2.19267e-01,2.62314e-02,3.83429e-01,-1.19025e-02,1.06248e-01,1.94482e-01,1.30410e-01,-4.18127e-02,-8.25393e-01,1.51966e-01,4.42900e-02,1.57950e-01,1.59142e-01,
1.09666e-01,1.67629e-01,8.49111e-02,1.53054e-01,-9.62356e-02,-4.39284e-02,2.44561e-02,-1.19475e-01,-2.82607e-05,1.84309e-01,-1.17439e-03,8.95109e-02,1.32191e-01,1.39995e-01,-4.57809e-02,-9.38796e-01,9.93339e-02,1.17008e-02,1.65323e-01,1.67028e-01,
1.91945e-01,1.61741e-01,8.41842e-02,1.41029e-01,-2.15994e-01,-4.20849e-02,3.72283e-02,-1.19408e-01,-2.99787e-03,2.23449e-01,3.47918e-02,1.60767e-01,1.61511e-01,8.38889e-02,-1.71081e-02,-8.39404e-01,1.31795e-01,5.10016e-02,1.90926e-01,1.37663e-01,
-7.40975e-02,-4.17189e-02,7.90785e-02,-2.41421e-02,6.37180e-02,-9.55518e-03,9.44366e-02,1.17938e-01,-3.60172e-02,-5.85134e-02,3.14852e-02,-3.02744e-02,8.93266e-02,-6.09747e-02,1.96297e-02,1.33820e+00,-7.17766e-02,-3.51450e-02,1.10588e-03,-4.95536e-02,
1.36106e-01,9.98229e-02,4.78524e-02,1.73908e-01,-6.41661e-01,4.11703e-02,1.92795e-01,-2.18215e-01,1.40521e-02,4.23286e-01,2.19657e-02,1.42502e-01,1.24306e-01,6.15040e-02,-4.10867e-02,-6.80782e-01,8.85478e-02,7.58469e-02,1.40555e-01,1.46086e-01,
-5.81273e-02,-4.55469e-02,7.37427e-02,-7.81530e-02,8.37450e-02,3.68309e-02,6.65168e-02,7.52380e-02,1.77990e-02,6.46565e-02,-1.32559e-03,-1.20078e-02,2.41106e-02,2.00936e-02,-4.62714e-02,1.33980e+00,-6.96208e-02,7.10059e-04,1.73951e-02,-9.58376e-02,
-1.13296e-01,-1.99712e-02,2.14324e-02,-9.83585e-02,9.90898e-02,3.39048e-03,1.89775e-01,1.55461e-01,-3.92937e-02,6.84933e-02,3.53080e-02,2.25215e-02,5.12655e-02,-7.41923e-02,2.27736e-02,1.28313e+00,-3.45786e-02,-1.04753e-02,6.62865e-03,-1.23023e-01,
1.27855e-01,1.49573e-01,9.18811e-02,1.50527e-01,-5.14366e-01,3.17934e-02,1.02688e-01,-2.23831e-01,1.03123e-02,4.20522e-01,-1.10303e-02,1.65492e-01,6.37936e-02,5.16471e-02,-8.95774e-03,-6.56198e-01,1.63232e-01,1.20590e-02,1.44906e-01,9.74323e-02,
8.55266e-02,1.45891e-01,2.37223e-02,1.26640e-01,-4.21567e-01,-4.27943e-02,9.05436e-02,-1.29978e-01,-3.19018e-02,3.36135e-01,-4.09958e-02,1.09040e-01,2.18597e-01,1.06947e-01,7.58679e-03,-9.16666e-01,1.43614e-01,9.26616e-02,9.60273e-02,1.64874e-01,
2.82615e-02,1.05702e-01,1.42052e-01,-2.63875e-02,1.21226e+00,-2.41324e-02,-7.64617e-01,-3.17689e-03,3.65334e-03,-3.53917e-01,-4.86988e-02,-7.89218e-02,-1.27324e+00,-4.89739e-01,6.96897e-03,-1.43838e+00,-9.15419e-02,-7.33682e-01,5.33386e-02,4.64883e-02,
4.86892e-02,-4.70661e-02,-2.11036e-02,-2.83563e-02,7.39716e-03,-1.62578e-02,2.71782e-02,-9.60684e-03,1.62266e-02,-2.77825e-02,-2.49771e-03,-1.55384e-02,2.32825e-02,-6.24181e-03,3.03303e-02,-3.55380e-02,-4.02232e-02,-1.35937e-02,-5.95186e-03,-5.08290e-03,
1.82122e-01,1.21352e-01,9.39001e-04,1.20606e-01,-1.52812e-01,-2.12630e-02,1.00360e-01,6.25166e-02,-3.12023e-02,1.84494e-01,-2.62463e-02,1.62065e-01,3.76346e-01,1.54931e-01,-1.14666e-02,-8.66471e-01,1.60517e-01,1.93699e-01,9.89105e-02,1.61752e-01,
-6.70200e-02,-7.01199e-02,9.18420e-02,-4.78738e-02,6.03909e-02,-4.30197e-02,1.67895e-01,5.17612e-02,-2.89499e-02,-9.65239e-03,-1.56868e-03,-3.36061e-02,5.39721e-02,2.40675e-02,2.26814e-03,1.37351e+00,-1.03008e-01,4.70857e-02,2.93254e-02,-9.04609e-02,
1.29258e-01,2.06859e-01,1.68222e-01,1.91779e-01,-5.94057e-01,-3.57948e-02,1.47038e-01,-3.37798e-01,-3.18292e-02,5.10498e-01,-8.04646e-03,1.27340e-01,1.85201e-03,7.97266e-02,-2.04649e-02,-5.24741e-01,1.52824e-01,-5.19404e-02,1.88049e-01,1.53576e-01,
-3.29637e-02,3.42410e-02,4.49594e-02,-4.86892e-02,-1.58885e-02,-9.92238e-03,1.93461e-02,3.00252e-04,-1.49116e-02,-5.07244e-02,-4.12589e-02,-2.45810e-02,2.96072e-02,1.08531e-02,1.24048e-02,-3.91674e-02,2.04907e-02,-2.73256e-02,-4.29695e-02,-3.26786e-02,
2.63980e-02,
2.65463e-02,
3.52123e-02,
2.72230e-02,
-1.13584e-02,
1.94491e-02,
1.12420e-02,
9.05240e-03,
1.00140e-01,
1.08952e-02,
1.02545e-01,
1.04566e-01,
2.21775e-02,
2.91947e-02,
1.28845e-01,
-5.64112e-03,
1.35187e-02,
1.04264e-01,
4.39231e-02,
-7.08760e-03,
1.68634e-01,2.02530e-01,1.24082e-01,2.05209e-01,-2.61218e-01,1.09659e-01,1.09264e-01,1.53981e-01,-2.89087e-01,1.00163e-01,-3.14788e-01,-2.86840e-01,1.19813e-01,1.48846e-01,-1.04552e+00,-3.98351e-02,1.52264e-01,-3.26120e-01,9.09812e-02,-4.62385e-02,
3.67208e-02,2.08358e-02,2.94929e-02,-4.74711e-02,-1.17833e-02,2.70349e-04,2.86520e-02,-5.08291e-02,4.07710e-02,5.36281e-03,-2.86628e-02,3.54706e-02,1.03587e-02,-5.21117e-02,-4.13377e-02,4.46882e-02,2.69808e-02,-3.17143e-02,-1.49076e-02,3.95066e-02,
1.67998e-01,1.93288e-01,9.71711e-02,2.19603e-01,-9.18773e-02,1.31287e-01,8.68698e-02,1.63495e-01,-3.24735e-01,1.67296e-01,-3.29294e-01,-3.01944e-01,1.40262e-01,1.20322e-01,-1.47782e+00,-4.12064e-02,1.88969e-01,-3.33009e-01,7.90467e-02,-1.09798e-02,
2.00315e-01,2.55614e-01,9.53818e-02,1.84443e-01,-5.16192e-01,8.47766e-02,4.64631e-02,1.08679e-01,-2.09116e-01,8.19873e-02,-2.05550e-01,-2.14043e-01,3.19883e-02,1.37936e-01,-1.29696e+00,-1.29249e-02,1.22544e-01,-1.90158e-01,-6.52398e-02,-3.55944e-02,
7.13361e-02,6.53912e-02,6.87200e-02,1.45039e-01,-3.19330e-01,1.30559e-01,1.57770e-01,1.06843e-01,-3.93473e-01,1.24950e-01,-4.13396e-01,-3.35736e-01,1.30374e-01,1.35286e-01,-8.37244e-01,1.02520e-02,5.57042e-02,-4.00398e-01,7.12533e-02,-9.25682e-03,
2.16670e-01,7.38149e-02,4.83368e-01,1.52234e-01,1.79065e-01,4.17195e-01,2.13474e-01,2.39629e-01,-2.03569e-01,3.84724e-01,-1.02020e-01,-1.44234e-01,4.24228e-01,3.24180e-01,-1.16169e+00,-1.23347e-02,1.02566e-01,-1.38543e-01,5.01531e-01,-2.63757e-02,
1.17223e-01,1.51003e-01,2.22275e-02,1.73226e-01,-4.75829e-01,1.01885e-01,2.15157e-01,1.99972e-01,-4.34781e-01,1.88560e-03,-4.40070e-01,-4.47174e-01,3.45144e-02,9.22478e-02,-2.95339e-01,2.50068e-02,1.53108e-01,-4.48339e-01,5.00401e-02,-3.03719e-02,
-1.28879e-02,-3.19296e-03,2.06912e-02,5.59362e-02,6.71534e-01,1.99602e-02,-3.17015e-02,2.43896e-02,4.94213e-01,8.15025e-02,5.42832e-01,5.07652e-01,4.99701e-02,-4.43302e-03,-2.63376e-01,-3.42655e-02,-1.48253e-02,5.43695e-01,5.75512e-02,2.92092e-02,
-5.34391e-02,4.95855e-02,-1.57594e-02,-4.15268e-02,7.09082e-01,4.63516e-02,3.90595e-02,6.55620e-02,4.84249e-01,8.96014e-02,4.47036e-01,4.84100e-01,4.96990e-02,-4.11481e-03,1.09261e-01,-4.25364e-02,-1.73881e-02,5.42252e-01,9.62930e-02,-1.73411e-02,
1.52560e-01,5.29482e-02,2.02381e-01,1.30881e-01,-4.20139e-01,1.92008e-01,1.21660e-01,8.46372e-02,-2.75203e-01,1.63172e-01,-2.28269e-01,-2.22991e-01,1.61881e-01,1.44350e-01,-1.17902e+00,4.74736e-02,4.65920e-02,-1.82321e-01,1.17743e-01,-7.13574e-03,
1.13697e-01,2.23573e-01,7.83479e-02,1.93430e-01,-4.00126e-01,1.31768e-01,1.50137e-01,6.32347e-02,-2.82198e-01,1.22808e-01,-2.81377e-01,-2.79144e-01,5.16078e-02,1.70447e-01,-1.26142e+00,-4.75388e-02,1.55591e-01,-2.58918e-01,4.13539e-02,-3.20930e-02,
3.11908e-02,2.15928e-02,-1.82778e-02,-2.04079e-02,-2.82604e-02,1.67470e-02,1.55232e-02,-4.94528e-02,-4.96846e-03,-4.36867e-02,-5.24295e-02,8.90709e-03,-1.68327e-03,-5.15568e-02,-6.01446e-03,3.78359e-02,-3.95574e-02,2.17289e-02,4.43184e-02,3.59509e-02,
1.96523e-01,1.69646e-01,1.89177e-01,1.14107e-01,-2.83481e-01,1.40073e-01,1.46380e-01,1.78298e-01,-3.39059e-01,1.95024e-01,-3.06891e-01,-3.26164e-01,1.13582e-01,1.89769e-01,-9.50345e-01,1.16631e-02,1.68174e-01,-3.51423e-01,1.63826e-01,3.64689e-02,
2.09251e-02,-5.89276e-02,-2.65341e-02,2.86443e-02,-2.58986e-02,2.71241e-02,3.10817e-02,-5.23820e-02,-7.64841e-03,-2.64349e-02,1.80455e-02,-4.13041e-02,-4.34766e-02,3.57193e-02,1.55080e-02,4.78426e-02,-5.87117e-03,2.00797e-02,-4.81762e-02,-3.97253e-02,
1.48245e-01,-7.54292e-03,2.78346e-01,8.12712e-02,-1.85572e-01,1.81777e-01,2.13868e-01,2.37126e-01,-4.08080e-01,2.04969e-01,-4.77441e-01,-4.77779e-01,2.21719e-01,1.78978e-01,-1.92521e-01,4.84351e-02,9.92481e-02,-4.63237e-01,2.08525e-01,4.50916e-02,
1.58628e-01,3.34016e-01,-9.48080e-03,2.76856e-01,-4.69021e-01,2.16192e-02,5.44992e-02,-7.65946e-03,-1.51787e-01,-3.70763e-02,-2.53154e-01,-1.50572e-01,-6.66501e-02,5.98334e-02,-1.40394e+00,-8.29869e-03,2.15018e-01,-1.87090e-01,-6.89741e-02,2.94336e-03,
1.79162e-01,1.75862e-01,1.79416e-01,1.97350e-01,-3.62561e-01,1.68293e-01,5.23615e-02,1.18493e-01,-2.80846e-01,1.19585e-01,-2.27097e-01,-2.00557e-01,4.84959e-02,1.06489e-01,-1.38782e+00,3.54110e-02,1.16634e-01,-1.98093e-01,1.17636e-01,-2.34323e-03,
1.44152e-01,4.35764e-02,2.41252e-01,5.09907e-02,2.02407e-02,2.20148e-01,2.26015e-01,2.25209e-01,-4.53371e-01,2.22409e-01,-4.50601e-01,-5.43546e-01,2.86401e-01,1.50775e-01,-4.27400e-01,3.88259e-02,1.44591e-01,-4.12507e-01,2.64048e-01,-9.01391e-03,
1.00716e-01,1.29793e-01,1.43379e-01,1.82545e-01,-3.09535e-02,1.71255e-01,7.36772e-02,1.21943e-01,-3.61706e-01,1.04184e-01,-2.85788e-01,-3.08442e-01,7.01897e-02,1.11257e-01,-1.11179e+00,-3.79492e-02,1.55213e-01,-2.76198e-01,1.56930e-01,-3.24667e-02,
1.42493e-01,3.35125e-01,2.69842e-02,3.03396e-01,9.32995e-02,1.05683e-01,1.82071e-01,2.08976e-01,-1.51805e-01,9.48811e-02,-1.89740e-01,-1.89283e-01,9.83569e-02,1.44415e-01,-1.58020e+00,-5.90130e-03,2.58540e-01,-1.72445e-01,2.45230e-02,-2.10318e-02,
2.63155e-02,
-4.83709e-03,
-3.91465e-02,
1.17157e-01,
-9.34198e-03,
1.18342e-01,
6.11620e-02,
6.58943e-02,
8.66808e-02,
1.44586e-01,
9.35806e-02,
-1.23365e-02,
3.68635e-02,
-1.38548e-02,
3.54201e-02,
9.92778e-02,
7.34904e-02,
-1.04491e-01,
-5.69793e-02,
-7.46467e-02,
1.98536e-01,1.50864e-02,-4.24592e-01,1.14806e+00,2.62587e-01,2.77322e-02,3.44223e-01,1.15791e-01,-7.44977e-02,9.36861e-02,7.39771e-01,-1.61479e-02,5.82715e-02,-2.00366e-02,-7.02870e-01,1.21009e+00,4.84590e-01,-3.87200e-01,-1.95416e-01,-3.80275e-01,
6.62656e-03,-4.29373e-02,1.00005e-02,-5.70416e-02,-4.79523e-02,8.76782e-03,2.98000e-02,1.11414e-02,-3.62164e-02,4.13949e-02,-1.22200e-02,-3.02911e-02,-4.08734e-02,4.02840e-02,-6.41645e-03,-5.37386e-02,-4.13797e-02,-7.66467e-03,-1.22398e-02,8.96638e-04,
3.22765e-01,5.50862e-03,6.04469e-01,9.44373e-02,4.10438e-01,1.14022e-01,3.84366e-02,-4.07798e-01,-4.71614e-01,1.50740e-01,1.46552e-01,-3.05732e-02,2.08124e-01,-1.43584e-02,1.09315e-01,1.81290e-01,1.84317e-01,1.97009e-01,3.58507e-01,2.72391e-01,
2.29622e-01,3.66932e-02,-3.31979e-01,2.32777e-01,3.92974e-01,1.88945e-01,-2.88888e-01,-2.94312e-01,-3.01106e-01,2.91202e-01,2.04536e-01,1.90616e-02,2.35066e-01,-2.87741e-02,6.78929e-01,1.25591e-01,1.65335e-01,9.46906e-01,2.96254e-01,2.50715e-01,
-4.22762e-02,3.00542e-02,7.41298e-01,-3.91040e-01,-1.99045e-01,4.42942e-01,-5.52920e-01,3.71113e-01,3.76028e-01,1.73081e-02,-2.62211e-01,4.72042e-02,1.05414e-01,2.45613e-02,-3.03724e-01,-4.61327e-01,-8.63931e-02,-3.96086e-01,2.53001e-01,3.63234e-01,
2.97469e-01,-1.14282e-02,-6.02556e-01,3.43408e-01,1.96432e-01,3.54191e-01,1.12033e+00,-3.34216e-01,-3.58456e-01,5.10479e-01,4.66845e-01,8.31981e-03,3.44574e-01,-4.95056e-02,1.67193e-01,2.25692e-01,4.67166e-01,-3.48145e-01,-4.54911e-01,-4.96669e-01,
2.46627e-01,-2.07078e-02,-6.34916e-02,5.41938e-01,3.23369e-01,5.23907e-02,-4.68019e-01,-4.72606e-02,-2.06811e-01,2.06443e-01,3.22941e-01,3.00878e-02,7.02906e-02,-3.10752e-02,3.24077e-01,6.55777e-01,2.26891e-01,7.21329e-01,2.16951e-01,3.85347e-01,
3.69144e-01,2.01592e-02,7.75018e-01,2.99250e-01,3.55013e-01,3.61189e-01,-5.03464e-01,-6.58002e-02,-7.73319e-02,3.22331e-01,2.91287e-01,3.05448e-02,3.94714e-01,-2.46260e-02,-7.58822e-02,2.31466e-01,3.38613e-01,-4.27889e-02,7.76101e-01,6.13013e-01,
-1.15463e-02,2.14879e-02,-4.11271e-02,4.24015e-02,4.35545e-02,-2.40694e-02,1.54432e-02,-1.31607e-02,-2.63428e-02,-3.89575e-02,-3.52322e-02,-2.84478e-02,-4.57363e-02,-4.19316e-02,-3.17034e-02,-2.24141e-02,4.50967e-02,-7.50970e-03,4.52599e-02,2.52522e-02,
3.76571e-01,-4.41249e-02,-2.81867e-01,1.94882e-01,3.95722e-01,2.18887e-01,-8.37075e-02,-4.07221e-01,-3.97522e-01,2.52837e-01,3.03351e-01,-2.40830e-02,3.17707e-01,-9.60077e-03,7.46017e-01,1.51467e-01,2.24148e-01,9.84147e-01,1.44848e-01,6.46289e-02,
2.66718e-01,6.91448e-03,-2.75961e-01,1.57136e-01,2.90195e-01,1.84732e-01,-3.25527e-01,-2.51296e-01,-2.59662e-01,1.87717e-01,1.86491e-01,-1.19693e-02,1.44427e-01,2.39845e-02,7.84143e-01,1.79559e-01,5.39262e-02,9.94155e-01,9.53040e-02,4.15394e-01,
1.34244e-02,4.45660e-02,3.91757e-02,2.45684e-02,-4.22019e-02,-3.73698e-03,-2.47018e-02,1.78679e-02,-2.26683e-02,-4.13207e-02,7.60316e-04,1.92529e-02,-3.70539e-02,-3.07719e-02,1.67604e-03,8.28517e-03,2.96750e-03,-3.92975e-02,3.33593e-02,-4.88898e-02,
-2.49798e-02,-3.42741e-02,-3.17587e-02,-3.68125e-02,-1.90012e-02,-4.25854e-03,2.04965e-02,-5.30650e-02,1.56254e-02,-4.98116e-02,2.64362e-02,2.13397e-02,3.75637e-03,-3.27411e-02,2.99510e-02,1.21811e-02,-6.44538e-04,-3.57210e-02,-3.51532e-02,-3.31573e-02,
-2.95150e-02,1.45159e-02,-4.56641e-03,3.52841e-02,2.73007e-02,-1.49129e-02,-3.30556e-02,-2.03998e-02,8.56762e-03,-4.66532e-02,-2.29135e-02,-4.98130e-02,-3.61540e-02,8.76703e-03,-3.39535e-02,-2.22032e-02,-1.29094e-02,-1.68330e-02,1.93218e-02,-3.68289e-02,
-2.43082e-02,1.61682e-02,-5.04962e-02,-4.23906e-02,-4.23257e-02,-3.77832e-02,9.87723e-03,-2.18995e-02,2.06338e-02,1.68241e-02,-3.52209e-02,-3.59460e-02,-4.04708e-02,-4.68591e-02,3.71137e-03,-2.66218e-02,-5.30769e-02,-1.93282e-02,4.05504e-02,2.51798e-02,
-3.72524e-02,-2.27801e-02,6.40940e-01,-2.53810e-01,-2.18217e-01,1.50466e-01,-1.03846e+00,4.14426e-01,3.72184e-01,-2.53785e-02,-3.54803e-01,2.98475e-02,-3.75206e-02,2.00532e-03,-4.74691e-01,-1.87840e-01,-5.39810e-02,-2.79196e-01,5.11149e-01,6.84089e-01,
4.96427e-01,-3.37459e-02,9.56973e-01,3.18024e-01,4.39546e-01,2.69499e-01,-4.18464e-01,-9.55595e-02,-1.75068e-01,2.54199e-01,3.40216e-01,1.40057e-02,4.19997e-01,6.52125e-03,-2.29504e-01,3.34712e-01,3.45719e-01,-5.85860e-01,5.32938e-01,5.93669e-01,
-1.56781e-02,2.54342e-02,2.80863e-02,-1.64783e-02,7.01219e-03,1.97535e-02,-1.38695e-02,-1.73661e-02,-1.82927e-02,-4.86497e-02,-1.28748e-02,-1.78635e-02,4.87320e-02,-4.53066e-02,-4.63706e-02,3.66595e-02,-2.06354e-02,-4.19412e-02,4.26677e-02,-4.44632e-02,
3.51802e-02,1.44430e-03,-4.01462e-02,-5.17994e-02,-8.02078e-03,-1.23959e-02,-4.79792e-02,3.04076e-02,-6.28200e-02,2.20954e-02,-2.91059e-02,2.49218e-02,-4.60568e-02,4.85088e-02,1.59975e-04,6.67871e-03,-1.68885e-03,3.41626e-02,-1.16094e-02,-1.66579e-02,
3.29774e-01,5.13669e-02,-2.21100e-01,8.50591e-02,3.61121e-01,3.36184e-01,2.75920e-02,-4.05664e-01,-4.21849e-01,2.96608e-01,1.93294e-01,4.24700e-04,3.64146e-01,3.52096e-02,8.73519e-01,1.87353e-02,1.96334e-01,1.19598e+00,1.74381e-01,7.67619e-04,
9.17247e-02,
-6.58099e-03,
-1.48901e-01,
6.77361e-02,
5.94609e-03,
1.85047e-01,
7.27507e-02,
-1.02897e-01,
-6.94531e-04,
2.90062e-02,
1.03077e-01,
-8.01691e-04,
-9.57160e-03,
-5.66734e-03,
-1.05636e-02,
-2.30305e-02,
-1.72917e-01,
-6.94536e-04,
-1.02194e-02,
-9.94957e-03,
2.11505e-01,-2.09018e-02,2.70895e-01,5.04515e-01,-5.80306e-02,1.93531e-01,2.98017e-01,3.17637e-01,1.55533e-02,6.73731e-01,3.91726e-01,2.19053e-02,3.03690e-02,-2.27294e-02,3.87886e-02,1.71823e-02,-2.89956e-02,-1.06314e-02,3.87981e-02,7.68322e-01,
1.75701e-01,2.02194e-02,-8.94946e-02,-2.07665e-01,9.33580e-02,5.31361e-01,-8.36997e-02,2.41282e-01,1.59423e-02,-2.19097e-01,-2.51835e-01,-4.89088e-02,3.72448e-02,1.55744e-02,-8.14215e-03,-1.39458e-01,3.42840e-01,-4.50540e-02,-3.62179e-02,-3.44245e-01,
-3.41971e-02,-7.71071e-03,3.46205e-01,5.37895e-01,-1.85360e-01,1.15152e-01,1.73613e-01,-7.54527e-03,4.89265e-02,6.50842e-01,3.42103e-01,-4.76600e-02,-2.86756e-02,9.74354e-03,2.10977e-02,1.64332e-01,-1.29694e-01,4.40807e-02,-1.51515e-02,7.73469e-01,
-4.74307e-02,-1.80619e-02,-2.28088e-02,2.36000e-02,-2.34614e-02,2.55249e-02,-4.80567e-03,8.20507e-04,-4.05195e-02,3.46458e-02,-3.59297e-02,-2.94893e-02,-1.77389e-02,1.83897e-02,-8.61573e-03,-4.89806e-02,-3.84557e-02,1.02628e-02,-4.09447e-02,-1.22506e-02,
-4.47469e-02,4.92561e-03,-4.24848e-02,2.57912e-02,-1.88595e-02,-4.57058e-02,-9.79045e-03,4.24648e-02,2.11632e-02,3.63725e-02,-4.07922e-02,1.09142e-02,3.33582e-02,-1.83504e-02,1.29551e-02,-3.52264e-02,-3.81206e-02,-4.86621e-02,1.63870e-03,3.36374e-02,
1.77279e-01,4.87763e-02,-6.15130e-02,-1.54602e-02,2.58579e-02,-3.59272e-01,3.63782e-01,3.23356e-02,1.06287e-02,-6.31445e-02,1.44996e-01,-4.92010e-02,6.01904e-02,3.98658e-02,4.42476e-02,-3.26930e-02,1.14517e-02,-3.09142e-02,-3.13504e-02,-1.71446e-01,
-1.41526e-02,1.91101e-02,-5.17169e-02,4.19614e-02,-3.42770e-02,-4.24905e-02,3.36863e-02,2.71996e-02,-3.75569e-02,-9.70770e-03,-2.43516e-02,-4.78852e-03,-2.43343e-02,-5.85715e-03,-1.25471e-03,-4.70019e-02,-8.62635e-05,-2.00410e-02,-4.10901e-02,2.57836e-02,
1.26432e-01,2.92957e-04,8.27024e-02,2.85593e-01,-1.51674e-01,2.82464e-01,2.58027e-01,3.75806e-01,-2.19013e-02,1.95935e-01,2.99869e-01,4.21890e-02,3.67582e-02,8.09998e-03,-7.67547e-03,-1.11932e-01,4.97320e-01,1.17455e-03,8.35974e-03,1.17557e-01,
-9.42189e-03,3.75628e-02,-5.31191e-03,3.30391e-02,-2.15772e-02,-5.19940e-03,-2.57668e-02,-4.95841e-02,2.63502e-02,3.82815e-02,8.20440e-03,-3.75104e-02,-1.17694e-02,-2.42275e-02,2.46994e-03,-6.51453e-03,2.39930e-02,-1.18330e-02,-2.04331e-02,-2.77629e-02,
-3.81555e-02,4.13160e-02,3.62217e-02,2.14309e-02,-7.32674e-03,-1.44407e-02,-3.04957e-02,2.09143e-02,-2.57057e-02,-2.71076e-02,1.40035e-02,-9.26963e-03,7.21220e-03,5.96207e-03,-1.20589e-04,5.98083e-03,-3.65376e-02,1.31276e-04,-2.71927e-02,-1.09853e-02,
-1.62579e-01,-8.91780e-03,8.32861e-02,1.30908e-01,-1.36066e-02,-3.52757e-01,1.32012e-01,4.57118e-01,-2.21105e-02,-1.00283e-02,1.25291e-01,-7.99460e-03,-2.96206e-02,3.46090e-02,4.02094e-02,1.10585e-01,4.39215e-01,-1.72832e-02,4.49003e-03,6.50260e-03,
1.58063e-02,-2.68289e-02,-1.23392e-02,1.84898e-01,-3.95311e-01,1.35419e-01,9.60136e-02,-3.49998e-01,4.82668e-02,1.95215e-01,2.20073e-01,2.74123e-03,8.03127e-03,4.51981e-02,-8.44233e-03,-6.27504e-01,-2.17947e-01,3.75113e-02,-2.56392e-02,1.48201e-01,
1.63459e-01,-9.89477e-03,-5.13726e-02,-1.72684e-01,-7.48833e-02,-2.70315e-01,2.95301e-01,2.74375e-01,-4.54708e-02,-2.16004e-01,-4.27622e-02,7.21583e-03,-1.77487e-02,4.41354e-02,-6.95562e-03,3.41766e-02,3.95598e-01,-3.28514e-02,-3.28518e-02,-4.72568e-01,
1.16337e-01,-1.80271e-02,1.48779e-01,3.39168e-01,-4.24632e-01,3.72170e-01,2.42882e-01,-6.33198e-02,3.94830e-02,4.80810e-01,3.44850e-01,-3.19798e-02,-1.41651e-02,-4.37449e-02,-4.68706e-02,-5.61400e-01,-1.99508e-01,-4.06484e-02,-4.30452e-02,5.29928e-01,
2.29429e-01,2.61367e-02,-1.44410e-01,1.99428e-02,-1.96927e-01,4.88944e-01,-1.24660e-01,-7.94079e-02,-3.98206e-02,1.52800e-01,-1.83228e-01,2.06868e-02,2.20087e-02,-3.92527e-02,-4.58355e-02,-3.87145e-01,-4.62164e-01,-4.14315e-02,1.46662e-02,1.14481e-01,
1.72497e-01,3.65781e-02,1.65823e-01,7.50025e-02,-8.56278e-02,-2.11792e-01,2.20839e-01,1.96946e-01,-3.53942e-03,-8.47749e-02,1.60623e-01,4.93898e-02,-2.55543e-02,3.41516e-02,3.47819e-02,5.90116e-02,3.63375e-01,-2.34795e-02,4.08558e-02,-3.82382e-03,
3.34724e-01,3.94274e-02,8.77938e-02,3.44027e-01,-5.17350e-01,4.34336e-01,3.54249e-01,1.16015e-01,1.90034e-02,5.06166e-01,2.93512e-01,-1.09378e-04,4.81811e-03,3.43830e-02,1.99979e-02,-2.44841e-01,6.95509e-02,4.14310e-03,2.45431e-02,3.15358e-01,
3.08902e-01,1.40284e-02,2.26805e-01,7.50045e-02,-1.56523e-01,-2.35922e-01,3.33969e-01,1.60774e-01,5.71832e-03,1.00164e-01,1.86413e-01,4.43087e-02,-3.84451e-02,2.59436e-02,-1.89379e-02,9.97133e-02,7.47191e-02,4.00445e-02,3.57366e-02,1.16572e-01,
2.53454e-01,4.01656e-02,2.40703e-01,-6.45813e-03,-1.22508e-01,1.42726e-03,1.16774e-01,2.81437e-01,4.18799e-02,5.51619e-02,8.16956e-02,-3.97505e-02,-3.07117e-03,3.59712e-02,-2.55188e-02,1.46607e-01,4.03025e-01,-7.73576e-03,2.84733e-02,1.08600e-01,
2.52756e-01,-2.57419e-02,2.49732e-01,2.80059e-01,-2.37381e-01,1.48163e-01,3.66692e-01,5.35420e-02,1.58693e-02,3.06800e-01,1.96279e-01,-1.19729e-03,3.87298e-02,6.13616e-03,1.18282e-02,9.32937e-02,-3.16276e-01,-3.82768e-03,-4.83105e-02,2.75896e-01,
4.55533e-04,
2.36999e-02,
-4.90795e-02,
0.00000e+00,
0.00000e+00,
5.12764e-02,
-2.55085e-03,
-1.76759e-01,
-6.94532e-04,
-4.06797e-03,
-2.50284e-01,
2.52728e-01,
2.33091e-03,
3.95787e-02,
1.55169e-01,
2.67317e-02,
3.32848e-02,
4.43006e-02,
9.55395e-03,
-5.13307e-02,
-1.42387e-01,3.14216e-02,-3.28773e-01,4.89019e-02,3.99473e-02,2.17457e-02,-2.11941e-02,-4.62500e-01,-1.68775e-03,1.83821e-02,2.79153e-01,2.25054e-01,2.12928e-01,2.23349e-01,4.45833e-02,5.87986e-03,-4.96594e-02,-6.56990e-02,-1.45440e-02,-1.28155e-01,
-7.95468e-02,1.79715e-01,-1.93695e-01,4.43245e-02,-1.68027e-03,-1.32731e-01,-2.59247e-02,2.92098e-01,3.90303e-03,-2.86614e-02,-1.32235e-01,-8.98279e-03,-5.32494e-02,-1.80429e-01,-1.09263e-01,4.34239e-02,-6.77089e-01,-1.55664e-01,2.88287e-02,-3.06572e-01,
-3.10882e-01,-1.42022e-01,-3.89056e-01,1.73684e-03,1.39079e-02,2.06281e-02,-1.73937e-02,-1.15313e-01,-1.15338e-02,2.31370e-02,1.76768e-01,4.67035e-01,1.71167e-01,-1.11930e-01,4.48137e-01,-6.46537e-02,1.19084e-01,-1.08112e-01,-1.37662e-01,-1.92938e-02,
-2.54934e-01,5.09535e-01,-1.47756e-01,3.01351e-02,1.38570e-02,-3.54232e-01,-2.85947e-02,1.56711e-01,-1.43794e-02,3.26819e-02,8.45610e-02,3.64205e-01,-1.06677e-01,-2.39407e-01,1.86584e-01,-2.06339e-01,-2.29638e-01,-2.26238e-01,6.12347e-02,-2.87083e-01,
-3.37651e-01,1.55048e-01,-1.80855e-01,2.06961e-03,-9.81551e-04,-1.47138e-01,-3.32230e-03,-8.59394e-02,-3.38014e-02,-1.20408e-02,-2.51340e-01,1.43758e-01,-3.07671e-02,8.27364e-02,2.96193e-01,-6.16983e-02,-9.38459e-02,-4.40303e-02,-1.35366e-02,-1.45215e-01,
-2.78175e-01,1.31693e-01,-5.26612e-01,4.95263e-02,-2.25657e-02,1.41102e-01,-3.29361e-02,1.67841e-01,-6.94353e-03,2.89466e-02,-1.16582e+00,5.63192e-02,1.68020e-01,-4.14975e-01,-5.55760e-01,1.05491e-02,-8.79079e-02,-2.13332e-02,4.29241e-03,6.78938e-02,
-1.04163e-01,-1.30280e-01,-4.09263e-02,-4.81653e-02,1.68162e-02,-2.39687e-01,1.03678e-02,-1.49767e-01,8.59121e-03,4.29019e-02,4.89988e-01,2.91097e-01,4.11805e-01,2.04320e-01,5.58995e-01,-3.76559e-01,-2.79739e-02,-3.72777e-01,-3.37959e-01,-1.37928e-01,
-2.37979e-01,2.06139e-01,-3.92843e-01,-4.41378e-03,-3.54850e-02,1.27233e-01,-2.11966e-02,1.62386e-01,2.83775e-03,-2.43223e-02,2.50906e-01,-5.65812e-01,5.68838e-02,-6.55896e-01,-2.93584e-02,2.05548e-02,-3.68772e-02,-6.69171e-03,-2.40549e-03,6.03148e-03,
-1.20771e-01,2.63463e-01,-1.70535e-01,-3.45239e-02,-5.85964e-03,-1.96520e-01,1.82718e-02,-8.77638e-02,2.18642e-02,-1.49607e-02,-1.41955e-01,-1.45259e-01,-6.10320e-01,3.41990e-01,9.17747e-01,-2.21745e-01,-2.89498e-02,-2.61111e-01,-3.17972e-02,-2.68295e-01,
2.78399e-02,
2.57657e-02,
-2.61139e-02,
-1.73581e-02,
-3.26897e-02,
6.31406e-03,
3.57186e-02,
1.07242e-02,
-3.47064e-02,
