// Neural Network File Format by Kyle Julian, Stanford 2016
6,3,9,20,
3,20,20,20,20,20,9,
0,
-8000.0,-100.0,0.0,
8000.0,100.0,40.0,
0.0,0.0,20.0,-0.7194709316423972,
16000.0,200.0,40.0,26.24923585890485,
-1.36025e-02,7.35674e-03,-5.33029e-04,
1.81880e-02,1.16161e-02,-1.59498e-01,
3.07705e-02,1.51325e-02,-1.74685e-01,
1.85987e-02,1.19909e-02,-1.72098e-01,
1.70251e+00,-1.69920e-01,-8.52303e-03,
5.38841e-01,-2.44956e-01,-1.64666e-01,
1.52560e+00,1.44821e-01,-7.76367e-02,
-5.40136e-03,-5.36830e-03,-1.57801e-04,
4.85101e-01,-2.98201e-01,-2.29722e-01,
1.66662e-01,-1.84720e-01,-2.62116e-01,
4.09975e-02,1.23648e-02,-1.31035e-01,
1.06056e+00,1.77896e-01,-6.02002e-02,
1.19345e+00,-6.19697e-02,-1.24782e-01,
5.11732e-01,-1.20437e-01,-1.37133e-01,
9.22714e-01,-4.70046e-02,-1.66405e-01,
3.10033e-02,-1.75710e-02,-1.38847e-01,
1.10107e+00,-7.29226e-03,-1.20484e-01,
1.41163e+00,-1.68042e-01,6.14800e-02,
1.03023e+00,-1.61781e-01,-1.65271e-01,
4.03357e-02,8.48157e-03,-1.71371e-01,
-1.15969e-02,
-1.04477e-01,
-1.15467e-01,
-1.11455e-01,
-2.57255e-03,
6.18879e-02,
-1.34985e-02,
-6.40271e-03,
7.32882e-02,
1.00061e-02,
-9.49924e-02,
1.17542e-01,
6.39208e-03,
-9.14581e-02,
1.27281e-02,
-9.31311e-02,
2.02959e-02,
6.90111e-02,
3.20042e-02,
-1.12365e-01,
1.62854e-02,1.33002e-01,1.65344e-01,2.13551e-01,-1.18292e+00,1.05705e-01,2.36379e-01,-1.98212e-02,6.69314e-02,2.25560e-02,4.17755e-02,3.32437e-01,1.08321e-01,-5.52689e-02,1.13517e-01,1.30782e-01,1.84281e-01,-3.99268e-02,1.51026e-01,1.20720e-01,
-3.23199e-03,1.95912e-01,1.41273e-01,2.10283e-01,-1.10649e+00,1.27214e-01,1.71199e-01,1.54166e-02,1.03756e-01,-6.61550e-03,4.76523e-02,2.07644e-01,8.97104e-02,-1.57641e-01,1.16577e-01,1.34481e-01,1.43345e-01,-2.69573e-02,1.30538e-01,1.76910e-01,
3.85761e-02,-4.77571e-02,3.25324e-02,3.53096e-02,-4.53431e-02,-4.35174e-02,1.94277e-02,4.60898e-02,-4.92683e-02,9.38702e-03,-4.27522e-02,-4.39821e-02,-9.66506e-03,3.24897e-02,-3.19412e-02,-2.29968e-02,-2.26404e-02,1.86895e-02,3.59676e-02,-2.68385e-02,
-4.17810e-02,2.12270e-01,9.71720e-02,2.15371e-01,-1.81377e+00,-3.13684e-02,2.27295e-01,-2.45682e-02,1.19491e-01,8.47461e-02,1.09401e-01,1.91738e-01,5.04247e-02,5.79807e-01,9.05357e-02,1.93122e-01,1.68428e-01,-6.75780e-01,6.72555e-03,1.17914e-01,
-5.65293e-03,1.96184e-01,1.34758e-01,2.08442e-01,-8.33911e-01,2.26347e-01,2.12889e-01,-1.02000e-02,2.48526e-01,7.54409e-02,1.15043e-01,7.24499e-02,1.59050e-01,-3.00282e-01,1.28437e-01,1.39691e-01,1.69333e-01,2.14690e-01,1.83047e-01,1.31895e-01,
4.84524e-02,1.42407e-01,1.29878e-01,1.88361e-01,-5.87943e-01,2.55069e-01,1.87068e-01,-9.72878e-04,2.56255e-01,1.14424e-01,1.21478e-01,7.06828e-02,1.99872e-01,-3.49779e-01,1.79152e-01,8.89880e-02,1.29565e-01,4.77629e-01,2.41224e-01,1.96301e-01,
-2.08830e-02,2.10235e-01,1.26820e-01,1.95172e-01,-9.57814e-01,1.51869e-01,1.38297e-01,2.55853e-02,1.41860e-01,9.83232e-02,1.25265e-01,1.80069e-01,1.80337e-01,3.12315e-01,1.34787e-01,1.38377e-01,1.15498e-01,9.09198e-02,1.73576e-01,1.94966e-01,
1.50372e-02,1.87335e-01,9.74946e-02,1.93597e-01,-2.02390e+00,9.73939e-02,1.66163e-01,-1.93968e-02,1.49961e-01,1.33822e-01,6.59210e-02,8.69788e-02,6.12362e-02,7.35271e-01,1.26013e-01,1.28717e-01,1.14380e-01,-6.47290e-01,4.98750e-02,2.02593e-01,
-2.10672e-02,1.44007e-01,1.20147e-01,1.81044e-01,-1.02631e+00,5.19823e-02,1.67221e-01,-2.73909e-02,3.03121e-02,-5.17526e-02,1.22766e-01,2.22252e-01,2.52257e-01,-2.79504e-01,1.50990e-01,1.27342e-01,2.46892e-01,2.57303e-01,1.88655e-01,1.92437e-01,
-3.32979e-02,1.34717e-01,1.81350e-01,1.56531e-01,-1.69955e+00,2.83982e-01,-5.00877e-01,2.53019e-02,3.43314e-01,2.87652e-01,1.33481e-01,-2.02312e-01,-2.83838e-02,3.95049e-01,7.49264e-02,1.43966e-01,-7.33797e-02,-6.32005e-01,2.14663e-01,1.26847e-01,
-7.91017e-03,1.53074e-01,1.40696e-01,1.96164e-01,-1.44870e+00,4.11677e-02,1.40289e-01,-2.63020e-02,7.55186e-02,-5.40626e-02,1.11522e-01,2.69537e-01,4.11204e-02,-2.11227e-01,8.99635e-02,1.13917e-01,1.18716e-01,-2.79048e-01,5.47293e-02,2.05900e-01,
-3.49467e-02,1.82157e-01,1.30463e-01,1.67394e-01,-7.45258e-01,3.67494e-01,8.46041e-02,-2.08691e-02,4.33463e-01,3.32936e-01,1.19676e-01,-4.76625e-02,-7.17678e-03,-3.93290e-01,1.15540e-01,1.55802e-01,4.26533e-02,9.30716e-02,2.79642e-01,1.81144e-01,
1.51509e-02,-5.39520e-02,-7.37598e-02,-1.02099e-01,1.59484e+00,-1.04771e-01,2.75489e-02,3.10793e-02,-1.42457e-01,3.34950e-02,-3.86683e-02,4.11250e-02,7.14865e-02,-1.28585e+00,-3.11052e-03,-8.97705e-02,1.57556e-02,3.52784e-01,-3.93904e-02,-1.18661e-01,
6.55361e-04,-1.34735e-01,-6.71545e-02,-1.73018e-01,1.49833e+00,-9.85380e-02,1.06851e-01,-3.55522e-02,-1.98160e-01,-6.34430e-02,-3.51054e-02,1.87079e-01,1.82223e-02,-1.24234e+00,-8.62195e-04,-1.70323e-01,1.13301e-01,3.20222e-01,-7.09800e-02,-1.60811e-01,
-6.79655e-03,2.11992e-01,1.27050e-01,1.43426e-01,-8.50106e-01,1.77373e-01,1.92954e-01,-3.36611e-02,1.89940e-01,7.92274e-02,9.68629e-02,1.20181e-01,1.95413e-01,-1.96162e-01,8.97668e-02,1.36752e-01,1.04236e-01,3.71322e-01,2.13757e-01,1.99015e-01,
-4.61438e-03,1.76256e-01,1.03182e-01,2.00846e-01,-1.09815e+00,4.25138e-04,2.62212e-01,-4.14720e-02,-8.63926e-03,-6.07084e-02,6.48121e-02,2.45272e-01,1.44116e-01,-6.36447e-01,1.12004e-01,5.79587e-02,2.22225e-01,3.78284e-01,1.44520e-01,1.48273e-01,
1.67773e-02,2.20303e-01,1.20017e-01,2.03632e-01,-8.30410e-01,3.79952e-02,2.85493e-01,3.52469e-02,1.91487e-02,6.87331e-03,7.47449e-02,2.46752e-01,2.11552e-01,-5.49639e-01,1.64010e-01,4.94621e-02,2.68254e-01,4.81330e-01,1.58143e-01,1.20211e-01,
-1.27383e-02,1.61489e-01,1.71678e-01,2.15690e-01,-9.29559e-01,1.86486e-01,2.00413e-01,4.54240e-03,1.38685e-01,1.02965e-02,5.34997e-02,1.17408e-01,2.26813e-01,-2.26609e-01,1.74538e-01,1.29996e-01,1.93300e-01,2.72126e-01,1.47709e-01,1.47403e-01,
1.52060e-02,2.03012e-01,1.29950e-01,1.79879e-01,-9.32260e-01,6.71897e-02,2.83972e-01,2.67268e-02,8.50411e-02,-2.24080e-02,1.04635e-01,2.03174e-01,2.42101e-01,-4.21125e-01,1.49857e-01,2.90906e-02,1.59098e-01,4.30721e-01,2.11589e-01,1.47635e-01,
2.02585e-02,-4.02308e-02,3.68079e-02,-3.58692e-02,-4.17043e-02,-1.97372e-02,-2.39809e-02,2.62669e-02,-4.65097e-02,-5.34188e-02,-2.67983e-02,3.48468e-03,2.17658e-02,-3.79076e-02,-1.67592e-02,3.79721e-02,-2.07753e-02,-7.03086e-04,3.67065e-02,4.69217e-02,
2.08275e-05,
-5.82309e-04,
-1.81711e-03,
7.80463e-03,
-2.48104e-02,
-5.29159e-02,
-2.28828e-05,
4.23558e-02,
-3.56366e-02,
-2.03325e-02,
3.82257e-02,
5.32283e-02,
1.31963e-01,
1.39781e-01,
-5.99919e-02,
-2.96779e-02,
-6.43235e-02,
-4.13809e-02,
-6.49083e-02,
-8.23096e-03,
-2.77515e-01,-1.59566e-01,-8.99459e-03,7.79830e-01,-1.50670e-01,-2.34050e-01,-2.25324e-01,1.12410e+00,-6.51976e-01,1.18711e+00,-1.54719e-01,3.48935e-01,-3.14742e-02,-1.72226e-01,-3.60811e-01,-8.90477e-01,-8.60586e-01,-3.87515e-01,-6.68949e-01,1.09283e-02,
-7.04181e-03,-4.24066e-02,-4.89291e-02,8.24472e-03,-1.06442e-02,2.83694e-02,-3.02335e-02,-2.66145e-02,3.27352e-02,-9.43618e-03,-4.75991e-02,-2.34363e-03,-1.67626e-04,-4.35176e-02,-2.79269e-03,2.61053e-02,3.68923e-02,3.64713e-02,-2.42630e-02,4.55024e-03,
1.39677e-01,1.56844e-01,-2.03081e-02,1.53666e-01,1.31367e-01,1.23665e-01,1.86890e-01,3.16442e-01,1.48347e-01,4.26577e-01,2.46255e-01,2.52169e-01,-4.68164e-01,-3.96334e-01,1.40874e-01,7.08107e-02,9.31653e-02,1.73030e-01,7.83297e-02,1.51290e-02,
-1.80352e-02,6.97993e-03,-4.25122e-02,-3.05793e-02,-2.81305e-02,-4.00406e-02,-1.12045e-03,2.03366e-02,-4.89329e-02,-1.82435e-02,2.24876e-02,3.60228e-02,-4.12216e-02,-8.92451e-03,-4.81357e-02,3.58227e-02,7.11451e-03,4.16631e-02,1.52924e-02,3.23317e-02,
2.60493e-01,1.87411e-01,4.68376e-03,1.70718e-01,9.68023e-02,1.45861e-01,1.77591e-01,2.88130e-01,2.75332e-01,4.68462e-01,2.09667e-01,1.07081e-01,-4.35054e-01,-2.54399e-01,1.26162e-01,2.51696e-01,2.72385e-01,1.84681e-01,2.20475e-01,-3.06731e-02,
4.43856e-03,1.04370e-01,-3.16364e-02,-2.00993e-01,3.15141e-01,3.44337e-01,1.77861e-01,9.45560e-02,3.81787e-02,6.72696e-01,-9.12387e-02,4.34297e-01,-5.51619e-01,-6.07561e-01,2.84249e-01,-1.71269e-01,5.55872e-02,1.99120e-01,8.59238e-02,-2.97229e-02,
2.77785e-03,-3.19194e-02,4.51750e-03,3.51406e-02,2.60296e-02,-3.87513e-02,-2.51334e-02,1.78082e-02,-1.60307e-02,4.97908e-03,1.15912e-02,3.24606e-02,-1.40934e-02,-3.37966e-02,-3.70856e-02,-2.88077e-02,-2.02807e-02,1.73738e-02,-6.47065e-02,2.68332e-02,
7.02070e-02,2.31682e-02,4.40993e-02,-9.57247e-02,4.15377e-02,4.26408e-02,9.36420e-04,-2.37605e-01,1.67709e-02,-3.76668e-01,-1.28001e-01,1.22459e-03,4.60720e-01,4.53923e-01,1.40283e-02,8.90367e-03,1.14585e-01,9.62191e-03,4.99015e-02,3.01314e-02,
1.21636e-01,1.26218e-01,-1.34106e-03,2.35046e-01,2.13339e-01,1.67677e-01,1.31464e-01,3.27723e-01,1.05828e-01,5.23338e-01,1.51422e-01,2.32300e-01,-4.75771e-01,-4.71386e-01,1.72952e-01,5.86623e-02,6.44520e-02,1.33173e-01,6.70479e-02,2.46669e-02,
2.12885e-01,2.21834e-01,2.03422e-02,1.93190e-01,1.67769e-01,1.19302e-01,1.59147e-01,2.57047e-01,7.35766e-02,2.03730e-01,3.21708e-01,2.03553e-01,-2.93183e-01,-2.23668e-01,1.59953e-01,-8.14360e-04,3.50680e-02,7.23821e-02,2.13157e-03,-1.14442e-02,
-3.16837e-02,-6.25878e-03,4.03084e-02,8.49359e-01,-2.56937e-01,-4.87667e-01,-1.87968e-01,1.39017e+00,-2.83708e-01,1.20958e+00,2.42058e-01,-4.68636e-03,-1.67489e-01,-4.27514e-02,-4.58686e-01,-3.04862e-01,-4.43091e-01,-3.78825e-01,-4.75338e-01,-2.49100e-02,
2.41119e-01,1.80236e-01,4.11696e-02,3.32726e-01,1.78884e-01,1.77982e-01,1.84085e-01,2.87594e-01,1.91966e-01,3.32402e-01,1.78428e-01,6.39770e-02,-6.20558e-01,-4.60237e-01,1.14388e-01,2.16136e-01,2.68697e-01,1.76930e-01,1.87014e-01,2.52034e-02,
-1.25057e-02,3.05641e-02,4.73056e-02,-3.36353e-02,7.59177e-04,-1.64955e-02,-9.69815e-03,1.02696e-02,-7.81312e-04,4.87513e-02,-4.07826e-02,-1.88944e-02,-2.32459e-02,-1.22180e-02,-2.32046e-02,2.20064e-02,1.82338e-02,2.04446e-02,-1.76326e-02,-3.19790e-03,
2.16317e-01,2.24483e-01,3.25875e-02,1.84281e-01,1.84328e-01,1.85096e-01,1.97078e-01,1.67314e-01,3.75354e-02,2.57323e-01,1.86584e-01,3.22930e-01,-1.89614e-01,-1.46422e-01,1.93265e-01,5.20533e-03,-3.99572e-02,1.71749e-01,1.02467e-01,1.87740e-02,
2.43728e-02,1.80601e-02,-1.08073e-02,-1.18851e-01,6.09455e-02,1.24155e-01,6.79116e-02,-2.66765e-01,-6.55111e-02,-3.18804e-01,-1.16866e-01,6.67633e-03,4.96920e-01,4.90457e-01,7.17401e-02,-5.76341e-02,5.26488e-02,4.69812e-02,1.13151e-02,1.33550e-02,
1.92051e-01,1.96368e-01,-3.46531e-02,2.47860e-01,1.82537e-01,1.27247e-01,2.07641e-01,3.55986e-01,1.48516e-01,3.62643e-01,2.72038e-01,1.92090e-01,-4.94765e-01,-4.69797e-01,1.09206e-01,1.64328e-01,9.95633e-02,1.74682e-01,8.87895e-02,5.05777e-02,
1.72329e-01,1.46350e-01,-3.06237e-03,9.07438e-02,1.54419e-01,2.21549e-01,1.04955e-01,-2.59522e-01,1.99542e-01,-5.40709e-01,9.35695e-02,4.91088e-02,3.84175e-01,3.82552e-01,2.44575e-01,3.01773e-01,3.83175e-01,2.18224e-01,3.30809e-01,-9.22133e-03,
2.07854e-01,2.28970e-01,-3.13770e-02,3.15312e-01,1.91514e-01,1.15133e-01,1.46323e-01,3.02821e-01,2.23426e-01,3.39392e-01,2.52610e-01,1.16445e-01,-5.88793e-01,-4.34012e-01,1.31877e-01,2.86317e-01,2.47172e-01,1.60362e-01,2.44904e-01,-1.34537e-02,
-1.52624e-03,4.56869e-02,-3.11334e-02,-3.17132e-02,-2.24309e-02,3.05630e-02,7.19949e-03,1.40103e-02,-9.83990e-03,2.57041e-02,8.47720e-03,-2.74679e-02,-3.89953e-02,1.60492e-02,-4.76239e-02,-1.15928e-02,-1.61941e-02,2.77246e-03,2.12970e-02,4.01185e-02,
2.19821e-01,1.89009e-01,-2.15686e-02,1.70269e-01,1.44096e-01,9.05929e-02,1.13866e-01,2.75248e-01,1.51794e-01,4.82854e-01,2.90545e-01,1.71083e-01,-4.54591e-01,-3.44751e-01,5.94764e-02,1.70535e-01,1.00854e-01,1.46041e-01,1.45709e-01,-1.14041e-02,
1.61374e-01,
-8.72105e-04,
8.36950e-02,
-4.17387e-04,
6.71896e-02,
-1.07795e-01,
-8.60653e-03,
7.15242e-02,
2.96400e-02,
1.62625e-01,
2.13439e-01,
-8.86369e-02,
-6.94462e-04,
1.88956e-01,
7.74845e-02,
5.96311e-03,
-4.09787e-02,
-7.13583e-02,
-5.18498e-04,
8.38818e-02,
2.23074e-01,-4.19918e-02,-2.73630e-01,-2.76051e-02,1.41381e-01,-2.41530e-02,5.33807e-02,1.42172e-01,-4.66150e-01,-2.70662e-01,5.83726e-01,-4.92152e-01,2.21566e-02,-3.13704e-01,8.35391e-02,-4.58610e-01,-2.40926e-01,-5.12824e-01,3.38455e-03,6.26279e-02,
-1.19602e+00,-5.89491e-03,2.13198e-01,1.58372e-03,1.53268e-01,6.41933e-01,-4.34770e-02,-3.22568e-01,2.99659e-01,5.11316e-02,4.97555e-01,1.95331e-01,2.15017e-02,1.29350e-01,-3.14962e-01,1.44671e-01,-5.37703e-01,1.65158e-01,-1.32669e-02,1.33764e-01,
7.88012e-01,-1.11151e-03,4.05140e-02,6.47855e-04,9.62508e-02,-5.09455e-01,5.40981e-02,2.79517e-01,-2.61146e-02,1.76585e-01,3.86990e-02,2.77460e-01,-3.27985e-02,1.55107e-01,2.98958e-01,1.97244e-01,9.47596e-01,3.60533e-01,-4.60388e-02,9.44860e-02,
-8.20823e-01,-3.07902e-02,2.05412e-01,4.52763e-03,1.85324e-01,4.41625e-01,-2.99239e-02,-3.79334e-01,2.53392e-01,2.37309e-01,-3.46478e-01,3.67352e-02,3.57906e-02,1.33770e-01,-3.57137e-01,1.91262e-01,-2.87515e-01,9.78452e-02,-4.07730e-02,2.15436e-01,
1.67022e-02,-4.88885e-02,-4.66103e-03,-3.87391e-02,-2.68035e-02,-1.19749e-02,-3.98073e-02,-1.22462e-02,-4.55152e-02,8.97102e-03,2.04107e-02,-3.44569e-02,-2.00112e-02,-4.39557e-02,-7.35980e-04,-5.00080e-02,-3.15790e-02,-3.44193e-02,3.16755e-02,-4.45394e-03,
5.07796e-01,3.62034e-02,2.71401e-01,-4.17957e-02,1.58904e-01,5.96609e-01,-3.77014e-02,-2.29355e-01,3.58404e-01,8.89300e-02,-2.47671e-01,3.62963e-01,1.28071e-02,1.58700e-01,-1.86677e-01,2.15120e-01,-4.69159e-01,2.11904e-01,4.45201e-03,2.18539e-01,
-1.40196e-01,-2.81618e-02,2.56929e-01,2.39759e-02,1.63211e-01,1.42487e-01,-2.12917e-03,-5.17519e-01,2.76094e-01,1.27458e-01,-8.35589e-01,4.40732e-01,-4.74488e-02,7.04508e-02,-4.41403e-01,3.24030e-01,-4.13565e-02,3.87717e-01,2.14295e-02,2.33583e-01,
3.62329e-02,-1.51245e-02,3.33400e-02,4.68126e-02,-1.97179e-02,1.56666e-02,-3.61682e-02,-3.16111e-02,-5.01989e-02,3.68716e-02,-2.73032e-02,1.75375e-02,-1.70380e-02,-2.73712e-02,-4.50700e-02,-2.45399e-02,1.07842e-02,-1.18517e-02,1.28804e-02,-6.13574e-03,
7.78759e-03,-1.37760e-02,-4.55415e-02,2.78384e-02,-4.31824e-03,4.74688e-02,3.13088e-02,2.05631e-02,3.43204e-03,-3.41473e-02,-1.59216e-03,1.10432e-02,-3.11170e-03,-2.21129e-02,-2.54518e-02,-1.60690e-02,-1.11963e-02,-1.23491e-02,1.21924e-02,-2.31257e-02,
-5.19874e-01,-3.10130e-02,2.85240e-01,-2.97806e-02,2.48415e-01,4.90450e-01,5.37780e-02,-3.57167e-01,2.71741e-01,1.70303e-01,-4.93777e-01,1.60858e-01,3.06571e-02,1.62323e-01,-4.17973e-01,2.77706e-01,-1.56234e-01,2.82645e-01,2.02024e-02,2.04740e-01,
-6.61135e-01,1.09581e-02,2.26672e-01,-1.61315e-02,2.19369e-01,7.38123e-01,-5.12875e-03,-2.94738e-01,2.83957e-01,1.61867e-01,4.50032e-01,2.15890e-01,-2.02989e-02,1.60158e-01,-2.33011e-01,2.47022e-01,-6.06748e-01,1.86725e-01,-1.02215e-02,2.14122e-01,
-1.69962e+00,-3.99633e-02,2.27663e-01,-3.25442e-02,2.55871e-01,3.04151e-01,4.45331e-02,-3.71175e-01,1.94937e-01,2.06694e-01,-2.45714e-01,1.50575e-01,-1.88859e-03,2.06323e-01,-3.33067e-01,3.16370e-01,-6.55542e-02,2.05033e-01,-1.04405e-02,2.88532e-01,
9.41681e-01,3.27820e-02,-9.17395e-02,-3.78596e-03,-1.97887e-02,6.15439e-01,2.84105e-02,7.22957e-02,2.01467e-01,-5.37493e-01,6.02533e-01,4.13243e-01,-4.31183e-02,-5.65341e-01,8.13192e-02,1.62028e-01,-7.49730e-02,4.94856e-01,3.24578e-03,2.30900e-02,
-4.68137e-04,1.41236e-02,2.30289e-02,-4.95490e-02,-1.33815e-02,8.56896e-03,3.91666e-03,1.02249e-02,3.48150e-02,-1.86643e-03,-2.49522e-02,3.24586e-02,9.54218e-03,-1.07044e-02,-4.72814e-02,-3.69816e-02,4.16086e-03,-3.69676e-02,3.45142e-02,-4.20274e-02,
-8.79025e-01,-4.54308e-02,1.93977e-01,-4.70639e-02,4.91037e-02,2.06879e-01,-3.86143e-02,-3.36557e-01,2.50897e-01,8.41138e-02,7.71929e-01,1.35288e-01,4.38358e-02,1.03671e-02,-2.91094e-01,2.41092e-01,-8.48615e-01,1.87924e-01,-2.31935e-02,9.16442e-02,
-4.24382e-02,2.67672e-02,-1.47149e-02,3.77372e-02,1.19813e-02,-2.12241e-02,2.53349e-03,-4.43173e-02,-4.53185e-02,-3.74129e-02,-1.35657e-02,-3.65405e-02,-4.90327e-02,1.09852e-02,-4.05073e-03,2.41574e-02,-4.50109e-02,-3.67616e-02,1.97874e-02,-2.00004e-02,
-2.92277e-02,1.54774e-02,-1.26040e-02,-2.14193e-03,8.60884e-04,-3.24784e-02,2.87575e-02,1.14187e-02,-1.13453e-02,9.63848e-03,-2.77109e-02,-6.85138e-03,4.39931e-02,3.93305e-03,-2.50039e-02,2.26503e-02,-4.56148e-03,-3.50524e-02,4.31682e-02,-2.32088e-03,
-6.16657e-02,-3.81127e-02,-1.45087e-01,-1.61071e-02,-1.27340e-01,-1.79526e-01,3.58273e-02,1.74842e-01,-1.83866e-01,-3.52708e-02,1.06646e+00,-4.47798e-01,4.11480e-04,-3.19321e-02,2.32609e-01,-1.76760e-01,-2.97562e-01,-4.08573e-01,2.24588e-02,-3.71444e-02,
-1.20952e+00,-1.47588e-02,1.32578e-01,3.11494e-02,2.08282e-01,3.93892e-01,1.23118e-02,-1.54419e-01,1.35087e-01,2.56578e-01,-1.21145e+00,1.40919e-01,-1.54483e-02,2.40164e-01,-1.89526e-01,1.34731e-01,-2.42069e-01,1.10405e-01,4.74584e-02,1.94975e-01,
-9.65696e-01,-3.18327e-03,2.45886e-01,-4.14720e-02,1.90386e-01,5.43916e-01,-3.60088e-02,-3.51162e-01,2.22512e-01,1.65220e-01,-3.76731e-01,7.52975e-02,-2.22653e-02,1.52879e-01,-3.96699e-01,2.32529e-01,-2.18668e-01,9.30928e-02,1.36192e-03,1.65395e-01,
3.05762e-01,
4.16683e-02,
-5.85961e-02,
7.74171e-02,
-9.90979e-03,
1.53478e-01,
-1.20808e-01,
-5.21767e-04,
-6.94538e-04,
-1.61034e-03,
1.13654e-01,
4.07810e-02,
1.07219e-01,
-5.98305e-04,
7.84120e-02,
-3.91219e-04,
-3.84574e-03,
2.33191e-01,
1.92796e-01,
6.64132e-02,
-1.57708e-02,1.56348e-01,-3.82756e-01,3.73525e-01,-6.18245e-03,3.59126e-01,-5.72974e-01,-3.95749e-02,1.48338e-02,2.93653e-01,2.67870e-01,2.67598e-01,-8.29173e-01,1.14292e-03,7.85878e-02,3.32964e-02,-4.16666e-02,1.29988e-01,2.81878e-01,3.18827e-01,
2.85114e-02,2.00102e-01,-3.14463e-01,2.68925e-01,-5.13359e-02,2.85608e-01,-6.23351e-01,1.70969e-02,-4.70558e-02,1.49052e-01,2.62254e-01,2.19255e-01,-2.03517e-01,-1.40847e-02,7.55699e-02,-2.72466e-02,4.09166e-02,1.37494e-01,4.15803e-01,2.29937e-01,
3.46958e-02,2.70176e-02,-2.78245e-02,-2.98202e-02,-4.92072e-02,-1.80786e-02,1.65954e-02,1.11865e-03,2.14862e-02,1.55498e-02,-9.97568e-03,-3.88070e-02,-1.00986e-02,3.49390e-02,-1.36602e-02,4.38535e-02,-4.70176e-02,-4.99933e-02,-2.58816e-02,-3.65562e-02,
-1.34899e-02,5.81562e-03,3.96515e-03,-4.49731e-02,1.53954e-02,-3.74226e-02,-7.39013e-03,4.28201e-02,2.45460e-03,1.18354e-02,2.87715e-02,-3.56523e-02,-1.98781e-02,3.85037e-02,9.78064e-03,1.81327e-02,-2.23841e-03,-2.97844e-02,-4.14140e-02,4.36667e-02,
3.25752e-02,-5.11827e-02,-3.45559e-02,1.40982e-02,-1.90466e-03,3.43349e-02,-3.38961e-02,-3.66341e-02,4.15601e-02,-4.48375e-03,-4.61190e-02,-1.11011e-02,-3.56953e-02,-7.33826e-04,-5.67660e-02,-3.66576e-02,-4.88842e-02,-2.14527e-04,6.61311e-03,-4.90156e-02,
1.32428e-01,-3.45083e-03,7.50840e-02,-2.28875e-01,3.25079e-02,4.55016e-01,-7.95257e-02,-4.38161e-02,2.13599e-02,4.63301e-02,1.69220e-01,-2.51117e-01,-7.56469e-01,-2.79817e-03,-3.74437e-01,-4.70762e-02,1.89476e-02,-7.06483e-01,3.64234e-01,-1.78265e-01,
-1.25054e+00,4.48731e-01,-3.70207e-01,1.85340e-01,2.39166e-02,6.72560e-02,-6.08096e-01,-4.26513e-02,-3.29653e-02,7.54620e-02,3.20026e-01,2.82999e-01,-1.83065e+00,-3.45036e-02,5.05874e-01,-2.41048e-02,1.03528e-02,3.45182e-01,9.90491e-03,1.45799e-01,
-5.40001e-02,-2.78443e-02,7.79279e-03,-1.79342e-02,-4.78034e-02,-2.84758e-02,-2.43920e-02,3.31932e-02,3.18157e-02,-4.92648e-03,-4.24709e-02,3.99911e-02,-2.72943e-02,1.67889e-02,-7.46715e-03,4.89114e-02,1.63701e-02,-7.63741e-02,8.60437e-03,-1.09437e-02,
1.80531e-02,-3.34375e-02,6.40704e-03,-3.91614e-02,-2.44881e-02,-2.72471e-02,3.56002e-02,-3.63451e-02,-2.14600e-02,-9.92037e-03,-1.36972e-02,-2.41096e-02,-3.71470e-02,-3.86904e-02,-1.76202e-02,-1.49293e-02,1.16654e-02,-3.52215e-02,-3.49554e-02,-1.61572e-02,
-5.13790e-02,-1.73482e-02,7.43213e-03,2.63933e-02,-1.49419e-02,-4.59045e-02,4.51509e-02,4.07556e-02,3.92712e-02,2.92652e-04,1.22634e-02,-3.06025e-02,-3.54397e-02,-3.45180e-02,-8.07099e-03,4.41370e-02,-1.14515e-02,-3.78787e-02,-1.31453e-02,-9.58286e-03,
7.21227e-01,-3.93709e-01,3.44347e-02,2.26373e-01,-2.07287e-03,4.08996e-02,4.58259e-01,2.95499e-02,-4.02260e-02,3.71301e-01,-2.93178e-01,3.87302e-01,-1.75500e-01,-4.17004e-02,-9.44271e-01,-6.52744e-03,-1.37310e-02,-4.79380e-01,2.23772e-01,2.24328e-01,
-2.26856e-02,7.80563e-03,-6.52165e-03,2.31543e-02,3.42534e-02,-3.91088e-02,-2.92717e-02,-2.39864e-02,2.51512e-02,-8.48320e-03,-3.53421e-02,-2.64907e-02,-2.79816e-02,-5.88900e-03,2.00718e-02,-3.40790e-02,-2.51383e-02,5.86195e-03,8.27198e-03,-2.18251e-02,
-9.66489e-02,1.73999e-01,6.38640e-02,-2.19945e-02,1.32019e-02,-1.69981e-01,-1.05539e-01,-6.56897e-03,-2.97735e-02,-4.70228e-02,2.85600e-02,3.56354e-01,-2.36496e-01,-4.70914e-02,-6.41245e-02,-7.61858e-03,2.98340e-02,-1.00230e-01,5.99624e-02,4.33707e-02,
1.78941e-01,-4.11776e-02,-3.84443e-01,7.14400e-02,4.24924e-03,2.65521e-01,-2.71071e-01,-6.12486e-03,2.41537e-02,1.00358e-01,-4.32697e-02,-6.64893e-02,1.10240e-01,8.23033e-03,-8.94822e-02,4.21016e-03,4.36177e-02,-1.44098e-01,7.18374e-01,9.88596e-02,
2.53063e-01,-1.93147e-02,-8.67060e-02,1.04920e-01,-5.32431e-02,7.37143e-03,1.96769e-01,-4.17490e-02,4.90060e-02,1.61297e-01,-1.19907e-02,3.71098e-01,5.12567e-01,-2.82454e-02,-1.15497e-01,-1.38091e-02,1.73622e-02,-6.37182e-02,-1.01235e-01,1.49582e-01,
-1.04007e-01,2.38828e-01,-4.51802e-01,1.52810e-01,-2.80355e-02,-1.99885e-01,-4.43210e-01,9.68262e-03,4.16134e-02,1.13144e-02,1.70934e-01,4.94777e-02,-7.57328e-02,-2.21605e-02,6.12278e-01,4.98166e-02,-2.16268e-02,1.75307e-01,2.54847e-01,1.36206e-01,
-5.47728e-05,2.55857e-01,6.98730e-02,-1.59643e-01,5.67916e-03,2.54548e-01,1.67847e-01,2.51036e-02,-2.75888e-02,-6.35616e-02,4.11164e-02,-3.65489e-01,-2.57709e-01,-3.35231e-02,8.88475e-02,-4.14446e-02,5.97023e-03,2.16995e-02,-9.64354e-02,-2.07896e-01,
1.86886e-02,5.01965e-01,-2.19285e-01,5.09805e-02,-1.05081e-02,-4.18283e-02,-6.29857e-01,3.52203e-02,-2.73662e-02,-1.40388e-01,3.31642e-01,5.12262e-01,-1.24970e-01,-3.15980e-02,6.84547e-01,-4.23266e-02,-3.79146e-02,2.74315e-01,1.04642e-01,8.88147e-02,
2.68383e-01,4.26304e-01,2.03937e-02,2.00669e-01,-3.12081e-04,8.18270e-02,-5.44369e-02,3.22324e-02,3.15416e-02,1.03418e-01,3.91518e-01,1.88656e-01,-1.27487e-01,-1.67018e-02,4.80565e-01,3.50182e-03,2.14807e-02,-3.07535e-03,-7.99592e-01,2.24286e-01,
-6.00128e-01,1.49355e-01,-2.57308e-01,3.24558e-01,1.07182e-03,2.77468e-01,-2.33873e-01,-4.32793e-02,-3.50955e-02,3.66461e-01,1.65157e-01,4.06625e-01,-3.32039e-01,-2.12594e-02,4.64185e-02,-4.05504e-02,-2.47826e-02,-3.31621e-02,3.06305e-01,3.61155e-01,
5.39926e-02,
3.79590e-02,
-6.94539e-04,
-4.51808e-03,
-7.61376e-03,
2.31986e-03,
4.14835e-02,
-1.43430e-02,
-8.73523e-03,
-1.01162e-02,
-3.82366e-02,
-2.63470e-03,
1.51176e-02,
7.53997e-02,
-2.55476e-01,
2.21348e-01,
1.04677e-01,
-4.03388e-02,
-1.78194e-02,
-5.92217e-02,
-2.80725e-01,-2.63739e-01,-1.64532e-02,1.15480e-02,-1.57724e-02,1.10929e-01,-6.77307e-01,-2.88231e-02,2.14787e-02,-2.16229e-02,-2.19602e-01,-3.20853e-02,-1.58951e-01,1.13406e-01,9.43137e-02,-6.65815e-02,5.59266e-02,2.15122e-01,-4.13033e-02,-2.52178e-01,
-2.77799e-01,-1.90341e-01,-4.12285e-02,4.55951e-02,-2.76444e-02,4.48511e-01,-3.92514e-01,-2.65301e-03,-4.04035e-02,3.46505e-02,-3.45116e-01,1.79567e-02,9.44503e-03,3.10678e-02,2.71020e-01,-1.55892e-01,3.19837e-01,-6.12268e-01,-2.17957e-02,-1.60356e-01,
-2.45098e-01,-3.29483e-01,-3.78373e-02,1.49713e-02,1.70546e-02,-6.44087e-02,-3.53632e-01,-2.38308e-02,1.52086e-04,2.67722e-02,-4.13211e-01,3.42680e-02,1.81471e-01,-3.61265e-01,1.78591e-01,4.10631e-02,-3.81253e-02,3.32309e-01,-1.25746e-02,-4.84810e-01,
-8.53068e-02,-1.83886e-01,-3.05420e-02,-3.47719e-02,-3.59540e-02,-1.61254e-01,-4.80787e-01,-2.36076e-02,-4.54313e-02,1.13697e-02,-2.03684e-01,1.71918e-03,-3.99732e-01,-2.72123e-01,4.28591e-01,1.53794e-01,6.36373e-02,-6.90990e-01,8.38496e-02,-5.17247e-02,
-1.27134e-01,-4.05239e-01,-1.02044e-02,5.25957e-03,4.61487e-02,-7.19419e-01,-6.20972e-01,-1.05725e-02,8.84137e-03,1.85734e-02,-1.75408e-01,1.39889e-02,-2.68719e-03,-5.43944e-01,4.16250e-01,4.75212e-01,1.26998e-01,-4.86427e-01,-4.01942e-02,2.21884e-01,
-1.54035e-01,-1.37408e-01,1.41763e-02,-2.64906e-02,9.48084e-03,2.31067e-01,-9.48586e-01,-2.20318e-02,-2.47777e-02,-3.50811e-02,6.09015e-01,7.20590e-04,9.85548e-02,-5.61716e-01,2.97466e-01,-4.97318e-01,1.75070e-01,-2.33733e-01,-1.32341e-01,-1.29830e-01,
-2.47252e-01,-2.81297e-01,3.53355e-02,1.51002e-02,-1.16381e-03,-8.98322e-01,-9.94955e-01,3.15420e-02,-4.84870e-02,-4.53090e-02,-6.17513e-02,-7.16274e-02,-3.54654e-02,-1.19041e-01,-3.88196e-01,5.93322e-02,-2.31130e-01,-2.12462e-01,4.89863e-01,5.05670e-02,
-1.86691e-01,-1.21013e-01,4.20853e-02,2.67837e-02,3.31886e-02,-1.86341e-01,-3.69076e-01,-1.29108e-02,-1.90570e-02,3.32726e-02,1.67179e-01,-3.45450e-02,8.89077e-02,-7.29298e-02,3.25497e-01,9.43599e-02,-2.05689e-01,-8.72035e-02,-6.95247e-01,-1.30878e-01,
3.53361e-02,-3.81145e-02,1.74171e-02,-3.89243e-02,2.19108e-02,-1.06301e+00,-7.57344e-02,3.32310e-02,4.42263e-03,-4.23393e-03,-1.24716e+00,-1.54604e-02,-2.55091e-01,-3.26065e-01,-4.06814e-01,4.51836e-03,-8.84270e-03,5.22349e-03,4.11010e-02,-1.27521e-01,
2.73961e-02,
-5.26307e-02,
2.23140e-02,
-4.70461e-02,
-4.32693e-02,
-1.46645e-02,
-2.53103e-03,
4.16369e-02,
2.24659e-02,
