// The contents of this file are licensed under the Creative Commons
// Attribution 4.0 International License: https://creativecommons.org/licenses/by/4.0/
// Neural Network File Format by Kyle Julian, Stanford 2016
4,12,6,100
12, 100, 100, 20, 6,6
0
0
0
0
0
0.06176, -0.13528, 0.03224, 0.03403, 2.27238, -0.07701, 0.02120, 0.00414, 0.39033, -0.41377, 0.40396, -0.00370 
-0.23512, 0.00248, -0.24015, -0.06291, 0.05361, 0.48049, 0.55829, 0.78052, 0.39500, 0.76689, 0.52433, 0.41178 
-0.03913, 0.01792, 0.03595, -0.01365, 0.00149, -0.06474, -0.28602, -0.06582, -0.26603, 0.64560, -0.17156, -0.12383 
-0.05583, 0.04090, 0.01396, -0.04733, -0.05494, -0.17507, -0.14671, -0.12457, -0.37716, 0.11803, 0.24889, -0.03423 
-0.16666, -0.46843, -0.18975, -0.64631, 0.05550, -0.34782, 0.53349, 0.50725, 1.41096, 0.52068, -0.28760, 0.19517 
-0.06816, -0.06902, -0.40517, -0.95817, -0.17779, -1.55664, 0.41947, 0.00232, 0.09671, 0.29280, 0.17958, -0.25728 
-0.04849, -0.08838, -0.09244, 0.13635, -0.01810, 0.16704, -2.37360, 2.52756, 0.87138, -0.07995, 0.08976, -0.09689 
-0.27564, 0.03910, 0.09377, 0.14479, 0.17473, 0.04653, -1.56479, 0.09987, 3.28787, -0.33947, -0.70305, 0.26725 
0.06584, -0.07391, 0.21699, -0.12732, 0.02666, -0.00731, 0.04340, -0.31606, 0.98199, 1.16072, -0.43448, -0.05340 
0.03061, 0.08711, -0.00502, -0.15817, -0.09346, -0.11042, 0.58543, -1.20420, -0.11313, -1.25996, 4.06652, 2.20528 
-0.20278, -0.00306, 0.09866, -0.00536, -0.05452, 0.05227, 0.51304, -0.32326, 2.67062, 0.12755, 0.52582, 1.16326 
0.01278, 0.03487, -0.04238, 0.05224, 0.00566, -0.03259, -0.03215, 0.62133, 0.17427, 0.24368, 0.06477, -0.04735 
0.38119, 0.02981, -0.53370, -0.00153, -0.10649, -0.48691, 1.25141, -1.34634, -0.20739, 0.87243, -1.14651, 0.67475 
-0.04017, -0.01033, 0.01342, -0.08947, -0.01738, -0.04857, 0.29735, -0.70809, 0.42261, -0.07015, 0.09291, -0.63782 
0.05629, 0.05560, -0.11863, 0.20648, 0.02689, 0.12226, 0.14467, 4.18531, 0.63270, -0.06814, -1.80124, 0.33850 
-0.00506, -0.02231, -0.01871, -0.01956, -0.01479, -0.05199, 0.02585, 0.38324, 0.06652, 0.18028, -0.10087, -0.30731 
0.05091, -0.11545, -0.04928, 0.30593, -0.19352, -0.08236, 3.17016, 3.72601, -1.15222, -0.76146, 0.16635, -0.02421 
0.28091, -0.48136, -0.11160, 0.07523, -0.15451, 0.07122, 2.27960, 1.01930, 0.87131, 0.97415, 0.72273, -0.47801 
-0.05891, 0.00908, 0.01610, -0.02075, -0.00635, -0.06076, 0.15970, 0.16112, 0.23887, -0.21172, 0.11070, 0.02863 
0.00754, -0.05753, -0.07824, -0.07323, -0.32199, 0.12976, 3.89283, -0.78394, -2.08064, -0.34754, 0.18783, 0.25607 
-0.08324, 0.05529, -0.05337, -0.02259, -0.08658, -0.04059, 0.05112, 0.11917, -0.36179, 0.08111, -0.05564, -0.05664 
0.00911, 0.04772, 0.04138, -0.59040, 0.09650, 0.51326, -0.54400, 1.43327, 0.20250, 0.58545, 0.92116, -0.64222 
-0.28188, -0.18256, -0.28645, -0.07806, -0.80150, 0.13075, 1.17218, -0.50056, -0.73316, -0.37402, -0.35243, -0.05056 
0.08379, 0.03514, -0.00972, 0.38718, 0.12826, -0.14295, -0.90468, 1.15531, 1.51112, 2.88584, 2.51029, -0.02545 
0.13007, -0.29262, -0.12339, -0.00021, 0.06074, -1.46179, 0.09605, 1.85226, 0.22301, -0.10595, -1.25488, 0.85243 
-0.01923, -0.00102, 0.00123, -0.03645, 0.06476, -0.05502, 0.24744, 0.23436, 0.14220, 0.13129, 0.09110, 0.26150 
0.05342, -0.02927, -0.04541, -0.03878, -0.02107, -1.17145, 0.20219, 0.27685, 0.28617, 0.01955, 0.18688, -0.22739 
-0.23092, 0.34727, 0.28790, 0.18698, 0.10658, -1.53427, -0.81994, 0.96624, -0.27580, 0.47425, 1.02150, -0.54990 
-0.12511, -0.22919, -0.22099, -1.21712, 0.06641, -0.06003, -0.63740, -0.06897, -0.01638, 0.07204, -0.24866, -0.35155 
-0.08541, -0.34162, 0.05505, -0.08425, -0.17205, 0.05717, -0.67567, -1.16439, -0.92463, -0.92312, 0.52831, -0.04175 
-0.04668, 0.13036, 0.01363, -0.13072, 0.17132, 0.17111, -4.49287, -0.53962, 1.56005, 1.22561, 0.66656, 0.86774 
-0.03718, -0.00955, -0.07346, 0.00729, -0.00119, 0.00366, 0.26717, 0.15938, -0.25457, 0.07217, -0.14514, 0.04408 
-0.00125, 0.07532, -0.31101, -0.77118, 0.13884, 0.05639, 0.03187, -0.82050, -0.29071, 0.39924, 0.15687, 0.78281 
0.05229, -0.24179, -0.07991, -0.21115, 0.20416, -0.01659, -0.79571, -1.40510, 0.55823, 0.70179, 0.61536, -0.52444 
-0.05112, -0.21185, 0.09650, 0.62669, -0.19580, -0.13312, 0.01390, -4.37541, -0.70410, 1.05088, -1.02226, 0.43809 
-0.57132, -0.06081, 0.31137, 0.02507, 0.02765, 0.28302, -0.33273, -2.11057, -0.02460, -0.57961, -2.10295, 0.07439 
-0.04802, -0.02962, -0.01147, -0.10666, 0.07223, -0.53020, 0.99764, -0.65333, 0.35934, -0.52300, 3.87831, -2.12445 
-0.33385, 0.15485, -0.33584, 0.16548, -0.15685, -0.62299, -0.81689, -0.40980, -0.79134, 0.60106, 0.43182, -0.00969 
-0.07862, -0.24301, -0.02484, 0.02066, 0.08082, -0.20780, -0.42819, 1.34955, -0.11476, -0.52072, -3.95015, -0.96325 
-0.42357, 0.01947, -0.40229, -0.23039, -0.30027, -0.08585, 0.14921, 0.49126, -0.28862, 0.18073, 0.37459, 0.09431 
-0.03435, -0.18094, 0.02497, -0.05932, -0.26169, 0.07214, 4.25686, -0.69248, -1.86527, 2.10754, -0.54105, 1.72684 
0.00477, 0.01899, -0.00371, -0.04694, -0.04562, -0.05509, -0.15414, 0.12099, -0.45015, -0.04676, 0.15921, -0.24586 
-0.04653, -0.06199, 0.00906, -0.06205, 0.00858, -0.01352, -0.09175, -0.07034, 0.33002, 0.14855, -0.05045, 0.06489 
-0.06436, -0.04503, -0.03099, 0.04220, -0.15754, -0.04129, 1.19088, 1.21297, -1.56551, 1.02880, 0.20817, -2.31191 
-0.14706, 0.26648, -0.14925, -1.49119, -0.18069, -0.09632, 0.07950, -1.56741, -0.05721, 0.59257, -0.05651, 0.67941 
-0.23519, -0.08612, 0.09417, 0.08103, -0.12623, 0.06513, 0.43930, -0.57024, -3.64966, -0.08646, -0.16144, -0.74349 
-0.01700, -0.00226, 0.00471, -0.03388, 0.00360, -0.05117, -0.20540, 0.08887, 0.09220, 0.06202, 0.16187, 0.09643 
-0.03750, -0.04571, -0.00376, -0.03279, -0.02081, -0.02766, 0.01364, -0.07103, -0.08550, -0.06248, 0.30303, 0.03252 
-0.03363, 0.03183, -0.00073, 0.02882, 0.07723, -0.13398, 0.21320, 0.06008, 0.08361, -0.32411, 0.23605, -0.12825 
0.00012, -0.00338, -0.04348, 0.01468, -0.01289, -0.11467, 0.02506, 0.15513, -0.01191, 0.06926, 0.20886, -0.19586 
-0.42638, -0.25203, -0.31806, 0.22512, 0.34058, -0.58576, -1.01735, -1.29708, -0.06353, 1.21101, -0.43656, -1.12500 
-0.02406, -0.01148, -0.00255, -0.02790, -0.02184, -0.07393, -0.03145, -0.08063, 0.04902, 0.14677, -0.03062, -0.13643 
0.03530, 0.04769, -0.08903, 0.23675, 0.05476, -0.03414, -0.65360, 4.81506, 0.78389, 0.00480, 0.29207, 0.23576 
0.07972, -0.19871, 0.07010, 0.51252, 0.14213, -1.70996, -0.57910, -0.31689, 0.88161, 0.24322, 0.00016, 0.32521 
-0.04007, -0.33409, 0.13641, -0.14416, -1.03324, -0.05501, -4.05596, -0.80155, 0.74633, -1.21707, 0.31121, -0.71537 
-0.21001, 0.02160, -0.04609, -0.10192, -0.01286, 0.18474, -0.41272, -3.63774, 0.13441, -0.76566, -0.52583, 0.35591 
-0.14356, -0.07219, 0.02052, -1.13681, 0.14440, -0.00785, -0.52612, -0.00849, 0.01960, -0.25789, 0.13297, -0.25116 
-0.01412, -0.15285, -0.13003, -0.15553, -1.25540, -0.26654, 0.97411, -0.10776, -0.23259, 0.51977, 0.17479, -0.16221 
0.13159, 0.01880, -0.12168, -0.21632, 0.04983, -0.16863, -0.41929, 0.24091, 0.84586, 0.73055, -0.82742, -3.85429 
0.14398, 0.83573, 0.05376, 0.30541, 0.52648, 0.01465, -0.09286, 0.96757, 2.66451, -0.43151, -1.23473, 1.88646 
-0.18152, -0.04718, 0.04265, -0.26418, 0.03288, -0.38422, -0.36296, -0.60418, -0.58743, 3.50661, -1.51842, 2.00201 
-0.02693, -0.01774, -0.01566, 0.30097, 0.16601, -0.23699, 1.51836, -1.55213, 1.37574, -0.28607, -0.39398, 0.17232 
-0.44813, -0.17003, 0.21294, -0.31483, -0.25204, -0.50360, 0.00161, 0.06299, -0.44072, -0.20264, -0.02804, -1.74315 
0.17067, -0.34079, 0.04115, -1.71855, -0.03129, -0.09087, -0.45811, -1.11449, -0.47628, -0.14063, -1.20577, -0.45668 
-0.03908, -0.15783, -0.00295, 0.01700, 0.08321, 0.03366, -1.66533, -0.04382, -3.13496, -0.06678, 0.07751, 0.07315 
0.23691, 0.17664, -0.28478, -0.07733, -0.40629, -0.89066, -0.02614, 0.24954, -0.34494, -0.88646, 0.52533, 0.97961 
0.23576, -0.15389, 0.02231, -1.67617, 0.04447, 0.21438, 0.24445, -0.30617, -0.35700, -0.01633, -0.41686, 0.45834 
0.02188, 0.02741, -0.00311, 0.04044, 0.11007, 0.05107, -0.60471, -0.83935, 0.54342, 2.33396, -2.72981, -1.73857 
-0.02990, -0.18552, -0.05704, -0.09754, 0.00290, -0.97468, 0.40687, -0.05989, 0.43801, -0.30855, -0.30409, 0.01812 
0.13064, 0.26282, -0.46865, -0.38860, 0.23413, -0.40647, 2.21309, -0.25015, 1.79730, 1.10304, -0.94621, -0.40431 
-0.10402, 0.03619, 0.02082, -0.07953, -0.02429, -0.02850, 0.56557, 0.18627, 0.69724, 0.56400, 0.18989, -0.88065 
-0.42418, -0.25991, -0.12894, 0.05534, -0.44663, -0.43302, -0.34105, -0.93222, -1.07349, 0.28549, -1.18427, 0.64945 
-0.29185, 0.30301, -0.09934, -0.08384, -0.01898, -0.30910, -0.43336, 0.42938, 0.39930, 2.05216, 0.40838, 1.02484 
-0.00235, 0.05566, -0.00147, 0.00034, 0.01242, -0.13347, -0.44939, -0.22132, 0.37985, -0.45077, -0.25626, -0.15080 
0.03736, 0.12917, -0.10296, 0.06373, 0.26617, 0.14284, -4.54635, 0.81664, 1.77693, 0.55362, -0.35904, 0.00530 
-0.11534, 0.12472, -0.14777, 0.04125, 0.03752, -1.12692, -0.12570, -0.02061, -0.23543, 1.32724, 1.38612, 0.51902 
0.13832, -0.21574, -0.10167, 0.25429, 0.05913, -0.02257, -0.60834, 2.77131, -2.65582, 0.13606, -1.24650, 0.84728 
0.08470, -0.00583, 0.22517, 0.01654, 0.09481, -1.12063, 0.59464, 1.01849, -0.47410, -1.27827, 0.40142, -0.13302 
0.18609, -0.01311, 0.38312, 0.23718, -0.03722, 0.50587, 0.08581, -0.88453, -0.21499, -0.73591, 0.36861, 0.25375 
0.17227, 0.05997, -0.18923, 0.52763, 0.00965, -0.50930, -0.54568, -1.10346, -0.53892, -0.06306, 0.38081, -0.56818 
-0.48914, 0.55313, -0.10424, -0.33021, 0.15960, -0.27393, 0.97966, 0.01641, -1.08097, -1.07978, -0.12943, -0.58899 
-0.15672, 0.53622, 0.13149, -2.21659, 0.22117, 0.68852, 1.52367, -1.27554, -0.63869, -0.48312, 0.09940, 0.26574 
-0.14476, -0.07240, -0.06129, 0.00836, 0.09252, 0.28037, 4.90140, -0.25432, -1.84233, -0.64391, 0.01413, -0.81903 
0.38299, -0.16295, -0.30202, 0.09706, -0.07678, -0.60786, -1.03253, 0.53811, 0.05791, 0.45515, 0.38343, 1.53647 
0.02014, 0.00412, -0.01487, 0.00161, 0.00960, -0.01007, -0.08536, 0.04535, -0.08371, -0.19062, -0.05408, -0.05573 
-0.09216, -0.13197, -0.00068, -0.16484, 0.01811, -1.23614, -0.56019, -0.23228, -0.24841, -0.27660, -0.08869, -0.66397 
-0.23350, 0.18705, -0.26503, -0.06174, 0.95864, -0.23889, -0.61482, 0.70512, -0.10988, 0.18640, -0.15913, 0.03091 
-0.14280, 0.06828, -0.00805, -0.20048, 0.05940, 0.28532, 0.19042, -4.48827, 0.64441, 0.82212, 1.92801, -0.38443 
-0.11614, -0.06071, -0.09473, 0.02866, 0.07934, -0.23447, 0.16392, -0.06545, -0.61644, -1.38606, -0.08694, 2.62172 
-0.03686, -0.00407, 0.02424, -0.16472, -0.03135, -0.11165, -0.30245, -0.20407, 0.16655, -0.22411, -0.15096, -0.54655 
0.01339, 0.05473, -0.02863, -0.02122, 0.03742, -0.20420, 0.15341, 0.29204, 0.37046, -0.09007, -0.31807, -0.28002 
-0.27902, 0.33024, -0.40617, 0.25049, 0.04831, -0.92570, 0.49278, 0.70052, 0.51763, -0.24076, -0.06621, 1.05414 
-0.03478, 0.30271, 0.06097, -0.17412, -2.15137, -0.10769, 0.69101, -0.00139, 0.17157, -0.00351, 0.31620, -0.16834 
0.00275, 0.17731, -0.02604, 0.06228, -0.09746, 0.03095, 1.90494, 0.32745, 3.30330, -0.05278, -0.44803, 0.18201 
0.05793, 0.13295, -0.00980, 0.04245, 0.18257, -0.02611, -3.04936, 0.92048, 1.26996, -1.85298, 0.36507, -1.46784 
-0.53668, -0.13243, -0.02121, -0.52772, 0.06512, -0.17607, 0.99000, 1.02270, -1.53124, 1.18684, -0.46457, -1.15892 
0.00963, 0.00531, -0.10106, 0.27234, -0.11468, 0.18050, 1.67599, 3.96219, -1.02281, -0.01807, 0.72756, -0.62038 
-0.02118, -0.04942, -0.09736, -0.20017, -0.01475, -1.37678, -0.08988, -0.91380, -0.23884, 1.02261, -0.95127, -0.31932 
-0.44963, 0.23103, -0.37879, -0.33776, 0.10532, -0.27367, -0.24814, -1.19818, 0.05472, -0.06872, 0.31985, -0.83305 
-0.09770, 0.12622, -0.01029, -0.03933, -0.06386, -0.16362, 1.08718, -0.05952, 0.22650, -3.97403, -1.42324, -0.78038 
-1.88563 
-1.37267 
-0.91082 
-1.10386 
-1.00589 
1.22848 
-1.24572 
-0.30627 
-4.69551 
-0.84568 
-1.48086 
-0.97178 
-2.11780 
-1.16474 
-1.14088 
-0.60777 
0.71432 
-1.63054 
-0.55430 
0.99911 
-0.80929 
-2.23592 
-1.74633 
-0.54975 
-1.24066 
-0.66136 
-2.09684 
-1.59969 
-1.90269 
0.14018 
-0.77103 
-0.66183 
-1.82961 
2.13867 
-3.15286 
-3.12022 
-0.15207 
-1.98161 
-0.87398 
-0.04077 
0.00281 
-0.87452 
-0.68792 
1.55836 
-1.69466 
-0.68660 
-0.45881 
-0.46586 
-0.97829 
-0.68261 
-2.07637 
-0.55632 
3.14514 
-2.04816 
-2.71024 
2.80666 
-1.95998 
-1.68597 
-0.83035 
-4.47371 
-0.26167 
-0.90819 
-1.95098 
-1.50863 
-0.78238 
-1.86136 
-0.50066 
-0.15273 
-1.80147 
-1.76578 
-1.46197 
-2.03047 
-1.36673 
-1.09135 
0.18898 
-1.58996 
-0.59540 
-1.69967 
-1.66658 
-0.85960 
-1.55460 
-1.71459 
-0.96215 
-1.93841 
-0.50072 
-1.99241 
-1.44416 
-0.01611 
-0.54639 
-1.16492 
-1.18794 
-0.30424 
-1.55940 
-1.32569 
0.00481 
-1.93605 
-1.74438 
-1.09610 
-2.09624 
-1.08879 
0.03473, 0.56184, 0.12106, 0.02553, 0.94761, 0.01409, -0.42643, -0.16450, 0.33039, -0.75828, -0.12909, 0.24163, 0.41717, 0.10433, 0.60460, 0.23142, 1.05778, 0.57282, 0.04260, 1.14122, -0.08805, 0.07322, -0.20356, -0.18311, -0.57191, 0.16427, -0.46762, -1.19819, -0.39228, 0.15070, -0.24148, 0.06789, -0.24880, 0.29401, 0.06537, 0.02138, -0.65956, 0.08975, -0.93730, 0.24891, 0.44137, -0.18012, 0.24480, 0.53598, -1.16806, 0.24185, 0.02078, 0.11270, -0.29625, 0.25304, 0.11962, 0.00018, 0.65454, 0.14450, 0.17519, 0.27920, 0.02175, 0.11591, -0.78710, 0.21673, -0.73484, -0.10407, 0.11543, -0.25455, 0.06517, 0.51070, 0.10927, -0.35775, 0.52946, 0.16835, -0.21090, 0.57371, -0.45273, -0.18814, -0.41360, -0.63437, 0.07241, -0.61132, -0.26451, 0.31118, 0.66669, -0.04832, 0.20044, -0.30683, -0.02635, 0.00397, 0.42653, -0.19620, -0.76995, -0.28529, 0.07560, 0.18581, -0.10802, 0.37298, -0.42658, 0.65276, 0.48598, 0.30386, 1.08000, -1.20841 
-0.01702, -0.05775, 0.10276, -0.04199, 0.19763, -0.01477, -0.04144, -0.07563, 0.26222, -0.06083, 0.04482, 0.09670, -0.02111, 0.01033, 0.01024, 0.18701, 0.14509, -0.10144, 0.23508, -0.05991, 0.22807, -0.08067, 0.02614, -0.02521, -0.11955, 0.26777, -0.55925, -0.14823, -0.00345, 0.14980, 0.03438, -0.08415, -0.08187, -0.00822, 0.03728, -0.03136, -0.29017, 0.17340, 0.01542, 0.06623, 0.54772, 0.13615, 0.15535, -0.73123, -0.20991, -0.05287, 0.15116, 0.26678, -0.02050, 0.33730, 0.06758, 0.15373, 0.20971, 0.24584, -0.03478, 0.17383, 0.22149, 0.01446, 0.09704, 0.05789, -0.08860, -0.01071, 0.64841, -0.02139, -0.04514, 0.42872, 0.08124, -0.36639, -0.02013, 0.20051, 0.22308, 0.11360, -0.20140, 0.16547, 0.13232, 0.23648, -0.13864, 0.05190, -0.09681, -0.01082, 0.11522, -0.02557, -0.07717, 0.18771, 0.13882, 0.09952, -0.00157, -0.04835, -0.04674, 0.12516, -0.23444, -0.03323, 0.03036, 0.02448, -0.56290, 0.28451, 0.14372, 0.11671, -0.51732, -0.29386 
0.06310, 0.01594, -0.14544, 0.11936, 0.40152, 0.17694, 0.13038, -0.52512, -0.34593, 0.23236, -0.25254, -0.22459, -0.69523, 0.15385, 0.60013, -0.15183, 0.49888, 0.19378, -0.28561, 0.60752, -0.34114, -0.12240, -0.40552, -0.25518, 0.01066, 0.12763, -0.81226, -0.91617, 0.15990, 0.43472, -0.65118, 0.14024, -0.07173, -0.60998, 0.13057, 0.42866, -0.65625, -0.39380, -1.33815, 0.08334, 0.93595, -0.34848, 0.05278, -0.16077, 0.47875, 0.15388, 0.06495, -0.05135, -0.20317, -0.25033, -0.41139, 0.07043, -0.45623, 0.44914, -0.59980, -0.87294, 0.36413, -1.48163, -0.60620, 0.05308, 0.04914, -0.12573, -0.65202, -0.03761, -0.35495, -0.29710, 0.06827, 0.25492, -0.48047, -1.24489, -0.05284, 0.37806, 0.34941, 0.46171, -0.50294, -0.74722, 0.30477, 0.14548, -0.05134, -0.79048, 0.77410, -0.00251, 1.40089, -0.48277, -0.12917, -0.35151, 0.27498, 0.00906, -0.24497, -0.11913, -0.02649, -0.59871, -1.18405, -0.15069, -0.29642, -0.32198, 0.70385, -0.54140, 1.40603, -0.08573 
-0.52907, 0.23622, -0.02795, -0.27811, -0.55822, 0.81243, -0.74530, 0.14519, 0.49093, -0.18657, 0.08478, -0.03576, -0.52389, -0.04476, 0.64668, 0.17712, -0.83792, -0.03524, 0.08367, -0.34396, 0.10379, -0.04761, 0.53563, -0.48271, 1.32568, -0.08508, 1.04289, 0.09217, -0.44256, -0.32205, -0.16527, -0.23909, -0.12697, -0.28356, 0.45648, 0.20033, 0.16500, 0.79614, -1.60357, -0.88875, -0.19225, -0.49592, -0.46528, -0.74510, -0.14690, -0.30136, 0.13224, -0.16653, -0.17351, -0.13190, -0.56808, 0.04856, -0.75128, 0.12694, 0.37901, 1.14986, -0.17436, 0.27683, -0.76242, 0.00557, -0.40405, 0.10786, 0.47125, -0.35977, -0.12550, 0.35312, -0.39359, -0.03492, 0.99329, 0.11746, -0.57745, -0.21816, -0.28916, -0.08721, 0.65012, 1.47077, -0.45767, -0.06389, 0.21702, 0.15488, 0.90439, 0.18229, 0.12043, 0.44447, -0.02964, 0.06003, -0.51296, -0.36280, -1.52125, -0.55491, -0.41155, -0.85168, -0.01372, -0.49987, 0.13430, 1.04604, -0.15618, 1.05506, -0.88554, -1.36224 
-0.58603, -0.00098, 0.08174, 0.30711, -0.17687, -0.15775, 0.16397, 0.35861, -1.92515, -0.28742, 0.29962, -0.23469, -0.16182, -0.56302, -0.21283, -0.09784, -0.06090, -0.07578, 0.14860, -0.33339, -0.13922, -0.12865, 0.20464, -0.09859, -0.70831, 0.40163, 0.51972, -0.33261, -1.50298, 0.30300, 0.35153, 0.00741, 0.02576, 0.19544, -0.12691, -0.15374, -0.07340, 0.28808, -1.86340, -0.62861, 0.23905, 0.04691, 0.02282, 0.00049, -0.33457, -0.45790, 0.09706, 0.02806, 0.15004, -0.34815, 0.46218, 0.12227, -0.31919, 0.37918, 0.09320, 0.19267, 0.18795, -0.07303, -0.41184, -0.25945, 0.47654, -0.31262, 0.23498, -0.20589, -0.51211, 0.09573, 0.01307, -0.24374, 0.62205, -1.23502, -0.42786, 0.53996, 0.22870, 0.09060, 0.89613, 0.83486, 0.23689, 0.25973, 0.03858, -0.30958, 0.87137, 0.10304, -0.05342, 0.05508, -0.22967, 0.83621, -0.66537, -0.24819, -0.22616, -0.20854, -0.42246, -0.56514, -0.12627, 0.16689, 1.03336, 0.03654, -0.22115, 0.68754, 0.11486, 0.04309 
-0.05342, -0.27461, 0.11478, -0.00567, -0.06380, -0.38586, -0.16180, 0.01067, -0.03959, -0.22110, -0.04645, -0.18907, -0.09513, -0.11804, -0.14973, 0.09481, -0.13203, 0.04805, 0.00713, -0.31835, -0.13290, -0.19510, -0.06797, -0.06664, -0.20673, 0.01531, -0.04959, 0.01327, -0.10221, -0.11830, -0.14202, -0.32437, -0.12018, -0.15430, -0.16249, -0.05561, -0.06362, -0.08858, -0.21157, -0.04894, 0.04088, -0.02871, -0.10099, -0.06117, -0.05805, 0.01359, -0.01132, 0.02164, -0.00455, 0.13999, -0.23410, -0.02261, 0.03396, -0.07783, 0.03720, -0.15455, -0.11381, -0.04009, -0.11436, -0.08445, -0.14709, 0.05520, -0.13108, 0.05753, -0.26492, -0.01308, -0.22544, -0.33188, 0.04683, -0.10413, 0.06749, 0.01551, 0.05330, -0.06140, -0.19033, -0.08240, -0.02501, -0.02492, -0.08604, -0.25268, -0.14677, 0.08861, -0.15254, 0.10118, -0.04271, -0.00523, -0.12815, 0.07134, -0.27035, -0.03950, -0.14176, -0.02981, -0.32324, -0.04780, 0.14558, 0.00084, -0.06010, 0.08851, -0.06658, -0.18407 
-0.01213, -0.60704, 0.22634, 0.28300, -0.08872, -0.31444, -0.18645, -0.14536, -0.04684, -0.10220, -0.31657, -0.22583, 0.19556, 0.03236, -0.50703, 0.29483, -0.60649, 0.17154, -0.19877, -0.33487, -0.04915, -0.16047, -0.03988, -0.07969, -0.29305, 0.22048, -0.29146, -0.03786, -0.03134, -0.05123, -0.08982, -0.16008, 0.22945, 0.07459, -0.39926, 0.08238, -0.05236, -0.16423, -0.24822, -0.57904, -0.23288, -0.20292, 0.37062, -0.09973, -0.07840, -0.47891, 0.04920, 0.10049, -0.12315, -0.00523, -0.02798, 0.07534, -0.28799, 0.07704, -0.05279, -0.13687, -0.00388, 0.08845, 0.04722, -0.49783, -0.21283, -0.25000, -0.01574, 0.00431, 0.05514, 0.16563, -0.27230, -0.15713, -0.03217, 0.05612, 0.45437, -0.35638, -0.08552, -0.26380, -0.25509, -0.00108, -0.36125, 0.18652, -0.01745, -0.62649, 0.05717, 0.13164, -0.17835, -0.13889, 0.03389, -0.01264, -0.18378, -0.09190, -0.13142, 0.09885, -0.29541, -0.13905, -0.39865, -0.20188, -0.08591, 0.26949, -0.12631, -0.01780, -0.25867, 0.04686 
0.01063, -0.22066, -0.15107, -0.08714, -0.20461, -0.14322, -0.04264, 0.00925, -0.19843, -0.05505, 0.00751, 0.04086, -0.07739, 0.05500, -0.24145, 0.02936, -0.25198, -0.02673, -0.01059, -0.01305, -0.02280, -0.19702, 0.05956, -0.11416, -0.06271, -0.12105, -0.14188, 0.02435, 0.02280, -0.24449, -0.01355, -0.27805, -0.08113, -0.30645, 0.10979, -0.10767, -0.12909, -0.11312, 0.00705, -0.18233, -0.05751, -0.10822, 0.10662, -0.21082, -0.04450, 0.05467, 0.01828, -0.00745, -0.15037, -0.15901, -0.03032, -0.06404, -0.08212, 0.12156, -0.03445, 0.04930, -0.03572, -0.17122, -0.07069, -0.21851, -0.09656, -0.17720, -0.17308, -0.03574, -0.06354, -0.03910, -0.04074, -0.00576, 0.06406, -0.03737, -0.30931, -0.14292, -0.04336, -0.01912, 0.01838, 0.06080, -0.08480, 0.13093, -0.19616, -0.26021, 0.01333, -0.04562, -0.01257, -0.06305, -0.17227, 0.01304, -0.05945, -0.03798, -0.23957, -0.15777, -0.13229, -0.11538, -0.04180, 0.06915, -0.05423, -0.09302, 0.03595, -0.05497, -0.18565, -0.08365 
0.32068, -0.33830, 0.03716, 0.22140, 0.83143, 0.07669, 0.45787, 0.17172, 0.09612, -0.14053, -0.35402, -0.08902, 0.55812, -0.01903, -1.57429, -0.31183, -0.25837, -0.43790, -0.10920, 0.62904, -0.00844, -0.04144, 0.31747, -0.29034, -1.11735, 0.02253, -0.64972, -0.39707, -1.46900, -0.30063, 0.17599, -0.27932, -0.59575, 0.11589, -0.10539, 0.04035, -0.88080, 0.83541, -0.31324, -0.05481, -0.20651, 0.28821, 0.00804, -0.00168, 0.08509, -0.34124, 0.17950, 0.19570, 0.29880, 0.09894, 0.52056, 0.36022, -1.27406, -0.15188, -1.10343, 0.26473, -1.64176, -0.65508, -0.35936, 0.87911, 0.52563, 0.54321, -0.08852, -0.12486, -0.47919, 0.37749, 0.06655, 0.66734, -0.02664, 0.91271, -0.04651, 0.75536, 0.63740, 0.11026, -0.80026, -1.52728, -0.47298, 0.28845, 0.15467, 0.20289, 1.07995, 0.03532, -0.27409, -0.16506, -0.04325, -0.08955, 0.19856, 1.08733, 0.11146, -0.16928, -0.03973, 0.00933, -1.44426, 0.16028, -0.28904, 0.35946, -1.52152, 0.83275, 1.83732, 1.54556 
-0.00956, 0.09295, 0.06220, 0.18737, 0.65398, -0.19435, 0.08733, -0.16128, -0.04126, -0.36491, -0.06828, -0.20589, 0.00829, -0.08068, 0.16435, 0.01368, 0.42525, -0.14112, -0.01907, 0.26560, 0.08786, 0.00513, -0.17410, -0.31611, -0.22859, 0.19500, -0.30317, -0.33674, 0.13350, 0.29335, -0.10670, -0.03622, -0.03697, 0.13095, 0.06739, 0.01413, -0.27177, 0.37572, 0.25511, 0.00645, -0.60592, -0.18414, 0.07404, -0.30811, -0.41667, 0.25602, 0.04581, 0.24263, -0.27341, -0.06101, -0.17426, -0.00816, -0.07615, 0.39250, 0.02817, 0.39682, -0.13572, -0.00302, 0.01376, -0.02834, -0.13468, -0.03223, 0.45433, -0.01549, -0.23216, 0.39749, 0.12771, -0.28652, 0.58801, -0.08719, 0.68572, 0.01002, -0.11877, 0.30183, -0.13672, 0.31555, 0.04147, 0.15184, 0.01100, 0.03354, 0.26197, -0.05517, -0.05126, -0.01958, 0.26686, 0.32572, 0.15930, -0.24523, 0.10421, -0.08960, 0.16187, -0.21362, -0.02306, -0.11060, 0.78281, 0.06721, -0.03023, -0.02469, -0.01892, 0.30083 
0.26917, -0.75919, -0.23034, -0.21819, -1.02780, -0.76506, -1.02505, -2.18215, -0.64103, -0.09999, -2.16748, 0.09654, -1.24618, -0.04431, -0.17370, -0.12270, 0.48794, 0.69377, 0.05827, 0.12311, -0.02899, -0.28348, 0.61347, -0.62672, 0.97881, -0.18600, 0.55580, 1.03179, 1.05027, 0.04706, -5.94285, 0.04234, 0.79115, -0.68790, 0.62682, -0.76054, -0.52536, 0.50502, 0.08001, -0.31354, 0.33211, 0.29981, -0.24712, -0.19361, 0.37840, 0.34264, -0.19888, -0.13440, 0.38893, -0.05378, 0.72181, -0.05733, -0.64206, 0.32754, -3.25868, -0.65528, 0.48205, 2.08428, -0.87445, -0.11338, -0.95626, -0.30283, -0.00626, -0.32073, -0.61367, 0.25190, -0.17985, -0.35379, 0.36385, -1.11353, -0.05897, 0.56452, -1.37075, 0.00776, -2.63472, 1.37778, -0.54007, 1.09683, -0.30101, -0.72420, -0.51004, -0.56473, 0.44429, -0.25048, -0.09738, 0.50033, 0.70710, -0.27218, -0.22305, 0.13288, 0.18837, -1.62827, 2.18546, 0.20419, -3.53295, -0.26747, 0.34822, -0.16211, -1.11934, -0.15819 
-0.05236, 0.28769, 0.25029, -0.34536, 0.10151, 0.58239, -0.05467, 0.30408, -0.08848, 0.77877, 1.08971, -0.04441, 0.83111, 0.61906, 1.06518, -0.14794, -1.32438, 0.13298, -0.01296, -0.13372, -0.00567, -0.59923, -0.53624, -0.89855, -0.39146, -0.15718, -1.46135, -0.22944, -0.51180, 0.63513, -1.11653, 0.02619, -0.76624, -0.17060, 0.89875, 0.37700, 0.17570, -0.80690, 0.81186, 0.03078, -0.16492, -0.18789, 0.17746, -0.84859, -0.18225, -0.39438, -0.09141, -0.22415, 0.49945, 0.06364, 2.18623, -0.35163, -0.70446, -0.07755, 1.36615, -0.38756, -1.09900, -0.10196, 0.70905, -0.21568, 0.87888, 0.74189, 0.58438, 0.42808, -0.88662, -0.15125, -0.03545, 0.46582, -0.78276, 0.59753, -0.05030, 0.52216, 1.41781, -0.35959, -0.92599, -0.81443, 0.54557, -1.26334, -1.82474, -0.15121, 1.68406, -0.42149, 0.87796, -0.63646, -0.09729, -0.59147, 1.26366, -0.16106, 1.26820, 0.01778, 0.35527, 0.50977, -0.01216, 1.33877, 0.08613, -0.12213, 0.40469, 0.05212, 1.73486, 0.77114 
-0.05893, 0.04649, 0.03751, -0.08272, -0.99054, -0.90782, 0.15577, 0.41637, 0.23695, -1.07454, -0.14221, -0.02293, -0.51353, -1.54036, 0.44794, -0.15863, 0.10818, 0.19732, 0.03208, 0.45049, -0.16140, -0.16053, 0.27337, -0.93192, 0.13410, 0.07140, 0.27715, -0.11768, -0.13657, -0.10418, -0.17432, -0.06780, -0.86055, 0.46047, 0.14889, -0.08638, -1.47948, -0.27177, 0.10910, -0.07039, 0.28786, -0.17873, -0.06462, -0.44081, -0.08887, 0.18805, 0.19353, 0.07314, 0.03512, -0.22007, -0.31088, 0.02128, 0.09315, -0.03797, -0.13372, 0.94123, -0.29586, -0.11906, -1.24395, 0.07901, -0.68944, -0.47720, -1.05309, 0.09595, -0.46977, -0.62075, 0.15986, 1.32676, 0.14371, -2.19590, -0.45552, -0.77190, -2.71172, -0.16436, -0.16296, -0.31652, 0.16346, 0.01043, 0.07114, -0.34693, -0.70438, -0.10390, 0.21554, 0.09666, 0.17980, 0.07728, -0.27764, -1.58986, 0.43734, -0.28615, -0.31697, 0.00869, 0.06635, 0.17877, -0.27690, 0.71335, -0.61101, -1.13845, -0.74608, 0.42189 
-0.07783, 0.01892, 0.04345, -0.09137, -0.01627, 0.01086, -0.10034, -0.12238, 0.10636, 0.05721, -0.16126, -0.11924, -0.10394, -0.12454, -0.02247, -0.17600, -0.05677, -0.14921, -0.13357, -0.06198, -0.22467, -0.15663, 0.00188, -0.23137, -0.15894, 0.10185, -0.09238, -0.04134, 0.00048, -0.10348, 0.01345, 0.05625, 0.01707, 0.05701, -0.18252, -0.14104, 0.07474, -0.14132, -0.13487, 0.06049, -0.09750, 0.08777, 0.06902, -0.06367, 0.12456, -0.01171, 0.06096, 0.05750, -0.01115, -0.01417, -0.21931, -0.01166, 0.03008, 0.01702, -0.00162, -0.21960, -0.16567, -0.11475, -0.09646, -0.12403, 0.10134, 0.09447, -0.05208, -0.19438, 0.03545, -0.08489, -0.19617, 0.06651, 0.13562, 0.08689, -0.12009, 0.04778, 0.01693, 0.07665, -0.10526, -0.05155, -0.19083, 0.07932, -0.00046, -0.11748, 0.03655, 0.02122, 0.11029, -0.11263, -0.19616, -0.09594, -0.17736, -0.13212, -0.07388, 0.14889, -0.15184, -0.19190, -0.19016, 0.06409, -0.18124, -0.04520, -0.17292, -0.12785, 0.04131, 0.04140 
0.27513, -0.00559, -0.19896, -0.24677, 0.06081, -0.80514, -0.16008, -0.33098, -0.90855, -0.30038, 0.36838, 0.02962, -0.38702, 0.38968, -1.13428, 0.14228, -0.33963, -0.05087, 0.12942, 0.43560, -0.33033, -1.17798, -0.53056, -0.04557, -1.91076, 0.03200, -0.63249, -3.19478, -0.74039, -0.07953, -0.00236, 0.06230, -1.17336, 0.26002, 0.58919, 0.34234, -0.30736, -1.25562, 1.82404, -0.50734, 0.11106, -0.60354, -0.04544, -0.09483, -0.35289, -0.11084, -0.15380, -0.19477, -0.40108, -0.49795, -1.89352, -0.02521, -1.39426, -0.61404, 0.05322, 0.92804, -1.79083, 0.31838, 1.47749, -0.18548, -0.05476, -0.11292, -1.72378, 0.29790, -1.05721, -1.54983, 0.78683, 0.25620, -1.29421, -2.00808, -0.92111, -1.13364, -2.38307, -0.13704, 0.83704, -1.62465, -0.42099, -1.06811, -0.09382, 0.49890, -2.06064, -0.14299, 0.15502, -0.53939, -0.20260, -2.07497, -0.19034, 0.72503, -0.78607, -0.75364, -0.72770, -1.92899, -0.07853, -0.57572, 0.36449, -2.61201, 0.19604, -3.07198, 0.60181, -0.24671 
0.01952, -0.05795, 0.01173, -0.21117, 0.60034, 0.07212, -0.22026, -0.16436, -0.29142, -0.48878, -0.14992, 0.18433, -0.06882, -0.03461, -0.20290, 0.05048, -0.45818, -0.00532, 0.03209, 0.22401, 0.00587, -0.06979, 0.07006, -0.06388, -0.17009, 0.18360, -0.87783, -0.94075, 0.12494, 0.09492, -0.08396, 0.01751, -0.51550, 0.16975, 0.14679, 0.02001, -0.66424, -0.15275, -0.30137, -0.17190, 0.47467, 0.07954, -0.08872, 0.24600, -0.58714, -0.15076, -0.15355, 0.04883, 0.15233, -0.06676, -0.22138, -0.00531, -0.48228, 0.43787, -0.04947, 0.57265, -0.06238, 0.11375, -0.34686, 0.10386, -0.11726, 0.21255, -0.06238, -0.08488, -0.35661, 0.53394, 0.02633, 0.43293, -0.19381, 0.12959, -0.26162, 0.48419, 0.18449, 0.04140, 0.12915, -0.67369, -0.35915, -0.34354, -0.09219, -0.03264, 0.25498, -0.04199, 0.01030, -0.39679, -0.06691, -0.71236, 0.24170, 0.60939, -0.58785, -0.14266, 0.22283, -0.06556, 0.01475, -0.48059, -0.30828, 0.33869, -0.32981, -0.13097, 0.44043, -0.68357 
-1.66675, -0.92249, 0.08443, 0.33773, -1.84469, -0.46979, -0.13744, -0.48757, 0.18459, 0.89365, -0.36224, 0.05493, -0.60116, -0.08042, -0.05126, -0.24197, 1.59238, 0.62510, -0.13772, -2.53165, -0.06662, 0.52594, -0.64899, 0.18731, -0.33102, 0.21585, 0.56082, 0.00309, -0.39370, 0.03152, -0.20572, -0.03744, -0.24664, 0.53859, 0.02961, 0.40254, -0.13816, -0.17877, -1.21790, 0.67887, 0.38990, 0.01091, -0.16751, -0.79642, -0.42071, 0.53015, 0.17252, 0.18562, 0.07527, -0.22303, -0.57769, -0.01261, -0.88845, -1.06802, 0.26797, 0.33070, 0.33860, 0.25214, 0.11405, -0.34065, 1.13983, -0.21555, -0.22787, 0.03579, 0.05725, -0.17889, 0.52434, -0.25112, -0.17153, -0.61770, -0.16273, -0.05276, 0.05240, -0.29521, 0.73960, 0.47149, 0.70618, 0.18898, 0.00842, 0.06387, -0.03386, -0.26493, 0.24195, -0.45341, 0.00810, -0.92229, 0.07223, 1.07956, -1.18914, 0.25635, -0.16832, -0.58357, 0.00185, -0.69123, -0.51908, 0.15198, 0.26497, -0.09680, 1.23253, 1.20953 
-0.37667, 0.00820, 0.12377, -0.12544, 1.02187, 0.72034, -0.56626, -0.20441, 0.16711, -0.39147, 0.89583, 0.05610, 0.46467, 0.10637, 0.22949, 0.09155, -0.52392, 0.83286, 0.01292, -0.07665, 0.12723, -0.75692, -0.52434, -0.94291, -1.23647, 0.11160, 0.44271, -1.76567, -0.66550, -0.32323, -0.04275, -0.12742, -0.06151, 0.08456, 0.64218, 1.01641, -0.51590, 1.06207, -0.43254, 0.26199, -0.04843, 0.05876, -0.00810, 0.13217, -1.04986, -0.63399, -0.07240, -0.14886, 0.23446, 0.02951, 1.14851, -0.00024, 0.33818, -1.02204, 0.76382, 0.47678, -0.16291, 0.90937, -0.43022, 1.47783, -0.60723, -0.30725, 0.98416, -0.86469, -0.17478, 0.63073, -0.41689, -0.57035, 0.80998, 0.63090, 0.22406, 0.33280, 0.12333, -0.28621, -0.13658, -1.37420, 0.18148, 0.12704, -1.48923, -0.78713, 0.01379, 0.11312, 0.42137, 0.22246, 0.08033, 0.64415, 0.45055, -0.16466, -0.54651, 0.09074, 0.24766, -0.93355, -0.55557, -0.42033, -0.29914, 0.80809, -0.03760, 0.16145, 0.72925, -0.88154 
-0.07660, -0.02641, -0.19367, -0.04541, -0.07963, -0.06924, 0.11490, -0.00551, -0.11939, 0.05922, -0.15494, -0.19443, -0.12137, -0.01684, -0.19226, -0.16743, -0.09189, 0.02366, 0.03812, -0.02362, 0.05320, -0.03409, 0.08942, -0.17052, 0.15894, -0.04034, 0.15166, -0.10414, -0.06117, -0.09134, -0.19902, -0.07906, -0.05412, -0.03806, -0.10719, 0.06070, -0.05308, 0.09140, -0.09868, -0.15626, 0.00615, -0.14296, 0.04432, -0.00185, -0.08080, 0.05303, -0.04310, 0.13260, -0.02389, -0.17642, 0.08556, 0.09623, -0.15167, 0.08690, -0.19928, -0.20553, 0.03344, 0.03052, -0.04565, -0.10807, -0.13705, -0.07616, -0.03866, -0.20620, -0.16505, 0.01443, -0.17622, 0.02198, -0.09867, -0.11360, 0.09353, -0.17535, -0.14436, -0.20896, 0.03199, -0.16330, -0.08393, 0.00780, -0.00179, 0.02925, 0.07863, -0.07836, -0.03458, 0.04471, -0.18536, -0.01271, 0.00867, -0.20701, -0.15100, 0.12283, -0.00415, 0.01547, -0.12618, 0.06320, 0.04317, 0.11440, 0.00152, -0.00403, -0.20784, -0.17258 
-0.18524, 0.06237, -0.21274, 0.13255, -0.21358, 0.03034, -0.06305, -0.31724, -0.03327, -0.09999, -0.01930, 0.05003, -0.12818, 0.13652, -0.22620, 0.05925, 0.07799, -0.12787, 0.16140, -0.00796, 0.12520, -0.04931, -0.14374, -0.24400, -0.19231, -0.07856, 0.13613, -0.12890, -0.00616, -0.16873, -0.00437, -0.17151, -0.06937, -0.12630, 0.03850, 0.08853, 0.00766, -0.20460, -0.05277, -0.14054, -0.09087, -0.14498, 0.05337, -0.27242, -0.05659, 0.03685, 0.10568, -0.01356, 0.14332, 0.08069, -0.17021, -0.05454, 0.01973, -0.12262, -0.00389, -0.02503, -0.15770, -0.09578, -0.12986, -0.10977, -0.13268, 0.12069, 0.05921, -0.05403, -0.09648, -0.01097, -0.05345, -0.08444, 0.04724, 0.08704, 0.00111, -0.09506, -0.13850, -0.01201, 0.03646, -0.12558, -0.03967, -0.24054, -0.02819, -0.07196, -0.04848, -0.04269, 0.07400, -0.00948, -0.12763, 0.07035, -0.02537, -0.20331, -0.14200, -0.21947, 0.08500, -0.16198, -0.03452, -0.07049, 0.00546, -0.07051, -0.01899, -0.01687, -0.08507, -0.12347 
0.00992, -3.61706, 0.16259, -0.04887, -0.97488, -1.92427, -1.29215, -0.58382, 0.52969, -0.76224, -0.53160, -0.52690, -1.53235, 0.21361, 0.51291, 0.08925, -0.07743, 0.21425, 0.09590, -0.23490, 0.01902, 0.24491, -1.22275, 0.11138, -1.19699, 0.07732, -0.95279, -0.14892, 0.38209, -0.05021, 0.00328, -0.22722, 0.30431, 0.05235, 0.16435, 0.33493, -0.97437, -0.63504, 0.95438, -0.93293, 0.22751, -0.14943, 0.20316, 0.92255, 0.94314, -0.10329, -0.05598, 0.18010, -0.26760, -0.15580, -0.75411, -0.01300, -0.36146, -0.27066, 0.04321, -0.24117, 0.63662, -1.17691, 0.41012, 0.42551, 0.81220, -1.72112, -0.41454, 0.54419, -1.33451, -0.11355, 0.17472, 0.54838, -0.85833, -1.31114, -0.29017, -1.00443, -1.82088, 0.03272, -0.39980, -0.56445, 0.29735, 0.11183, -0.02296, -3.05067, -1.57164, -0.19857, -1.80918, -0.69925, 0.27701, -1.25316, -1.28668, -0.09050, -0.70722, 0.18768, -0.28210, -0.59297, 0.02699, -2.28618, -0.28729, -0.78360, -1.66947, -0.22297, -1.50124, -1.20041 
-4.14620, -0.14261, 0.08871, -0.20506, 0.95069, -0.33144, -0.74716, -0.41408, 0.35627, -0.22383, 0.08346, 0.37546, 1.47815, -0.50169, -0.82770, 0.29786, -0.39013, -0.07395, -0.12284, -0.30538, -0.27622, 0.04837, -0.10492, -0.15505, 0.33990, 0.19342, -1.56388, 0.80678, -0.76174, 0.25109, 0.21748, 0.05118, -0.96758, -0.40828, 0.29718, -0.01400, 0.41193, -0.01716, 0.62800, -0.06664, -0.00007, 0.21825, 0.10336, -0.09257, -0.64550, 0.01422, 0.02634, 0.26681, 0.55604, -0.26643, 1.03406, -0.13545, 0.08597, 0.44112, 0.61368, 0.17898, -0.75711, -0.37145, -0.06295, -0.52118, -0.07610, -0.10522, -0.64162, 0.37107, -0.20549, -0.59652, -0.11548, -0.09573, -1.12849, 0.62050, -0.04034, 0.74356, 0.15231, 0.16470, -0.26484, -1.18130, -0.13616, -0.18339, -0.11233, 0.13449, 2.02174, -0.10430, 0.02151, 0.53993, 0.09314, -0.54806, 2.16556, 0.26747, 0.20484, -0.34756, 0.31247, 0.16984, 0.04700, -1.79465, 0.07688, 1.26817, -2.08372, -1.20990, 1.42359, -0.31148 
-0.00174, -0.00857, -0.29263, 0.06240, 0.27464, 0.17951, -0.01320, -0.06013, -0.43382, -0.52722, -0.06934, 0.31211, 0.53857, -0.29128, 0.37293, -0.04024, 0.10938, 0.09814, -0.00211, 0.06711, 0.19405, -0.09473, 0.05444, 0.06510, -0.05812, 0.10778, -0.65004, -0.37825, -0.42786, 0.00645, 0.17731, 0.10835, -0.14214, 0.00760, 0.14570, -0.17084, -0.69714, -0.28427, -0.31552, 0.26810, -0.17883, -0.01399, -0.03238, -0.13872, -0.14802, -0.30947, 0.09680, -0.07159, -0.04302, 0.16958, 0.64544, 0.03701, -1.00798, -0.00824, 0.12025, 1.02856, 0.33274, 0.05880, -0.55326, 0.13109, -0.36088, 0.19292, 0.35443, -0.39065, -0.33999, 0.30903, -0.03266, 0.26448, -0.33833, 0.66996, -0.00797, 0.44589, 0.01621, 0.23166, 0.44025, -0.64523, 0.43139, -0.58685, -0.07776, 0.32384, -0.00447, 0.02394, -0.00820, -0.05612, 0.05739, 0.85948, 0.24838, 0.03087, -0.58075, 0.21683, -0.47968, 0.11333, -0.00812, -0.38327, -0.07108, 0.48353, 0.43220, 0.34048, -0.04962, -0.62451 
-0.29609, 0.51777, 0.06637, 0.24824, 1.32386, -1.72465, -1.10273, 0.43197, -0.15073, -0.09394, 1.62407, 0.39515, 0.04296, 0.21558, 0.60987, 0.04408, 0.48601, 1.48913, -0.20522, -0.59977, 0.37587, -0.52901, -0.88750, 0.71872, -0.04147, -0.16863, -0.37428, 0.95515, 0.64099, -0.36541, 0.28295, 0.05374, 0.63587, -0.65966, -0.77255, 0.05735, 0.70362, 0.27949, -0.33255, 0.55744, -0.05591, 0.61851, -0.28342, -0.84895, 0.24951, 0.65189, -0.05431, 0.01352, 0.48314, -0.03980, 1.74132, -0.46777, -0.32290, 1.57162, -0.55089, -0.40344, 0.43065, 1.20401, 0.16358, -0.14517, -0.49397, 1.79554, -0.30442, 0.53928, 1.22646, 0.55285, 0.25580, 0.13586, -0.87203, 0.92866, 0.41600, 0.27478, 0.82682, -0.04879, 0.72478, -0.47303, -0.03452, 0.36822, -1.94633, 1.48115, 0.21594, 0.20692, -1.21182, 0.34626, 0.21081, -1.08961, -0.53893, -0.02338, 0.11758, 0.12227, -0.01515, 0.61665, -0.07028, 1.93982, 0.47017, 1.14704, 0.34429, -0.02912, 0.46640, 0.05093 
1.00843, -2.17593, -0.08779, 0.06414, 0.55782, -1.56501, 2.02747, -1.08077, -0.36956, 1.23804, 0.74955, 0.21013, 1.55849, 0.61183, 0.22438, 0.06541, 0.42095, 2.24701, 0.03853, -0.06617, -0.08394, -1.34612, 0.48438, 0.39910, -0.49173, -0.34593, -1.54835, 0.49039, 0.76986, 0.02484, 0.59706, -0.30876, 0.04026, -0.65611, 0.63899, 0.15098, 0.30412, -0.09787, 1.65097, -0.71579, 0.38499, 0.50477, -0.22416, -0.73372, -1.22404, -0.22716, -0.35555, -0.32494, 0.51764, 0.14698, 1.10882, -0.13805, -0.90131, 2.35052, 0.18261, -0.70313, 0.17922, -0.59040, 1.18943, -0.95686, 0.33652, 1.75630, -0.08420, -0.42645, 0.97781, -0.12443, 0.34574, 0.08248, -0.98045, 2.10686, 0.48398, 2.50874, 0.97126, -0.00662, -1.22574, -0.77076, 1.27145, 0.32286, -5.60968, 2.20628, 1.16149, 0.65928, -0.43426, 0.79806, -0.01774, -1.48174, 0.61689, 0.68639, 1.07569, 0.30430, 0.04405, 0.32906, 0.27060, 1.37119, 0.16842, 0.34400, 0.30907, 0.33893, 0.56606, 1.30113 
0.11492, 0.58631, -0.34963, 0.03815, 1.11834, -0.06423, 0.48433, -0.01379, 0.09602, 0.32712, 1.02802, -0.19106, 0.68745, -0.16991, -0.04851, 0.03172, -0.39672, 0.46505, -0.04908, -0.08518, 0.18581, -0.51501, -0.13011, -0.34391, -1.22585, -0.06059, -0.59962, -1.13341, -0.39308, 0.29850, -0.85800, 0.07212, -0.06503, -0.27216, 0.79219, 0.20394, 0.30078, 1.11785, 0.69139, 0.25928, -0.03570, -0.17516, 0.04862, -0.07308, -0.10769, -0.38629, -0.13599, 0.07333, 0.11133, 0.24002, 0.70663, 0.09746, -0.80957, 0.78881, 0.47651, -0.49286, -0.36999, -0.37246, -0.49819, -0.18554, 0.06350, 0.48869, 0.88225, -0.98424, 0.19414, -0.12482, -0.37277, -0.47614, 0.13038, 0.40494, 0.09587, 0.79031, 1.54054, 0.18265, -1.21179, -0.39949, 0.69066, -0.20735, -1.10909, -0.56054, 1.05717, -0.00617, -0.46871, 0.96379, -0.02057, -0.75993, 0.58479, 0.09842, 0.06266, 0.19767, 0.07199, -0.32930, -0.14087, 0.55581, -0.14230, 0.48365, -0.71496, -0.50126, 1.50389, 0.07244 
-0.20290, -0.16627, 0.14554, -0.02451, -0.23892, -0.18749, -0.25372, -0.01710, -0.11047, 0.01636, -0.09731, -0.09309, -0.07564, -0.13024, -0.18989, 0.09836, -0.10277, -0.10083, 0.06246, -0.03716, -0.06346, -0.17074, -0.18085, 0.02596, 0.05690, -0.09644, 0.12396, 0.13315, 0.03957, -0.23514, -0.01876, -0.13538, -0.07018, -0.39001, -0.21315, 0.15762, -0.29224, 0.11517, -0.13789, -0.15867, 0.06893, -0.09783, -0.08124, -0.07514, -0.16707, -0.20240, -0.18687, 0.06924, -0.14312, -0.25562, -0.16265, 0.03833, -0.02103, 0.02257, 0.12935, -0.07639, -0.15032, -0.12970, -0.01848, 0.12204, -0.06853, 0.07752, 0.12882, -0.06110, -0.13105, -0.03049, -0.10550, 0.07836, -0.22108, -0.14360, -0.05888, -0.11662, -0.12337, -0.26704, 0.08145, -0.14562, -0.06514, -0.08250, -0.34615, -0.03201, -0.16764, -0.24170, -0.01546, 0.10957, -0.02712, -0.17963, -0.12876, -0.22078, -0.22259, -0.18880, -0.25337, -0.22477, -0.07076, 0.19013, -0.10821, 0.04046, 0.05350, 0.05481, 0.16241, -0.15116 
-0.64723, -2.16889, -0.19794, -0.41780, -2.26477, 1.50204, -0.62865, -1.15333, 0.07385, -2.03594, -1.84241, -0.40904, -1.34354, -0.74409, -1.67275, -0.29971, -1.11304, -2.45471, -0.04984, -0.71789, -0.56435, -0.66065, -0.97485, -2.12397, -0.36455, -0.08490, -0.82198, 0.55136, -0.20445, -1.19984, -1.06399, -0.09381, -0.22667, 0.44949, -0.21429, -1.39146, -1.29558, -0.03711, -2.46373, 0.98772, -3.25196, -0.16844, -0.24948, 0.37186, -0.46500, -1.88718, -0.30542, 0.03255, -0.47193, 0.17821, -0.59606, -0.11643, 0.70127, -0.57514, -1.81431, 0.29079, -0.84959, -0.63923, -1.73334, -0.31829, -0.91483, -1.08070, -0.27774, -1.81123, -2.28682, -0.11804, -1.74753, -3.25518, -0.80996, -0.29444, -0.09376, -0.91280, 0.78743, -0.84548, -0.80693, -0.19821, -2.62630, -0.71479, -2.91427, -2.22649, -1.07508, -2.17147, -1.38073, -0.56536, -0.06463, -0.62612, -0.88815, -2.90069, -0.15417, -0.19146, 0.45303, 0.55465, -0.27680, -1.59784, -1.39359, -0.71385, -1.41895, -1.23327, -0.84544, -4.10806 
-0.08608, -1.08964, -0.18787, 0.29788, 0.46765, -0.24963, 0.50127, -0.88816, -0.75339, 0.48917, 0.39685, 0.85350, 1.16874, 0.37825, 0.40441, 0.20163, -0.08535, 0.32850, 0.02134, -0.49168, 0.04741, -0.62979, -1.25406, 0.14788, -0.09150, 0.22626, -0.69641, 0.96898, 0.09572, 1.15651, -0.12690, 0.10492, -0.13860, -0.85083, -0.07409, 0.69928, 0.12416, 1.14675, 0.46265, 0.30188, 0.02430, 0.12157, -0.05517, 0.10936, 0.30913, 0.55997, 0.14385, -0.08584, 0.24646, -0.25695, -0.27640, 0.08000, -0.35932, 1.51885, 1.27315, -0.61672, -0.43927, -0.94040, -0.18461, -0.57592, 0.37764, 0.65540, 1.32854, -0.03016, 1.07602, -0.17280, 0.18822, 0.02455, -0.07552, 1.37813, 0.42869, 0.37209, 1.19221, 0.14371, -0.67719, 1.17796, 0.39141, 1.41951, -1.38165, 0.55849, 1.20633, 0.45101, -1.50563, -0.02817, 0.04977, 0.22849, 0.86083, -0.18291, -0.42128, -0.22111, -0.10804, -0.53091, -0.19917, 0.47199, 0.09278, 1.67794, 0.11050, -0.16459, 0.35086, 0.21886 
-0.05210, 0.05404, -0.01067, -0.13376, -0.02014, -0.44129, 0.05728, 0.01279, 0.44443, 1.84684, -0.07974, -0.13247, -1.44885, -0.15802, 0.02219, -0.11392, 0.22840, 0.14911, 0.27763, 0.40478, -0.09931, 0.25678, 0.29070, -0.11212, -0.48006, -0.14570, 0.15458, 0.24167, 0.69448, 0.10499, 0.22071, -0.03226, -0.34536, 0.46923, 0.05049, 0.02247, 1.19141, -1.09877, -0.13529, 0.17891, -0.12571, -0.19736, 0.24435, -0.60115, -0.14373, -0.26141, 0.05322, 0.10275, -0.20233, -0.19771, -1.06762, -0.21899, 0.40964, 0.21935, -0.17598, -0.11567, 0.32301, 0.21032, 0.21332, 0.01857, 0.03045, -0.63785, 0.01723, 0.00473, 0.78129, -2.32587, -0.08982, -1.51047, -0.91154, -1.29183, -0.62292, -0.64181, -1.14540, 0.34125, -0.02331, 0.29379, -0.43357, -0.13006, 0.11713, -1.13487, -2.05538, -0.08603, 0.21169, -0.84558, -0.08473, -0.25517, -0.21194, -0.51318, 1.36039, -0.12692, 0.14278, -0.08991, 0.02685, 0.73698, 0.46387, -1.25708, 0.41754, -0.73936, -0.86784, 1.36568 
0.01303, -0.78823, -0.24155, 0.54555, 1.32039, -0.86220, 0.48616, -0.64251, 0.49952, 0.48750, 0.79455, 0.38597, 1.83943, 0.40950, -1.14008, 0.01837, 0.50423, 0.11843, -0.00184, -0.39183, -0.04715, -1.22462, 0.70582, -0.06817, -0.66903, 0.21001, -1.18425, -1.13230, 0.02065, 0.27576, -0.75433, -0.03778, -0.05689, 0.30264, 0.35004, -0.95175, -0.73765, -0.34156, -0.01046, 0.39848, -0.60912, 0.19784, -0.02654, 0.13655, 0.73282, -1.44131, 0.06655, 0.01362, 0.64600, 0.25400, 1.62620, -0.04152, -0.91504, 1.68855, -2.82209, -0.30357, 0.16078, -0.09450, -0.50952, 0.83602, 0.51083, 0.49108, 1.51216, -0.85793, 0.37005, 0.18779, -0.75186, 0.69097, 0.42057, 1.63858, 0.61865, 1.99327, 1.04562, 0.02616, 0.78527, -1.04800, 1.04395, 0.97238, -0.15729, 1.18085, 1.21790, 0.33575, -0.20047, 1.20883, -0.00037, -1.30038, -0.48235, 0.45517, 0.80337, 0.32129, 0.10768, -0.47273, -0.00284, 0.83717, -0.30957, 3.11423, 0.97891, -0.48786, 1.11832, 0.40330 
0.03878, 0.13594, -0.03212, -0.17786, -0.90196, 0.45155, 0.10170, 0.24728, 0.51496, -1.48709, 0.28156, 0.09334, -0.02747, -0.13300, 0.28943, 0.21783, -0.13622, 0.05331, -0.09626, 0.03463, -0.08347, 0.37064, -0.46147, -0.19034, 0.89600, -0.13830, 1.74123, 0.24604, -0.66051, -0.24578, -0.16103, 0.02621, 0.38060, 0.12589, 0.14381, 0.06763, -0.41718, 0.61225, -0.13676, -0.22263, 0.35547, -0.17189, 0.05288, -0.08259, -2.00504, 0.05802, -0.20855, 0.11106, 0.07266, 0.03513, 0.05505, -0.07322, 0.49554, 0.57134, 0.28290, 0.42657, -0.46687, -0.27257, 0.07380, 0.19914, 0.85105, 0.25327, -0.32554, -0.68082, 0.10438, 0.88335, -0.05654, -0.05784, 0.60174, -0.29321, -0.06994, -0.03450, 0.62348, -0.14767, -0.18317, 0.65089, 0.22940, 0.61095, 0.83415, 0.42196, -0.39087, 0.04103, -0.11031, 0.95978, -0.06215, 0.91332, 0.56989, -0.48957, 0.57843, -0.31201, -0.04194, 0.40590, -0.10585, 0.42242, 0.08291, -1.86004, -0.57533, 0.72583, 0.02529, 1.01796 
0.04837, -0.62641, -0.22722, 0.22958, -0.18522, -0.08053, -0.12164, -0.14051, -0.28981, -0.21370, -0.05463, 0.05783, -0.07190, -0.03320, -0.11448, -0.06680, 0.03063, -0.43722, 0.07100, -0.23505, -0.03416, -0.28644, 0.04129, -0.14848, -0.02906, -0.05047, -0.12135, 0.03775, 0.02258, -0.55805, -0.02181, -0.30450, 0.05432, 0.09377, -0.21344, -0.19244, -0.25050, -0.16968, 0.02232, -0.30444, -0.55258, -0.08008, 0.11927, -0.35625, 0.15534, -0.17842, -0.07883, -0.05163, -0.12995, 0.01166, 0.03679, -0.14672, -0.46382, 0.07740, -0.05834, -0.27037, 0.17595, 0.18528, 0.02086, -0.14686, -0.02286, 0.13621, -0.19793, -0.10567, -0.00088, -0.05595, -0.32106, -0.51241, 0.27762, -0.14779, -0.08505, -0.22822, -0.03041, -0.08349, -0.15659, -0.25383, -0.07483, -0.15696, 0.11782, 0.08043, 0.02045, -0.18622, -0.20804, -0.04713, 0.05040, -0.26175, 0.06862, -0.25393, 0.04540, 0.25252, -0.21374, -0.29316, -0.23214, -0.28789, -0.10538, -0.19732, -0.50276, -0.39174, 0.04426, 0.09985 
0.01706, -0.15223, -0.00025, -0.03078, 0.06277, -0.00826, 0.06471, -0.08197, -0.00611, -0.12850, -0.05472, 0.11488, 0.08810, -0.12389, -0.01449, 0.06365, -0.06244, -0.18882, -0.08535, -0.08615, 0.05060, -0.01788, -0.05150, 0.08584, -0.00499, -0.04261, -0.13746, -0.11635, 0.00118, -0.25007, -0.11859, -0.12177, -0.09100, -0.14657, 0.01038, 0.02719, -0.15966, -0.07997, -0.11690, 0.03461, -0.10200, -0.10977, -0.01437, -0.19995, -0.05197, -0.12428, -0.05338, -0.05852, -0.16580, -0.20283, 0.02076, 0.11019, -0.05894, -0.04174, 0.01323, -0.18916, 0.12069, 0.09245, -0.00626, 0.04626, -0.10850, -0.00212, 0.12297, -0.13182, -0.13711, 0.00673, -0.13954, 0.03235, -0.03977, -0.19622, 0.07193, -0.00521, 0.09704, -0.14229, -0.17344, -0.11057, -0.01955, 0.10319, -0.19738, 0.01811, 0.12120, -0.12977, -0.00012, -0.18409, -0.04272, 0.03875, 0.02450, -0.14524, -0.14365, -0.12663, 0.09461, -0.08436, -0.08258, -0.01279, -0.14362, -0.06286, -0.03638, -0.13564, -0.10383, -0.04036 
-0.32447, -0.01361, 0.09079, 0.01549, -0.20985, -0.01829, -0.01437, -0.22454, -0.00297, 0.17193, 0.16639, -0.17244, -0.06677, -0.00042, 0.07998, -0.16936, -0.01700, 0.10370, -0.09886, -0.00870, 0.18813, -0.08886, 0.07776, -0.07285, -0.08420, -0.12583, -0.16740, -0.12535, 0.00882, -0.10659, -0.19947, -0.11250, -0.07614, -0.26360, 0.09111, 0.05731, -0.03253, -0.00461, -0.11185, -0.02805, 0.00070, -0.14717, -0.14244, -0.20467, -0.04079, -0.11587, 0.10063, 0.14549, -0.10101, -0.22141, -0.16244, 0.14732, -0.23614, 0.10518, -0.09933, -0.10678, 0.06814, 0.01676, -0.17716, -0.13854, 0.18827, -0.19989, -0.22513, 0.08813, 0.02318, -0.14988, -0.00041, -0.23022, -0.14969, -0.21632, -0.10157, -0.15695, -0.21575, -0.05508, -0.04778, -0.17456, -0.11536, 0.05069, -0.17802, -0.22867, 0.19153, 0.01342, -0.01583, -0.10399, -0.11056, -0.20355, -0.05725, -0.23803, 0.01938, -0.01388, -0.18180, 0.01829, -0.10181, 0.24235, -0.24406, -0.13516, -0.25480, -0.12994, -0.07663, 0.10301 
0.04987, -0.10869, 0.05084, 0.10949, -0.31432, -0.23428, -0.16577, -0.32249, -0.32858, -0.19351, -0.01566, -0.16446, 0.21400, -0.02943, -0.20860, 0.07884, -0.10361, -0.02839, -0.12825, -0.22925, 0.01471, -0.01480, 0.17475, -0.04993, -0.23622, -0.13624, -0.17563, -0.11042, 0.21175, -0.16937, -0.01081, -0.30512, 0.19509, -0.19177, -0.26754, -0.12780, -0.02323, -0.13640, -0.19329, 0.10531, -0.25213, -0.07942, 0.10695, 0.05787, 0.13681, -0.16841, -0.16181, 0.06443, -0.03035, 0.18756, -0.28898, 0.03199, -0.17411, -0.05494, -0.07767, -0.27408, -0.00097, 0.13559, 0.04295, -0.14689, 0.07763, -0.29353, -0.02689, -0.16416, -0.11981, 0.15849, -0.33358, -0.26052, -0.02945, 0.02602, -0.14451, -0.14763, -0.32413, -0.19598, -0.14978, -0.21352, -0.09558, -0.01325, -0.03976, -0.01399, 0.01545, -0.06743, -0.01750, 0.01230, -0.29938, -0.38026, -0.23513, -0.10370, -0.07934, -0.02853, -0.21008, -0.11946, -0.22389, -0.05170, -0.05508, -0.18750, -0.00245, -0.04176, -0.30209, 0.09552 
-0.28072, -0.20027, -0.14329, 0.08596, -0.79031, -0.35861, -0.24405, -0.82310, -0.10947, -0.03727, -0.32185, -0.33580, -0.25083, 0.28008, -0.43186, -0.18260, -0.38047, 0.04699, -0.02445, -0.20687, -0.24455, -0.02620, -0.27966, 0.19171, -0.10934, -0.05125, -0.50846, -0.01584, -0.45724, -0.33968, 0.22320, -0.12145, -0.44351, 0.01169, -0.49932, -0.74009, 0.24435, -0.83244, -0.57414, -0.00651, 0.46157, -0.37122, -0.13036, 0.18990, 0.03103, -0.12082, -0.03482, -0.07990, -0.10484, -0.29501, 0.01677, 0.27202, -0.24603, -0.30292, -0.47419, -0.41938, -0.53039, 0.01248, 0.07285, -0.31615, 0.44428, -0.41150, 0.05802, -0.27887, 0.08599, -0.99928, -0.10650, -0.65880, 0.09152, -0.20858, 0.23543, -0.35498, 0.15214, -0.55619, 0.12822, -0.37752, -0.01593, -0.48282, -0.16146, -0.05075, -0.57683, -0.22426, -0.76896, 0.00342, 0.00897, -0.71091, -0.50653, -0.08240, -0.94070, 0.10478, -0.04741, 0.19956, -0.10695, -0.00315, -0.89050, -0.59410, -0.02763, 0.04304, -0.36237, -0.98830 
-0.66554, 0.55367, -0.12939, -0.35755, 0.38056, 0.20661, 1.78852, 0.65451, -0.58517, -0.41045, 1.18083, -0.10641, 1.90739, 0.25527, 0.92598, 0.17973, 0.09061, 0.84869, -0.20032, 0.46809, 0.35821, -1.31610, 1.07269, -0.35546, -0.43668, -0.07238, -1.90434, -0.58473, -1.55257, 1.09125, -1.92162, -0.10947, -0.24364, -0.88678, 0.89511, 1.19867, -0.66376, -0.76864, 0.43847, 0.38395, 0.13451, -0.22158, 0.14102, -0.01854, 0.10522, 0.25842, -0.18277, -0.05715, 0.30891, 0.16634, 0.35480, -0.13072, -0.94063, 1.13041, 1.55930, -0.09182, -0.70707, -0.24415, -0.55459, 0.05258, 0.25677, 0.51093, 0.60898, -1.18721, 0.90348, 0.10498, 0.16873, 0.00934, -1.55571, 1.31083, 0.21265, 1.45412, 0.24302, -0.23650, -2.73650, -0.56338, 0.69953, -1.19974, -1.97364, 0.83674, 0.89241, 0.54158, -0.59176, 0.34762, -0.15955, -1.54682, -0.17630, 0.33949, 0.16181, -0.04562, -0.33024, -0.21220, -0.34954, 0.37986, 0.74536, 1.60827, 0.56195, 1.10623, 0.51314, -0.74184 
-0.16285, -0.57761, 0.09695, 0.03877, -0.17277, 0.05237, -0.43512, -0.95315, -0.07937, -0.78878, -0.40084, -0.09047, -0.18432, -0.08081, -0.20196, -0.23737, -0.88135, 0.12834, -0.01660, -0.29154, -0.10091, -0.85320, -0.35348, -0.09054, -2.17598, 0.01503, -0.79213, 0.64025, -0.04688, -0.06795, -0.85589, -0.26404, -0.11106, 0.30320, 0.47104, -0.53329, -0.90054, -0.44154, -0.16322, -0.12188, 0.05354, 0.08513, 0.02626, -0.21625, 0.09452, -0.40811, 0.08074, 0.05831, -0.05288, -0.05572, -0.26348, 0.10183, -0.60318, 1.09277, -0.03303, -1.62611, -0.06210, 0.36587, -0.40452, 0.45068, -0.42704, 0.11647, -0.39804, -0.41621, 0.11374, -0.24258, -0.79898, 0.17917, -0.65332, -0.03389, -0.24714, -0.05649, -0.31853, -0.03175, -0.94330, -0.33094, 0.42851, 0.60223, -0.07825, -0.09341, -0.07133, -3.49233, -0.20518, -0.06990, 0.01648, -1.65881, -0.35185, -1.33482, -0.25115, 0.07209, -0.33206, 0.30127, -0.00837, -0.03034, -0.16212, 0.03643, 0.03333, -0.52190, 0.05457, -0.58136 
-0.26478, -0.07492, -0.52302, -0.56965, -0.01190, -0.17646, 0.04997, -0.45464, -0.26845, -1.05849, -0.18216, -0.28167, -0.28731, 0.07019, -0.02195, 0.20232, -0.45841, 0.08648, 0.00268, 0.16315, -0.25396, -0.19564, -0.30371, -0.30420, -0.24911, -0.07655, -0.39082, 0.25392, -0.25090, -0.55167, -0.23007, -0.00801, -0.32091, 0.08251, -0.25434, -0.11380, -0.19230, 0.04692, 0.60299, -0.41482, 0.01018, -0.01479, -0.30440, -0.05227, -0.75482, -0.24185, -0.15047, -0.14497, -0.23125, -0.37648, -0.22136, 0.01470, -0.35797, 0.08195, -0.29460, -0.19344, -0.19705, -0.34692, 0.10171, -0.13128, 0.41224, -0.31571, -0.22188, -0.23925, -0.11911, 0.26612, -0.15496, -0.13841, -0.28460, -0.40344, 0.14396, -0.36233, -0.15697, -0.17949, 0.45119, -0.28918, -0.04396, 0.06222, -0.12754, -0.21752, -0.27840, -0.28424, 0.14506, -0.07263, -0.04642, -0.29521, 0.04842, -0.09708, -0.35940, -0.37876, -0.21973, -0.40928, -0.14837, -0.01504, -0.11514, -0.64863, -0.14665, 0.10726, -0.10089, 0.09148 
-0.02434, -0.26118, -0.17859, -0.44873, 0.37689, -0.34547, -0.09987, 0.00453, -0.86673, -0.10546, 0.66751, -0.04504, 0.63402, -0.24625, -0.08230, 0.39975, 0.43280, -0.50106, 0.06105, 1.22357, -0.05940, -0.21488, 0.44438, 0.07218, -0.71032, 0.13276, -0.41199, -0.00141, -0.95404, -0.29987, 0.18385, 0.19683, 0.10617, 0.07764, 0.03785, 0.01498, -0.03152, -0.26018, 0.05254, -0.14239, 0.04340, 0.03227, 0.01720, 0.19078, -0.29580, -0.12614, 0.23981, -0.01059, 0.04587, 0.02852, -0.10679, 0.29221, -0.34693, 0.42589, -0.40133, -0.20049, -0.18021, 0.01629, -0.64969, 0.00468, -0.33427, -0.47711, 0.28975, -0.22011, 0.17227, 0.09072, -0.14784, -0.14896, 0.18181, 0.84729, 0.31188, 0.46350, -0.18903, 0.00450, 0.40930, 0.20274, -0.41032, -0.09574, -0.07064, 0.06524, -0.36912, 0.21231, -0.18358, -0.03434, -0.08428, -0.78874, -0.08650, -0.19854, 0.09391, -0.60243, 0.45595, -0.20204, -0.13611, 0.40015, -0.28322, 0.55988, -0.44002, -0.55785, -0.07207, -0.35128 
-0.31251, -0.46018, -0.10851, -0.27460, -0.79090, -0.72930, -0.54413, 0.10325, -0.92621, -1.76731, -0.64176, 0.23371, -2.10568, -0.63343, 0.52587, 0.19822, -0.30704, -1.04869, -0.05252, -0.20552, 0.04406, -0.37109, -0.72954, -0.50008, 0.29654, 0.22159, -0.50138, -0.92207, -0.39769, -0.40650, -0.66235, 0.07509, -0.19719, -0.38859, -0.49601, -0.23723, -0.42264, -0.24311, 1.47674, -0.43088, 0.31939, 0.01481, 0.04683, 0.04588, 0.14665, -0.78834, 0.04302, 0.06286, -0.08337, -0.32124, -2.02632, 0.18175, -0.29202, -0.39551, -0.70759, 0.34621, -0.10814, 0.00002, -0.41032, -0.33990, 0.26006, -0.07622, -0.84460, 0.24742, -1.05959, -0.38574, 0.04738, 1.08425, -0.15688, -1.18646, -0.18849, -0.51872, -1.11076, -0.01270, -0.45572, -0.61785, 0.16112, -0.48577, -0.82862, -0.40804, -1.27353, -0.07900, -0.68664, -0.89023, -0.05853, -0.53032, 0.04923, -1.30891, 0.41627, -0.01877, -0.64203, -0.46570, -0.08813, -0.24105, -0.82020, -1.18485, -0.68903, -0.39946, -1.66834, 0.27571 
0.10447, 0.30008, 0.02755, -0.28018, 1.12821, -0.31274, -0.01804, -0.47631, -0.45112, 0.98289, 0.61219, -0.32223, 0.97971, 0.20570, 0.05055, -0.28691, -0.20175, 1.92502, 0.08612, 0.02368, -0.39709, -0.28493, 0.13615, -0.06468, -0.03519, -0.22596, -0.59183, 0.51199, -0.01394, 0.51202, 0.60422, -0.20064, 0.04011, -0.68696, 0.10671, 0.62023, 0.47503, -0.21124, 1.03070, 0.47149, 0.02412, 0.08510, -0.33214, -0.13693, 0.10365, 1.56896, -0.05870, 0.15682, -0.15136, 0.02603, -0.14017, 0.18809, -0.73311, -0.28364, 0.31467, -0.72148, 0.24497, -0.50369, 0.35417, -0.64477, 0.35146, -0.98944, 0.22375, -0.24466, 1.85224, -0.11865, -0.56131, -0.05130, -0.01142, 0.62921, -0.57439, 0.58230, 0.80896, -0.10409, 0.30422, 0.04732, 0.76205, 0.54685, -0.27686, 0.77533, 1.20636, 0.26537, 0.26015, -0.48598, 0.00454, -0.59571, 0.23938, 0.07507, 0.45738, -0.58316, -0.11731, 0.39078, -0.43687, 1.01768, 0.03454, 2.38580, -0.13981, -0.15225, -0.44117, 0.47562 
1.77289, -1.57622, 0.25601, -0.49196, -0.08412, -0.12397, -0.51193, -0.00713, -0.15918, -0.99728, -0.95922, -0.09007, -0.79526, 0.30939, 0.62143, 0.07294, -0.79258, -1.02006, 0.26577, -1.30951, -0.45868, -1.35862, -0.12515, 0.02342, 0.36764, -0.05056, 1.35682, 0.45910, -0.18411, 1.13418, -0.44165, 0.12811, -0.21504, -0.44713, -1.04857, -0.07857, 0.39184, 0.25125, 0.35710, -0.42058, -2.38774, -0.02089, 0.24655, -0.49145, -0.81402, -0.25738, -0.06077, 0.00307, -0.22919, -0.34459, 0.21565, 0.03361, 0.09245, -1.04121, -0.55316, -0.34860, 0.04947, 0.03680, -0.15854, 0.01250, -0.17405, -1.28809, 1.03116, -0.27878, 0.73575, -0.11997, -0.71019, -0.60697, 0.97404, 0.45799, -0.46012, 0.13564, 0.54697, -0.18141, -0.29095, 1.37923, 0.63060, 2.39626, -4.08282, -0.66205, 1.21843, -0.40964, -2.94404, -1.15423, -0.02630, 1.80000, 1.02046, -0.47813, 0.37416, -0.02101, -0.07120, -0.48381, -0.74414, -1.99843, 0.23709, 1.04078, -0.68299, -0.65422, -0.35544, 1.82567 
-0.23454, -2.62007, 0.07130, 0.02607, 1.03099, -1.04921, -1.14873, -0.17186, 0.46605, -0.95899, -1.82506, -0.35519, 1.25769, 0.33393, -2.80724, -0.08520, -1.09849, -0.00722, 0.10211, -0.18189, -0.13719, -1.97555, -0.06432, -0.09040, -0.12489, 0.28640, 1.77669, 0.34326, 1.51023, -0.54321, -0.45596, 0.11279, 0.54051, -0.01003, 0.49015, -1.09002, 0.43157, -0.05991, -0.42894, -0.25085, 0.34309, -0.17730, -0.09480, -0.26931, 1.64524, -1.16317, 0.13171, 0.05612, 0.05315, -0.24133, 0.15593, -0.09851, -0.35076, 1.48492, -0.47590, -0.44890, 1.43384, -0.08329, -0.43255, 0.40886, -0.31140, -0.19079, 0.65084, 1.54393, -0.78299, 0.59303, 0.84474, 0.10887, 1.08917, -0.33726, 0.19681, -0.64858, 0.44020, 0.01601, 0.06864, 0.99215, -1.64131, 1.18582, -3.96947, -0.05223, 0.16097, 0.78437, -0.87751, 0.87197, 0.02082, 0.78614, -0.62617, -0.98786, 0.18219, 0.54822, 0.26306, -0.65773, 0.27904, -1.51978, 0.10854, -0.68008, -4.29010, -0.61728, -0.03429, -0.22481 
-0.03224, -1.63562, -0.05188, 0.09633, 0.34514, -0.08913, -0.04792, -0.10718, -0.60970, -0.28200, 0.27774, 0.41324, 0.78742, 0.61446, -0.08259, 0.12886, -0.25806, 0.40951, 0.06521, -0.23920, 0.07532, -0.16385, -0.26101, -0.37250, -0.63707, 0.25008, -0.31728, 0.12265, -0.03480, -0.18023, 0.03764, -0.31616, 0.03208, -0.51913, 0.54289, 0.61778, -0.32259, 0.02377, 0.03205, 0.15438, -0.22414, -0.49683, 0.09608, -0.20671, -0.14640, -0.14755, 0.02880, -0.11788, 0.17892, -0.14912, -0.02001, -0.10813, -0.32915, 0.36343, 0.36444, -0.08962, 0.08658, -0.12911, -0.00471, -0.05333, -0.31397, 0.19683, 0.31408, -0.27958, -0.62647, -0.21430, -0.11184, -0.96410, -0.05845, 0.29718, 0.43880, 0.03396, 0.05599, -0.20363, -0.73153, -0.28649, 0.04177, 0.19014, -0.91389, 0.22165, 0.58980, 0.11490, -0.66844, -0.37307, 0.26345, -0.27139, 0.17526, -0.38306, -0.44608, -0.45750, 0.17618, -0.34608, -0.44731, -0.00058, 0.37965, 0.38160, -0.19802, 0.08272, 0.10261, 0.11237 
0.12703, -0.08383, -0.08639, 0.03105, 0.31168, -0.09796, -0.05807, -0.34639, 0.53203, 1.29412, -0.00510, -0.04099, -0.14629, 0.30674, -0.31955, 0.10166, 0.37655, -0.24358, 0.03161, 0.02488, 0.17056, -0.03601, 0.35919, 0.59808, 0.43462, -0.01121, 1.21062, 0.34602, 0.29585, 0.31779, 0.32222, 0.05127, -0.10353, 0.69327, -0.19924, -0.13093, 0.94274, -0.34866, 0.67202, 0.01071, -0.29768, -0.11950, 0.22907, 0.70563, 0.88857, 0.14293, 0.08351, 0.09717, -0.13983, 0.13148, 0.12252, -0.02783, -0.01581, 0.38979, -0.32773, -0.21493, 0.10269, 0.13123, 1.50370, 0.08352, 0.35873, 0.04109, 0.39233, 0.50254, -0.34386, -0.43885, 0.29254, 0.11650, 0.05447, 0.42648, 0.44984, 0.00694, 0.29007, -0.02136, 0.25930, 0.23229, -0.46682, 0.56159, 0.82157, -0.28099, -1.15168, -0.04180, -0.11881, -0.12233, 0.08736, 0.61444, -0.56025, 0.42701, -0.01042, 0.15671, 0.31695, -0.33997, 0.12262, -0.07771, 0.20885, -0.29268, 0.37576, 0.25219, -0.48062, 0.18214 
-0.01113, 0.17084, 0.04035, -0.22093, -0.51064, 0.27378, 0.21428, -0.31715, -0.53894, -0.59660, -0.05107, -0.05828, -0.22202, 0.03588, -0.65009, -0.05224, -0.23918, -1.16625, -0.10869, -0.31656, -0.13994, 0.29072, 0.57121, 0.55196, 0.39603, 0.29063, 1.17362, 0.19977, -0.35334, -0.58147, 0.68459, -0.42938, 0.04797, -0.37462, 0.07383, -1.12360, -1.76972, 0.93581, -0.94003, 0.28247, 0.26025, -0.65180, 0.07274, 0.23125, -0.91194, -0.68105, 0.00819, -0.08540, 0.00633, -0.27706, -1.42347, 0.06249, -0.15853, 0.03542, 0.07249, -0.94440, -0.23824, -0.11710, -1.98507, -0.46834, -0.47602, 0.28257, -0.36623, 0.18349, -0.24310, 1.10485, -0.27912, 0.02266, 0.82156, -0.79065, 0.19711, 0.71421, -0.12918, -0.31209, 0.49315, 1.51926, 0.76939, 0.01993, -0.45680, 0.62741, 0.96791, 0.20352, 1.53029, 2.00399, -0.04266, 1.34250, -0.46878, -0.33286, -0.23395, -0.43772, -0.24387, 0.17396, -0.36992, -0.70056, 0.30762, -1.38474, 0.46264, 0.98849, 0.07929, -0.99425 
-0.01072, 0.30211, -0.31278, 0.17648, 0.74144, 0.01872, 0.58977, 0.43445, 0.15900, -0.91687, 0.24332, -0.03383, 0.30115, -0.02555, 0.03803, 0.01853, -0.38300, -0.08087, -0.01319, -0.81392, 0.20482, 0.04633, -0.13530, 0.01975, -0.32972, -0.07296, -0.34279, -1.14711, -0.43438, -0.13405, 0.35007, -0.19713, -0.34205, 0.76705, -0.01078, 0.30973, -0.64417, 0.09326, -0.63275, 0.18974, -0.63542, -0.13057, 0.10461, -0.11817, -1.08842, -0.41230, 0.05462, -0.07888, 0.03302, 0.02841, 0.07697, 0.23096, 0.99592, -0.25017, 0.18468, 0.69696, -0.03804, 0.24639, -0.94802, 0.41979, -0.78718, 0.13579, 0.60716, -0.17365, 0.24145, 0.41394, 0.12332, -0.19468, 0.26764, 0.05688, -0.02561, 0.26637, -0.87996, 0.49111, 1.26023, -0.12983, 0.04434, -0.01698, -0.19093, 0.10941, 0.55050, -0.10442, -0.47248, -0.51687, 0.15080, -0.32250, 0.12433, 0.49641, -0.59870, -0.03846, 0.16377, 0.12914, -0.00894, -0.10108, 0.48795, 0.83591, -0.04718, 0.27651, 0.90151, -1.60332 
-1.48375, -0.04513, 0.04495, 0.44200, -1.37912, 0.21779, 0.76859, -0.40021, 0.64568, 0.13136, -0.10911, -0.28097, 0.67128, 0.38761, -0.62972, -0.01117, -0.43092, -0.23383, -0.01874, -0.61719, 0.29910, -0.44507, -0.29999, -0.06216, 0.34424, -0.26143, 0.32966, 0.06037, 0.62597, -0.05225, 0.15209, -0.25625, 0.15257, 0.23792, 0.09060, 0.42840, 0.30025, 1.11029, 0.26558, -1.10529, 0.17140, -0.47436, -0.21461, -0.37256, 0.76797, -0.53928, -0.20683, 0.13769, -0.06861, -0.51145, 1.01460, 0.20719, -0.74369, -0.13436, 0.23193, 0.38342, 1.11377, -0.39720, 0.03815, 0.42653, 0.02912, 0.37155, -0.26097, -0.26951, 0.61634, -0.32468, -0.42343, 0.61740, 0.07679, 0.43531, 0.18812, -0.46857, 0.42635, 0.91726, 1.02070, 0.58527, -0.21835, 0.38101, -0.06447, -0.04260, -0.10029, -2.29837, -1.22202, 0.10740, -0.11303, 0.34856, -0.01375, 0.46092, 0.01948, -0.10936, -0.20245, -0.55926, 0.21582, -0.20166, -0.27741, 0.74266, -4.88346, 0.82791, -0.12856, 0.39450 
-0.13567, -0.54154, 0.03895, -0.53049, -1.80114, 0.16882, -0.55408, 1.18025, -0.97505, -0.45753, -0.38727, 0.17255, 0.08982, -0.25261, -0.16472, -0.06161, -0.16693, 0.46331, -0.30447, 0.05103, -0.07901, -0.51074, 0.25737, -0.08055, -0.36171, 0.00221, -0.55865, -0.27233, -0.40726, -0.94209, 0.06250, -0.02732, -1.03429, 0.24026, 0.21052, 0.51015, -0.30243, -0.10800, 0.17194, -0.54542, -0.23705, -0.28977, 0.08012, -0.93341, -1.43791, -0.22282, -0.22127, 0.01237, -0.16968, -0.40126, -0.25162, -0.06291, -0.29947, 0.98263, 0.24091, 0.12718, -0.29200, -0.49724, -0.01208, -0.40737, -1.06495, 0.71610, 0.62075, 0.27021, -4.92317, 0.05146, 0.04216, 0.21039, -0.94956, -0.64627, 0.16148, 0.08699, 0.43267, -0.03860, 0.14152, -1.01145, -1.85228, -1.33668, -0.12505, 0.18209, -0.81688, 0.16249, 0.45972, 0.06678, -0.00353, -0.78257, -0.12980, 0.84963, -1.33727, -0.18746, -0.16758, -0.19498, -0.05366, -0.45272, 0.58011, 0.06666, -0.47082, -0.73228, 0.17084, -2.10810 
0.01901, 0.02504, -0.16003, -0.00814, 0.07712, -0.00534, 0.03279, 0.08885, -0.13909, -0.21058, -0.09955, -0.07731, 0.06171, 0.13733, -0.16585, 0.08237, -0.09640, -0.07845, -0.01149, -0.04539, 0.03776, -0.05802, -0.14389, -0.09766, -0.02240, 0.05277, 0.09646, -0.09533, -0.03844, 0.01415, 0.12143, -0.16573, 0.00324, -0.09927, -0.01934, -0.09687, 0.05716, 0.12671, 0.05658, -0.10834, -0.12442, 0.05745, -0.02993, 0.09894, 0.09715, -0.15987, -0.00065, 0.05946, 0.11447, -0.03047, -0.08966, -0.06775, -0.16976, -0.19530, -0.12526, -0.11511, -0.00721, -0.11857, -0.18584, -0.07726, 0.06521, -0.03224, -0.19729, 0.01864, -0.00431, -0.14389, -0.10444, -0.07595, -0.15554, 0.08240, -0.16619, -0.07109, -0.11439, -0.16155, -0.13379, -0.03217, -0.13641, -0.00549, -0.01401, -0.08902, -0.12776, 0.03810, 0.07522, 0.01196, 0.02443, -0.06953, 0.09394, 0.09302, -0.18573, 0.01311, -0.20411, -0.10672, -0.13990, 0.03427, -0.07157, -0.02559, -0.07022, -0.07540, 0.03695, 0.00737 
-0.46479, 0.73004, 0.00684, 0.00364, 1.20095, 0.08205, 0.44692, 0.22706, -0.03316, 1.08269, 1.59292, 0.18797, 0.80456, 0.16059, 0.47991, -0.37879, -0.51329, 0.66813, 0.19102, -0.88098, 0.08787, -0.83676, -0.24524, 0.25554, -0.90623, -0.12751, -0.99240, -1.04743, -0.18704, -0.62743, -1.87468, -0.02180, -0.13975, -0.20132, -0.51508, 0.08596, 0.73848, 0.59764, 0.95103, 0.25033, -0.19009, 0.31798, 0.10904, -0.09961, -0.09220, -1.13484, 0.08157, -0.00598, 0.18045, 0.19910, 0.11355, 0.01156, -0.33379, 0.39891, -0.37791, -0.62135, 0.14405, 0.45858, 1.00005, -0.01646, 0.41419, 0.27458, -0.18769, 0.60210, -0.16924, 1.02698, 0.46947, 0.28878, 0.48484, -0.34729, 0.40303, 0.32884, 0.74259, 0.18576, -0.85740, -0.69070, -0.51227, 0.27823, -0.88735, 1.19922, 0.23715, -0.43579, -0.01608, 0.40585, 0.08757, -0.46457, 0.30242, 0.02666, 0.44995, -0.04273, 0.02883, -0.14273, 0.80778, 1.41838, 0.28909, 0.80114, -0.92347, -0.98192, 0.94005, 0.41297 
-0.19755, -0.15624, 0.07655, 0.18018, -0.16621, -0.12253, -0.09082, -0.24166, 0.11271, -0.10735, -0.03874, -0.08126, -0.06105, 0.05661, -0.14395, -0.13492, 0.05467, -0.21604, 0.04522, -0.04265, 0.08458, 0.07937, 0.04919, 0.02677, 0.22029, -0.07062, 0.08316, -0.07400, -0.14102, -0.00486, 0.02335, -0.03351, 0.08128, -0.20330, -0.18576, 0.04873, -0.14993, 0.05892, -0.11655, -0.26804, -0.12489, -0.16862, 0.03460, -0.03563, 0.17247, -0.10714, -0.09229, -0.04410, -0.17544, 0.08676, -0.09167, 0.04514, -0.19469, -0.16820, 0.02734, 0.13249, 0.20583, 0.13166, 0.01817, -0.16258, -0.15439, 0.01529, 0.04368, -0.18929, -0.03699, -0.14539, 0.06633, -0.15121, 0.11091, -0.04564, -0.11003, -0.08556, -0.14215, -0.16556, 0.05007, 0.04904, -0.27291, 0.06721, -0.18539, 0.02373, 0.00648, -0.15234, -0.07332, -0.09822, -0.00543, 0.06558, 0.17739, -0.11020, -0.28227, 0.15216, -0.22800, -0.03315, -0.10657, 0.05614, 0.04646, -0.23100, 0.03631, 0.12380, 0.07531, -0.19144 
0.19674, -1.09065, 0.37437, 0.31621, 0.95205, -0.06933, -1.84227, 0.05012, 0.14887, -0.37541, -0.71778, 0.18141, 0.93378, -0.08857, -2.34922, 0.09063, -0.39052, 0.77306, -0.17432, -0.21305, 0.05970, -1.21621, 0.59956, 1.27218, -0.30143, 0.12518, -0.27457, -0.05937, 1.06455, -0.02066, 0.20564, 0.00895, 0.80236, -0.69293, 0.38978, 0.54900, 0.48179, 0.42325, -0.41649, -0.74089, -0.35885, 0.04445, -0.06178, -0.24610, 1.65538, -0.03352, 0.04846, -0.13881, 0.04144, -0.16166, 0.41558, -0.17539, -0.75841, 0.62799, 0.39236, -0.98782, 1.38967, 0.04756, 0.28330, -0.57125, -0.26992, 0.20845, 0.31408, 1.09398, -0.12519, -0.45889, 0.38226, 0.02074, 0.45544, 0.94054, 0.38619, -0.50655, 0.78869, 0.13190, -0.08062, 0.24457, -0.48857, 0.81097, -1.69630, -0.14821, 0.49805, 0.85407, 0.03830, 0.52892, 0.23928, -0.07930, -0.05212, -0.21588, 0.03967, 0.01774, -0.14338, -0.20037, 0.28449, -0.12570, -0.19778, -0.04995, -2.58678, -0.12170, 0.30374, 0.56447 
2.09394, -0.91878, 0.10057, 0.05191, -0.11714, 0.00499, -0.16924, -4.25445, 0.02885, -0.88096, -0.27237, 0.09637, 0.06008, -0.27625, -0.48891, 0.06261, -9.50233, -0.28448, -0.06084, -0.47906, -0.05606, 0.24977, -0.72667, -0.09662, 0.24996, 0.06063, -0.72614, 0.27569, -0.03515, 0.04812, 0.29030, -0.09908, -0.30956, 0.20257, 0.06019, -0.11261, -0.60743, -0.04801, -0.47643, -0.22737, -0.32710, 0.23515, 0.15183, -0.05218, 0.00007, -3.55052, 0.16162, 0.13278, 0.01853, -0.17014, -0.01573, 0.07508, -7.79726, 0.59901, -0.12082, -1.31605, -0.33203, -0.45657, -0.92238, 0.06931, -0.21711, -0.72488, -0.40321, 0.00086, -1.11245, -0.90190, 0.00479, 0.24871, -0.37239, -0.07248, -0.23543, -0.10867, -0.22385, 0.06610, -0.18003, -0.37620, -6.47024, 0.26869, -0.23730, -0.19848, -0.31303, 0.00809, -4.34218, 0.06846, -0.04923, -0.55750, -0.82850, -2.06323, -0.67632, -0.25021, -0.36240, -0.17819, -3.00787, -0.64019, 0.32541, -0.11569, -1.81392, -0.24928, -0.14814, -1.90860 
-0.05566, -0.43594, -0.42137, 0.19961, 0.25822, 0.04330, -0.29775, -0.67072, -0.68277, 0.14492, 0.18930, 0.12038, 0.86807, 0.61528, -0.67172, 0.11206, -0.60907, 0.36505, 0.12010, -0.55762, 0.35363, -0.27791, -0.11177, -0.15599, -0.55927, -0.21068, 0.46227, -0.34888, -0.15468, -0.18802, -0.50381, -0.21893, 0.32343, -0.04418, -0.28156, -0.17497, -0.90675, 0.40444, -0.33078, -0.06338, 0.05089, 0.01369, 0.12266, -0.28168, -0.16660, 0.11319, -0.03111, 0.18957, 0.01842, 0.00567, 0.42751, 0.03299, -0.21958, -0.08849, -0.02835, -0.26391, -0.16477, -0.31659, -0.70649, 0.03039, -0.13054, -0.54526, 0.72957, -0.13593, 0.35333, 0.19730, -0.07712, -0.29463, 0.15395, 0.50609, 0.73358, -0.18004, -0.31030, -0.47070, -0.17460, -0.19576, -0.34286, -0.24940, -0.31803, -0.50753, 0.17871, -0.12681, -0.44895, 0.18453, 0.05278, 0.20308, 0.06952, -0.31097, -0.13549, 0.20292, -0.19918, -0.27869, 0.00852, -0.30059, -0.32168, 0.15584, -0.15016, -0.34729, 1.08840, 0.54070 
-0.43657, -0.19688, 0.05893, 0.49662, -0.18968, 0.32397, 0.14955, 0.77086, -1.10037, -0.60344, -0.02407, 0.24945, -0.19566, 0.13000, 0.32856, -0.18349, -0.19697, -0.25721, -0.05567, -0.03605, 0.25451, 0.05530, 0.21985, -0.28930, 0.44156, 0.10205, -0.83145, 0.33530, -0.53283, -0.27518, -0.92034, -0.06384, -0.06651, -0.10012, -0.06854, 0.51991, -0.33382, 0.61093, -0.62444, 0.11456, -0.73245, 0.43977, 0.07867, -0.14928, -1.01555, -0.88555, 0.15989, 0.10298, 0.07586, -0.03031, 0.45783, 0.03279, 0.37018, -0.41340, 0.14204, -0.27990, -0.32780, 0.03568, 0.19218, 0.10098, 0.32959, 0.47926, 0.54570, -0.20164, 1.07146, -0.27611, -0.30767, 0.39350, -1.02421, 0.91544, 0.08941, 0.46839, 0.08699, 0.00525, 0.35675, -0.13615, 0.01601, -0.30048, -0.10392, 0.10505, 0.63907, -0.26872, -0.23786, -0.45567, 0.00250, 0.04639, -0.33386, 0.09432, -0.30249, 0.00445, 0.01329, -0.17619, 0.01457, 0.34104, 0.24138, 0.73443, -0.22104, 0.80411, -0.36224, 0.12926 
-0.36283, -0.37730, -0.24495, -0.30167, 1.54462, 0.18141, 0.71935, 0.07496, -0.11061, 0.52706, 1.69332, 0.51582, 0.64364, 0.00644, -0.03516, -0.01463, -0.00575, 2.08926, 0.33244, -0.34525, 0.07389, -1.29977, -1.39793, 0.17500, -0.07265, 0.35685, 0.00815, -1.48245, -0.83361, -0.20655, 0.36154, -0.64775, 0.21715, -0.13123, -0.26675, 1.05886, 1.01306, -0.42060, -0.03184, 0.48280, 0.04509, -0.02501, 0.25374, -0.48995, -0.07934, 0.83346, -0.11260, -0.15514, 0.05371, 0.18136, 0.52484, -0.06791, -0.47639, -0.21576, 0.26061, -1.06554, -0.72020, 0.63285, 0.80991, -0.06334, -1.40006, 0.36074, -0.18787, -0.08572, 1.04639, -0.16118, 0.14947, -0.32761, -0.41758, 0.62520, 0.47198, -0.10417, 0.02165, 0.53015, 0.48159, -1.08690, 0.87319, -0.82251, -1.66480, 0.14891, 0.43090, -0.04094, 0.46666, 0.49464, 0.01375, -0.15716, 0.44488, 0.15202, 0.21573, 0.17086, -0.25305, -0.17077, -0.06288, 1.57063, -0.24062, 0.83358, 0.78645, -0.01646, 1.06842, -0.28160 
0.05777, -0.42404, -0.00216, 0.48597, 0.89029, 0.08950, -1.68820, 0.48227, 0.75344, 1.01276, -0.15694, 0.12503, 0.71101, -0.00890, -2.49586, 0.11230, -0.18039, -0.27038, -0.04076, 0.67199, 0.00578, 0.04898, 0.13285, -0.01363, -0.11859, 0.23629, -0.86356, -0.13522, 1.26010, 0.08843, -0.08960, -0.18475, 0.81513, 0.17251, -0.11951, 0.55894, 1.10252, 0.53266, -0.45759, 0.03514, -0.29636, 0.08396, 0.04131, 0.08749, 1.61283, -0.59593, 0.28247, -0.04374, 0.25243, 0.03688, -0.57230, -0.04029, -1.38231, -0.40730, 0.20451, -0.19817, 1.71571, 0.15233, 0.02094, 0.28114, 0.12366, 0.11200, 0.34838, 0.47973, 0.17715, -0.84078, 0.08629, -0.36607, -0.59733, 0.12682, 0.20076, -1.11613, 0.46340, 0.53938, 0.50993, -0.18327, -0.67672, -0.32706, 0.05242, -0.85545, 0.32025, -0.03591, 0.20080, 0.39991, 0.11542, -1.04508, -0.57024, 0.61616, 0.11401, 0.60665, -0.32774, -0.30200, -0.19393, -1.33436, 0.20799, -0.04056, -1.15193, -0.86539, -0.15709, 0.20144 
-0.08269, -0.26974, -0.18452, -0.31924, -0.22540, -0.21413, -0.35744, -0.17407, -0.33336, -0.04594, -0.20856, -0.13625, -0.14823, -0.70338, -0.12945, -0.36124, 0.15233, -0.24038, 0.12337, 0.04222, 0.25621, -0.12490, 0.19559, -0.40123, -0.16957, -0.05162, -0.34952, -0.02165, 0.00444, -0.22112, -0.23752, -0.25294, 0.10865, -0.36376, -0.02281, -0.17747, -0.24074, -0.08885, -0.18013, -0.03819, -0.11166, 0.03372, -0.49554, -0.34846, -0.19459, -0.42588, -0.08182, -0.08489, -0.02229, 0.13427, -0.40369, -0.00517, -0.32100, -0.05610, 0.00546, -0.22931, -0.10230, -0.12894, -0.10986, -0.25237, 0.09266, -0.16666, 0.02454, 0.10935, -0.26705, 0.08103, -0.07902, -0.36431, 0.01318, -0.15576, -0.27620, 0.31170, 0.05085, 0.24770, -0.51114, -0.38142, -0.17416, -0.18888, -0.14456, -0.13473, 0.07588, -0.22412, -0.43284, -0.01833, -0.29051, -0.14539, -0.31108, -0.14448, 0.20756, 0.25396, 0.03838, -0.17073, 0.13572, 0.12251, -0.20452, -0.41740, -0.03801, -0.08485, 0.00104, 0.05809 
-0.53925, -2.25793, -0.06972, 0.09517, -0.52627, -0.64369, -0.96985, -2.71330, -0.44919, 0.13736, -2.15355, -0.15753, -0.91907, -0.70859, -1.05815, -0.24617, 0.09992, 0.52235, -0.11039, 0.43949, 0.59641, -1.34851, 1.01823, -0.97205, 0.56183, -0.16382, 0.32650, 1.08935, 0.49158, -0.10326, -2.86766, -0.08485, 0.85277, -1.27609, -1.15177, -1.10357, -1.20989, 0.62032, -0.15124, 0.21923, 0.08124, 0.30516, 0.07701, 0.11361, 0.97799, -0.48781, -0.15645, -0.09388, -0.00820, 0.09590, 0.07786, -0.13630, -0.72084, -0.31922, -0.30322, -0.58282, 0.34655, 1.03911, -0.53236, -0.00423, -0.51835, -2.17645, 0.55563, 0.58137, -0.71608, 1.19359, -0.53714, -1.04485, 0.48375, -0.53243, 0.20182, 0.84924, -0.43849, -1.11977, -4.14704, 0.84382, 0.12120, 1.37684, -3.11803, -0.08871, 1.06305, -0.69511, -0.59871, 0.47222, 0.06780, 0.15902, -0.82348, -1.20282, 0.16456, -0.04527, -0.02339, -0.97165, 2.37319, -0.18493, -3.41811, 0.41442, -0.06598, 0.15275, 0.18086, 0.31978 
0.07699, 0.07131, 0.09570, 0.34024, -0.74243, 0.68539, 1.18261, 0.14915, 0.62234, 0.13078, -1.15874, -0.07248, -0.44753, 0.24427, 0.53983, 0.15119, -0.15220, 0.02514, 0.03234, 0.09625, 0.37585, -0.38393, -0.71687, -0.33885, 0.91619, 0.17957, 2.12894, 0.57527, 0.10213, 0.10718, -0.29625, -0.03857, 0.30438, 0.09130, 0.29248, 0.16577, -0.03538, 0.63059, 1.05405, -0.13161, -0.49007, 0.45069, -0.04578, 0.78935, 0.36936, 0.13020, -0.07261, 0.18277, 0.40778, 0.12008, 0.77378, 0.22373, -0.79453, 0.27041, 0.20256, 0.27170, 0.66694, -1.49705, 1.23488, 0.41548, -0.10849, 0.78108, 0.98243, -1.18445, 0.23693, 1.64135, -0.73365, 0.45904, 0.70878, -0.14762, 0.59112, -0.37611, 0.32611, -0.21223, -0.18662, 1.27974, -0.18001, 0.39448, 0.05129, 0.50602, 0.75246, -2.95539, -0.06736, 0.70767, -0.00722, 1.13573, -0.53551, -0.04493, -0.00171, 0.42332, 0.28566, -0.33365, -0.13905, 0.41448, 0.17242, 1.86034, -1.45755, 0.52158, -0.73380, 0.08865 
-0.03408, -0.49005, 0.05238, -0.01607, -0.19342, -0.25855, -0.11485, 0.13197, 0.06523, -0.09180, 0.04618, -0.20188, -0.00311, 0.01697, -0.35995, 0.10662, 0.02243, 0.00302, 0.00856, -0.25883, 0.02221, -0.29084, -0.12861, 0.01429, -0.24124, 0.07215, 0.00454, -0.18898, -0.05503, -0.02865, 0.00752, -0.44814, 0.17570, -0.37609, -0.08621, -0.11550, -0.30971, -0.02667, -0.23057, -0.15780, -0.14641, -0.02091, -0.03191, -0.19135, -0.05097, 0.04033, -0.23221, -0.03298, -0.05813, -0.20894, -0.14193, 0.13799, -0.01601, 0.11993, -0.03968, -0.03910, -0.18750, -0.04326, 0.07588, 0.02910, -0.02284, -0.06338, -0.07496, 0.11899, 0.09127, -0.10656, -0.13782, -0.38429, 0.08422, 0.05746, -0.04820, -0.18620, 0.14048, -0.28342, -0.33343, -0.14321, -0.16675, -0.01441, -0.27485, -0.02498, -0.15288, 0.08570, -0.14216, 0.09852, 0.10181, -0.28675, -0.13580, 0.01684, -0.10486, 0.16264, -0.12948, -0.08443, 0.03411, -0.14123, -0.13766, -0.22554, 0.04672, 0.17140, -0.15539, -0.05129 
-0.01069, 0.13000, -0.45102, 0.30176, 0.71065, -1.16741, 0.18795, -0.75791, -0.87170, 0.19719, -1.78489, -0.19017, 0.12071, 0.50373, 0.19234, 0.08890, 0.37251, -0.16984, -0.04972, 0.52691, -0.11442, -0.49936, -0.39278, 0.04994, 0.09110, 0.28209, 0.37091, 0.36885, 0.80111, 0.17402, 0.39649, -0.08580, 1.29593, 0.52161, 0.53321, -0.80583, 0.13281, -0.79932, -0.05850, 0.80343, -0.33638, -0.17003, 0.05906, -0.38393, 0.71904, -1.87389, 0.12786, 0.41226, -0.35997, 0.10700, -0.02749, 0.03814, -0.20524, -0.11054, -0.09207, -1.09880, 0.62445, -0.23222, 0.25027, -0.20359, 0.18744, 0.30377, 0.43927, -0.40702, 0.75290, 0.12056, -0.00976, 0.08074, -0.58811, 0.77490, -0.12594, -0.86980, 0.63507, 0.36634, 0.10261, -0.64945, 0.43448, -0.17527, 0.31582, 0.71345, 0.33338, 0.05113, -0.32032, 0.66583, 0.15397, 0.06283, -0.56939, -0.23676, 0.00389, 0.16486, 0.05117, 0.84537, 0.07668, 0.57357, 0.35404, 1.03925, 0.65155, -0.89082, -0.37014, -0.07348 
0.04252, 0.10614, -0.09001, -0.11192, 0.33772, -0.16734, -0.26671, 0.05530, 0.37316, 0.72531, 0.08298, -0.11379, 0.09950, -0.22502, -0.64767, -0.13708, -0.09950, 0.27900, 0.04154, 0.28047, 0.07141, 0.18826, -0.05130, -0.17708, 0.13951, 0.08619, -0.07855, -0.24864, -0.09070, 0.25555, 0.18333, -0.20585, -0.37389, 0.65392, -0.06048, 0.34244, 0.22679, 0.25232, -0.69113, 0.08693, 0.08385, 0.06975, -0.15015, 0.01424, -0.10965, 0.05684, 0.15493, -0.01334, -0.07042, -0.00763, -0.04309, -0.02012, -0.25650, -0.25875, 0.12965, 0.83686, -0.40235, 0.10555, -0.01941, 0.10556, -0.37624, -0.03172, -0.23645, -0.05502, -0.23246, -0.31580, 0.08426, -0.78270, 0.64390, -0.25440, -0.40218, 0.42734, -0.42261, 0.08222, -0.06398, -0.44330, -0.54523, -0.13162, 0.06182, 0.04757, 0.25835, -0.06088, 0.13039, -0.21055, -0.05322, -0.33405, -0.09420, 0.89123, -0.20141, 0.06118, 0.62213, -0.27675, -0.00002, 0.05329, 0.19587, 0.31444, -0.18845, -0.11831, 0.53064, -0.19790 
-0.01075, -0.37046, -0.24143, 0.07265, 0.04938, -0.15149, -0.10348, -0.07753, -0.10043, -0.33539, -0.22120, -0.08522, 0.23418, 0.00724, -0.17944, 0.32466, -0.28487, 0.06246, 0.07391, -0.02777, -0.04578, -0.13737, -0.13793, -0.20594, -0.23499, 0.20736, -0.03607, -0.17785, 0.05351, -0.25185, 0.14071, -0.06448, -0.03616, -0.27968, -0.24367, -0.19079, 0.02772, 0.01936, -0.16309, -0.17390, -0.22204, 0.30033, 0.11874, -0.04867, 0.03339, -0.22492, 0.13452, 0.07675, 0.20303, -0.20825, -0.01292, 0.21509, -0.08954, -0.15379, -0.14010, -0.45554, 0.15081, 0.35207, 0.17177, 0.11217, -0.45932, 0.05279, 0.25523, 0.08730, -0.12084, -0.01943, -0.10044, -0.08561, -0.08997, -0.03017, -0.03000, -0.00574, 0.00674, -0.36386, -0.04434, -0.15867, -0.01039, -0.05614, -0.15236, -0.26293, 0.11991, -0.03076, -0.08008, 0.01734, 0.09574, -0.05322, -0.01566, 0.08010, -0.31968, 0.15316, 0.05265, -0.19047, -0.16293, 0.19161, 0.17920, -0.28814, -0.02725, -0.10533, -0.23910, -0.09314 
2.54208, -1.78211, -0.39348, 0.11462, 0.49183, -1.06753, 0.10718, 0.00788, 0.46750, -0.94821, -0.48396, 0.30393, -0.47523, 0.09817, 0.19359, -0.01227, -2.20547, -1.01357, -0.00818, -2.84106, -0.42676, -1.28849, -0.33495, 0.20200, -0.21553, 0.03196, 0.05294, 0.63330, 0.62806, -1.10528, -0.09621, -0.26984, 0.76643, -0.04279, -1.99676, -1.35661, -0.25770, -0.14335, 0.36817, -0.75093, -2.01180, -0.30323, 0.18535, -0.76058, 0.74945, -1.31359, -0.22858, -0.19163, -0.29495, -0.30879, 0.91751, -0.12572, -0.49725, -0.99288, -0.40165, -0.42817, 0.85448, -0.20494, 0.17813, -0.58718, -0.09024, 0.01473, 0.30767, 0.70313, 0.08971, 0.49891, -0.64407, -0.07156, 0.01098, 0.13815, 0.28264, -0.58518, -0.40171, -0.14098, 0.33815, 0.42450, -0.07655, 0.86866, -3.12740, -1.70196, 0.61129, 0.00028, -3.91623, -0.11702, -0.10783, 0.53144, 1.11819, 0.30109, -0.26928, 0.29683, -0.03944, -0.00605, -0.21474, -1.78545, -0.27173, 0.55339, -1.58218, 0.44427, -0.29614, -0.30560 
0.18282, 0.07552, -0.09739, 0.04454, 0.35879, 0.35909, -0.47555, -1.14100, -0.54088, 0.20711, -1.60007, -0.06375, 0.44815, 0.31447, 0.47454, 0.01560, -0.40266, 0.24383, 0.32030, -0.03455, 0.07483, 0.21828, -0.46421, -0.31566, 0.07997, 0.18849, -0.84884, -0.19814, -0.33446, 0.15968, 0.29670, -0.17378, 0.07633, -0.50785, 0.55805, 0.71534, -0.45660, 0.00118, 0.26926, -0.01240, 0.47195, -0.29745, -0.02115, 0.15725, 0.18127, 1.24818, -0.08715, 0.18917, 0.13246, -0.14922, -0.81625, 0.27006, -0.33498, -1.69364, -0.13005, 0.35269, -0.14424, -0.08253, -0.57871, -0.38030, -0.13523, -0.71131, 0.27655, 0.13613, -0.09609, -1.14260, -0.01451, -0.46506, -1.26307, -0.69184, 0.18203, -0.34808, -0.48919, 0.34221, -0.77414, -0.23585, 0.30969, -0.36393, -0.13120, 0.75949, -0.20051, 0.02363, -0.42770, -0.16280, 0.17434, -0.92072, -0.23149, 0.38423, -0.32016, 0.42328, -0.31888, 0.44940, -0.06296, -3.38062, -0.28804, 0.45426, 0.28914, 0.32193, -1.08519, -0.18259 
-0.00340, -0.19075, -0.05292, -0.05741, -0.05913, -0.20148, 0.13661, 0.03429, -0.00102, -0.07214, -0.46892, 0.14117, 0.11030, 0.06376, -0.02903, -0.10754, -0.25537, -0.33687, -0.14755, 0.06290, 0.03960, 0.09824, -0.30482, -0.34623, -0.20294, 0.19230, -0.16207, -0.37317, 0.00947, -0.22577, -0.18759, -0.04136, 0.00198, -0.05415, -0.01902, -0.19415, -0.22215, -0.08238, -0.32967, 0.02976, -0.13937, -0.09468, 0.02523, -0.02633, -0.24312, -0.01473, -0.11614, 0.16123, -0.03000, 0.06792, -0.03335, -0.04761, -0.12089, 0.13627, -0.14074, -0.28736, 0.00210, -0.27636, -0.34574, 0.09710, -0.13937, -0.08576, 0.19586, -0.18575, -0.50615, 0.02594, 0.06400, -0.16240, -0.00342, 0.03322, 0.06463, -0.03464, -0.06369, -0.07913, -0.03548, 0.00848, 0.05455, -0.07664, -0.09717, 0.05499, -0.18458, -0.27137, 0.00889, -0.10762, -0.08243, -0.27672, 0.02861, -0.25506, -0.11118, -0.22778, -0.10027, -0.27013, -0.21229, -0.21233, -0.13626, -0.05722, -0.17055, 0.16969, -0.10071, 0.00012 
0.15707, -0.38299, 0.00100, 0.31039, 0.32554, 0.28095, 0.56996, 0.23359, 0.09995, 0.59171, 0.31318, 0.01286, 1.72538, 0.62697, 0.28483, 0.16879, 0.17946, 0.81476, 0.18245, -0.56154, 0.23215, -0.83206, 0.97420, 0.28085, 0.83645, 0.28334, 2.97306, 0.76652, 0.94093, 0.07891, 0.82497, -0.01966, 0.90220, -0.90558, -1.20952, 0.58932, -0.32320, 1.36198, -0.00735, -0.02628, 0.08254, -0.13506, 0.22961, -0.72725, 0.30651, 1.05505, 0.01646, 0.14840, 0.12404, -0.01411, 1.57091, 0.08485, -0.97699, 1.18764, -0.37494, -1.26227, 0.37529, 0.33210, 1.01010, 1.15914, 0.60949, 0.62532, 1.46849, 0.07260, 0.26595, 1.53884, -0.49537, 0.24850, 1.63363, 2.00470, 0.78289, 1.63010, 0.31817, 0.43905, -0.28150, 1.72198, -0.24814, 2.23370, -1.65469, 0.18676, 0.71221, -0.05463, 0.73751, 0.55969, -0.08182, 2.24777, 0.01564, 0.06751, 0.41967, 0.70698, 0.22254, 0.40076, 0.27531, 2.19288, -0.13790, 0.42699, 0.63624, 0.49539, 0.71138, 0.83762 
-0.01571, -0.13050, 0.00949, -0.10936, -1.43208, 0.13784, -0.44911, 0.05545, 0.05581, -0.76938, -0.65818, -0.18279, 0.53806, -0.12298, -0.42053, -0.03161, -0.32092, 0.06165, 0.00098, -0.40359, -0.20703, -0.03617, 0.03447, -0.74457, -0.90662, 0.13434, -0.50176, 0.39269, -0.16212, 0.22799, -0.15631, -0.08007, -0.02114, -0.25129, 0.11778, 0.98495, -1.43754, -0.38853, -1.16409, -0.26054, -0.54017, -0.26556, 0.14239, -0.35159, -0.77247, 0.14053, -0.15601, -0.07430, -0.09725, -0.05606, 0.39000, 0.25914, -0.56921, 0.00749, 0.06228, 1.45486, 0.24808, 0.33403, -2.14409, 0.09621, -0.85116, -0.02415, -0.11176, -0.15785, -0.26483, -0.16787, 0.14968, 0.11592, -0.25560, -1.12920, -0.42765, 0.88847, 0.06542, 0.15540, 0.02426, -0.44635, 0.22570, -0.12195, 0.15976, 0.16095, 0.94240, -0.04688, -0.41233, -0.41174, 0.09913, 0.33943, -0.12543, 0.62979, 0.72131, -0.59472, -0.99821, -0.70219, 0.10413, -1.06092, -0.39349, 0.65630, -0.99333, -1.07167, 0.10332, -0.51974 
-0.12224, -0.94138, 0.27125, -0.47066, -0.68491, -0.45122, 0.33368, -0.02304, -0.62630, -0.21264, -0.11608, -0.08589, -0.19662, -0.15515, -0.67439, -0.07323, -0.41211, -0.31563, 0.33938, -0.60238, 0.21978, -0.33934, -0.62901, -0.40629, 0.05764, 0.03874, -0.25458, -0.25697, -0.58194, -0.04055, -0.67209, -0.06350, -0.39358, 0.03062, 0.02070, -0.40559, -0.12862, 0.15305, -0.09825, -0.42921, -1.25391, -0.19989, 0.00468, 0.34651, -0.85031, 0.21050, 0.00018, -0.19060, -0.08488, -0.14918, -0.24412, -0.08731, -0.08175, -0.48131, -0.29587, -0.41401, -1.02752, -0.41308, 0.35614, -0.16528, -1.00570, -0.07509, -0.20906, -0.25566, -0.24084, -0.09874, 0.03480, 0.25518, -0.17932, -0.44590, -0.22715, -1.83958, -0.28787, -0.46455, -0.33503, -0.31552, -0.50692, -0.12759, 0.04841, -0.76591, -0.31007, 0.09055, 0.14774, -0.47275, 0.05436, -0.53832, -0.04947, 0.28684, -0.79734, -0.31482, 0.31926, -0.16075, -0.68126, -0.69122, 0.15816, -0.77535, -1.04334, -0.05491, -0.65250, 0.02574 
-0.06930, -0.47467, -0.01419, -0.27235, 0.55718, -0.13693, -0.23146, -0.35553, 1.10056, -0.26741, 0.56961, 0.20709, 1.37574, -0.07096, -0.18281, 0.01731, -0.46622, -0.23167, 0.10605, -0.24935, -0.00245, 0.25509, -0.01700, -0.55839, -1.07712, 0.03785, -0.12058, -0.48414, -0.41011, -0.22568, -0.22602, 0.08601, -0.10579, 0.33039, -1.01002, 0.50475, -0.27941, 1.00253, 0.27672, -0.09971, 0.18584, 0.09068, 0.13138, 0.11477, -1.18066, -0.53535, 0.17689, 0.17481, 0.39626, 0.08802, 1.51680, 0.04253, 0.11477, 0.00789, 0.12873, 0.26954, -0.55158, -0.04658, -0.85393, -0.17097, -0.78577, 0.57892, 1.80034, -0.01194, -0.01123, 0.44416, 0.03007, -0.22066, 0.09473, 0.76609, 0.19061, 1.28925, 0.74461, 0.08122, -0.08387, -0.66630, -0.49822, -0.21654, -0.13418, 0.49668, 0.50084, 0.32509, 0.09033, 1.03982, 0.10903, -0.84000, 0.01938, -0.52969, -0.67463, -0.06878, 0.43777, -0.59713, -0.09485, -0.21943, -0.20991, 0.39537, -1.44895, -0.84449, 0.55975, -1.11899 
-0.88748, -5.57651, -0.13161, -0.64373, -0.36560, -0.56319, -3.63064, -0.00321, 0.22344, 1.58907, -2.20030, 0.22505, -1.77960, -1.13035, -2.91684, -0.38101, 0.64357, -2.72935, -0.18059, 0.51442, -0.17567, -2.75397, -2.59696, -2.17019, 0.32763, -0.25965, 2.16660, 1.92551, 0.58795, -0.94308, -0.36749, -0.09085, 0.96922, 0.10871, -3.78466, -1.67802, -0.76875, 0.96746, -0.16234, -0.49293, 1.05523, -0.18012, -0.23491, -2.24495, 0.79938, -1.69769, 0.05565, 0.00512, -0.14594, 0.04934, -0.92220, 0.28799, 0.01159, 0.59956, -1.84050, 0.80064, 0.55355, -0.64129, 0.06318, -2.74899, 0.79106, -0.57579, 1.32602, 0.81713, -0.18238, 0.46904, 0.43596, 0.75764, 0.85045, -1.69520, -0.43706, -0.00322, 0.08162, -0.03013, -1.46809, 1.69002, -2.14036, 1.20098, -7.99960, -0.74402, -1.92921, -0.60941, -0.98090, 0.71424, 0.13788, 1.48256, -2.78435, -2.05910, 1.33693, -0.16956, -0.26747, 0.47179, -1.11213, -0.43882, 0.04456, 0.01151, -1.67633, 0.00248, -1.49901, -1.00482 
-0.03831, 0.29379, -0.37743, 0.00230, 0.31589, -0.17657, -0.83260, -0.44119, -0.71583, 0.34339, 0.28850, 0.11575, 0.42023, 0.45486, 0.56030, -0.41080, -0.95642, -0.76188, 0.00393, 1.41662, 0.45170, -0.31443, 0.81056, 0.00327, -0.29625, 0.13421, -1.36117, -0.09921, 0.59173, -0.41289, 1.23959, 0.07012, -0.44386, -0.39358, -0.03240, -0.90004, -0.08448, 0.10705, -0.11742, -0.51198, 0.22930, 0.17593, -0.14043, 0.03006, 0.21464, 0.16733, -0.01004, 0.03857, 0.49526, 0.38341, 0.76108, 0.21983, -0.50454, 1.14347, -0.23675, -0.38585, 0.20570, -0.31619, -0.15753, 0.38499, 0.04236, 0.46601, 0.34561, -0.24530, 0.61726, 0.21337, -0.47402, -0.09483, -1.37375, -0.16016, -0.37182, -0.06071, 0.81924, -0.42681, 0.68137, -1.28203, 0.53388, -0.03753, 0.28772, -0.17216, 0.67685, 0.22746, -0.24697, -0.52912, -0.10615, -1.10319, -0.21360, -0.57567, 0.85305, 0.11549, -0.62131, 0.33433, 0.17151, 0.08402, 1.07922, -0.54078, -0.08878, 0.28528, 0.38975, -0.53525 
-0.04101, 0.00345, 0.14226, 0.07408, -0.07402, -0.19821, -0.21004, 0.08452, -0.58068, 0.36340, 0.22287, -0.03859, -0.01698, -0.97946, -0.18935, 0.00198, 0.31922, -0.19334, -0.26498, -0.69880, -0.14183, 0.15094, 0.30838, -0.10145, -0.21673, -0.03972, -0.06983, -0.03404, 0.27522, 0.11483, -0.18408, -0.13933, -0.77046, -0.13929, -0.08337, -0.33437, 0.09264, -0.72527, -0.35698, -0.12204, 0.13587, -0.14392, 0.05626, -0.02534, 0.38653, 0.30392, 0.02714, -0.33939, -0.19161, -0.00816, -0.78999, -0.07045, 1.26245, 0.02359, 0.00439, -0.92251, -0.42531, -0.06868, -0.80791, -0.27231, -0.28950, -0.67414, -1.49333, 0.12610, 0.10551, -0.02564, 0.09497, -0.04545, -0.49711, -1.01112, -0.96855, 0.79364, 0.12938, -0.16674, 0.24472, -0.16558, 0.23180, 0.22100, -0.05757, -0.32868, 0.11935, -0.03267, -0.00277, -0.19929, 0.11881, -1.06767, 0.01325, 0.30402, -0.61111, -0.06350, -0.10285, -0.58008, 0.01948, 0.02528, 0.38060, -0.63747, 0.40981, -0.50489, -0.44915, 0.32026 
0.00723, 0.16309, 0.14016, -0.20925, -0.08142, -0.46841, -0.13158, 0.23983, -0.28036, 1.53818, 0.02327, 0.20307, -1.79068, 0.27047, 1.26515, 0.11017, 0.06556, 0.49126, -0.06681, 0.28510, 0.24729, -0.27756, -0.46195, 0.38413, -0.73805, -0.01017, -0.50437, 0.11720, 0.91213, -0.24032, 0.45491, 0.00765, 0.17051, 0.07514, 0.10695, -0.03274, 0.83710, -1.06383, 1.53509, 0.23063, 0.59529, -0.01530, 0.05450, -0.01051, 0.87158, -0.96267, 0.17718, 0.01792, 0.12400, -0.17529, -0.83735, -0.04276, 0.10208, -0.44496, -0.09798, 0.13705, 0.21675, 0.31290, 1.79521, 0.24110, 1.33119, -0.31321, 0.35130, 0.30167, -0.27521, -1.89654, -0.13046, 0.34257, -0.80299, 0.21981, -0.02698, -0.70114, 0.93573, -0.21544, 0.27270, -0.87458, -0.05242, 0.03262, 0.17119, -0.46112, -2.26938, 0.04706, -0.71363, -1.15087, 0.09080, -1.01440, -0.29043, 0.57106, 0.70729, 0.11920, 0.34952, -0.01693, 0.14623, -0.51084, -0.60542, -0.12106, -0.52398, -0.64502, 0.00507, 0.02249 
-0.47840, -0.77512, -0.01068, -0.31677, -0.71499, -0.49355, -0.25150, -0.59780, -0.08968, 0.08133, 0.21030, -0.67742, -0.12247, -0.19315, -0.91671, 0.00602, 0.25398, -0.27618, 0.09435, -0.12621, 0.10987, -0.55985, -0.21962, 0.05792, -0.66035, -0.28210, -0.40290, 0.06142, -0.03502, -0.15681, -0.98452, 0.02917, -0.56493, -0.41838, -0.27071, -0.29505, 0.13779, -0.60924, -0.40288, -0.28799, -0.23203, -0.03953, 0.02044, 0.03099, -0.78690, -0.18997, -0.03822, 0.16560, -0.43574, -0.20179, -0.05621, -0.07848, -0.09873, -0.19987, -0.18065, -0.36265, -0.31187, -0.10209, -0.18816, -0.76047, -0.70636, -1.03628, -0.13670, -0.17359, -0.13157, 0.15486, -0.55895, -0.39392, -0.27564, -0.43473, -0.07909, -0.47540, -0.53155, -1.04783, -0.59847, -0.62384, -0.27269, -0.26304, -0.32240, -0.12840, -0.32016, -0.50057, -0.53204, -0.28828, -0.18055, -0.01018, -0.36897, -0.29770, -0.90672, -0.02499, -0.07939, -0.05271, -0.02557, -0.44837, -0.32802, -0.25672, 0.06795, -0.35096, -0.82610, -0.77047 
0.43053, 0.35489, 0.15168, 0.09087, 1.26655, -0.17462, 1.06774, 0.68296, 0.52379, 1.11386, 1.47496, -0.17933, 0.36190, 0.39467, 0.97370, -0.11046, 0.38287, -0.09450, 0.04234, -0.63818, 0.14638, 0.01886, 0.72752, -0.29831, -0.24066, 0.24661, -0.35411, 0.18180, 0.53953, -0.12408, 0.21246, -0.62087, -0.05858, -1.05936, -0.22486, -0.18615, 0.87526, -0.85971, 0.68475, 1.36160, 0.11709, 0.03542, 0.17393, 0.49992, -0.06470, 0.54631, 0.07517, 0.00241, 0.23595, -0.17388, 0.65677, 0.05629, -0.20065, -0.01022, -1.35734, -1.44302, 0.77667, 0.55220, 0.19147, 0.64022, 0.21307, 0.54005, 0.01550, 0.07825, 0.16266, -0.18014, 0.01054, -0.22879, -0.59573, -0.15720, -0.05212, 1.19617, 1.26744, 0.26656, -0.72540, -0.40251, -0.39765, 0.42294, -0.11824, 0.31701, 1.13404, 0.05674, -1.64618, 0.58837, 0.05957, -0.61468, -0.83946, 0.62159, -0.11054, 0.27820, 0.48947, 0.63352, -3.45493, 1.03128, -0.23860, 0.54498, 1.75185, -0.82246, -0.08688, 1.82486 
-0.33454, -1.38406, -0.05606, -0.46741, -0.23997, -0.28782, -1.71150, -0.42873, -0.01828, -0.27500, 0.11455, 0.15248, 1.21367, 0.39155, -0.94628, 0.12372, 0.13629, -0.96273, 0.12822, -0.13973, -0.12363, -0.81711, 0.21212, -0.69072, 0.08399, 0.13857, -0.38018, 0.02397, 0.80933, -0.01722, -0.24656, -0.38191, 0.46272, -0.38112, -0.52946, -0.39215, -0.12089, 0.98957, -0.34286, -0.19612, -0.56151, -0.04571, -0.05629, 0.04853, 0.53566, -0.77496, -0.07941, -0.04515, 0.48178, -0.20265, -0.38099, 0.25886, -0.33161, -0.31026, -0.44270, 0.00517, 1.00780, 0.22128, -0.02387, 0.16878, -0.06413, -0.29374, 0.25123, 0.59731, 0.22725, 0.25204, 0.08560, -0.29620, 0.69280, 0.46364, -0.03339, -0.38537, -0.14842, -0.10790, -0.32188, 0.18649, -0.42934, 0.20713, -1.22518, -0.61005, 0.84011, 0.60813, -0.09593, 0.33068, -0.05818, 0.24730, -0.10293, -0.52736, 0.37597, 0.38538, -0.52896, -0.22625, 0.30661, -0.03471, 0.16003, 0.17826, -1.08644, 0.53988, 0.08162, -0.20754 
-0.09808, -0.35834, -0.10169, 0.00431, -0.92048, 0.02295, 0.37309, -0.33686, 0.30453, 0.59983, -0.35333, -0.04793, -0.87560, 0.11609, -1.11005, 0.15738, -0.84833, -0.14128, 0.27592, 0.38536, -0.03661, -0.60180, -0.00535, 0.59690, 0.85855, 0.11953, 1.18100, 0.65713, 0.17757, -0.15418, 0.21630, -0.04532, 0.34370, 0.19178, 0.39522, 0.53545, -0.41299, 0.09632, -0.37503, -0.13625, -0.38998, 0.22064, 0.03471, 0.25210, -0.03982, 0.14253, 0.20116, -0.05124, 0.09778, 0.31733, 0.27312, -0.04633, -0.30345, -0.40135, -0.00793, 0.12404, -0.06424, -0.41038, 0.14694, 0.24798, 0.44223, -0.16257, 1.38293, -0.79015, -0.21273, 0.90331, -1.17328, -0.94664, 1.07133, 0.12492, 0.67921, 0.02351, -0.03886, 0.43881, 0.34022, 0.78013, 0.44498, 0.77180, 0.03698, 0.24580, 0.44513, -3.42300, -0.61394, 0.55925, 0.15086, 1.33435, -0.97285, 1.10833, 0.11703, -0.10243, 0.15649, 0.03300, 0.04267, -1.07122, 0.01205, 2.21038, -0.09456, 0.24083, -0.89335, 1.18789 
-0.07780, -0.18839, -0.11513, -0.11915, -0.00166, 0.09339, -0.16726, -0.17016, 0.02803, -0.13094, 0.06028, 0.01247, 0.05856, -0.05241, 0.04506, 0.09214, -0.06994, 0.03278, -0.09675, -0.04346, -0.08880, 0.02366, -0.18084, -0.16695, 0.10001, -0.16431, -0.16412, -0.16837, -0.08686, -0.22191, 0.04233, 0.11453, -0.16218, 0.03286, -0.20002, -0.27824, -0.05612, -0.14146, -0.26992, -0.07347, -0.16255, 0.00584, 0.01468, 0.07264, -0.00681, -0.09578, -0.05987, 0.01036, -0.12746, -0.08392, -0.20552, -0.10565, -0.09093, -0.04285, -0.26675, -0.12554, -0.17042, -0.01012, -0.00553, -0.14158, -0.15285, -0.08414, 0.05940, -0.15633, -0.06410, -0.01930, -0.18059, -0.03406, 0.08261, -0.14088, -0.17798, -0.05900, 0.07234, -0.02050, 0.09524, -0.01330, -0.17675, -0.23332, -0.01019, -0.16886, -0.17001, 0.11774, 0.13510, -0.15389, 0.03232, -0.16026, -0.23286, -0.17130, -0.06696, -0.10456, -0.09844, -0.06248, -0.12622, 0.07115, -0.24856, 0.06058, -0.25489, 0.06047, -0.06011, -0.10640 
-0.26342, -0.13897, 0.15986, -0.51963, -0.15523, -0.15641, -0.26833, -0.77566, 0.21644, -0.39309, 0.03120, -0.07587, 0.11272, 0.17001, -0.32698, -0.02135, -0.19913, -0.10086, 0.19457, -0.02297, -0.02203, -0.28726, -0.18215, -0.20775, -0.29437, 0.11699, -0.16235, -0.34120, -0.29893, -0.06067, -0.14011, 0.15692, 0.03929, -0.34624, -0.03067, -0.26521, -0.30389, 0.03586, -0.37125, -0.15065, 0.06512, -0.04008, 0.18085, -0.24748, -0.07427, 0.23541, -0.03592, -0.03803, 0.18168, 0.02673, -0.07359, 0.04140, 0.08062, -0.29267, -0.05007, -0.31584, -0.07681, -0.11234, -0.19873, -0.31423, -0.15236, -0.12980, -0.18761, 0.25730, 0.00201, 0.11223, -0.21851, -0.28275, -0.03159, -0.07458, 0.12731, -0.14446, -0.23968, -0.58322, -0.27575, -0.21202, 0.07447, -0.46342, -0.07299, 0.13268, -0.03959, -0.28977, -0.20683, 0.13733, -0.03934, -0.35539, -0.18515, 0.04724, -0.65726, -0.26300, -0.36971, -0.34513, -0.40792, 0.00686, -0.24938, -0.04570, -0.40879, -0.02653, -0.20901, -0.37805 
0.09724, -0.92661, 0.03933, 0.38607, 0.07398, -0.07900, 0.55138, 0.05683, -0.01991, 0.29001, -0.34817, 0.50079, 1.59517, 0.66796, 0.87268, 0.11881, 0.29452, 0.42158, -0.11976, -0.88287, 0.06655, -0.82100, 0.57877, 0.40512, 0.73775, 0.05335, 2.02395, 0.41463, 0.69935, 0.34124, 1.02541, -0.18043, 0.36858, -0.49889, -0.81754, 0.30281, -0.38815, 1.06928, 0.28457, 0.09472, -0.15266, 0.06740, 0.32920, -0.46706, -0.44906, 0.92009, 0.07447, -0.03061, 0.27044, 0.09888, 1.68179, 0.13704, -1.05109, 0.43139, -0.24994, -1.07853, 0.39706, 0.27313, 0.98408, 1.93403, 0.64593, 0.29669, 1.46150, 0.01147, 0.45231, 1.21156, -0.44215, 0.35833, 1.55978, 0.92822, 0.92303, 1.34805, 0.65275, 0.32139, 0.52184, 1.35431, 0.43925, 1.49908, -1.25564, 0.04863, 0.08218, -0.86372, 0.00986, 1.41945, 0.15846, 1.79810, 0.51578, 0.92414, -0.81376, 0.36399, 0.41796, 0.16290, -0.38339, 1.52557, 0.30772, 0.41484, 1.45354, 0.69127, 0.87822, 0.38905 
-0.11492, 0.13072, -0.04030, 0.28991, -0.61675, -0.70352, -0.17345, -0.08877, -1.37014, -0.71228, -0.70651, -0.53195, 0.74656, -0.09821, -1.46521, 0.22022, 0.70988, 0.00556, -0.04945, -0.11965, 0.27115, -0.41570, -0.25673, -0.46208, -0.08789, -0.27873, -0.08655, 0.25431, -0.11198, 0.14983, 0.18158, -0.04343, -0.38646, -0.42051, -0.28580, -0.00012, -1.08314, -0.32730, -0.49381, -0.42711, 0.02383, -0.05113, 0.33144, -0.30240, -0.73988, -0.00916, -0.01178, -0.11812, -0.16240, -0.22965, -0.82020, -0.10745, 0.89523, -0.12318, -0.06323, -0.27668, -0.15929, -0.13651, -0.55325, -0.25072, 0.09693, -0.19669, -0.35748, -1.13785, 0.12245, -0.17078, -0.06894, -1.03499, 0.44703, -0.75349, -0.16134, -0.10634, -0.05266, -0.03321, -0.44181, -0.37694, -0.11084, 1.05282, 0.18849, -1.35816, -0.13887, -0.23851, 0.20829, 0.29128, -0.09811, 0.74534, -1.08517, 0.25003, -0.49351, 0.51709, 0.39331, -0.72577, 0.04274, -0.20220, 0.17153, 0.34996, -0.74747, -0.05965, -0.73934, -1.29641 
-0.18545, 0.18260, -0.10091, -0.38827, -0.17007, 0.49408, -0.12970, -0.47567, -0.69533, -1.26856, -0.47793, 0.00205, -1.15225, -1.49145, 0.08240, 0.26074, 0.76229, -0.24216, -0.50420, 0.46619, 0.18310, 0.21465, -0.99184, -0.20551, -0.39158, 0.14823, -1.33719, -0.23496, -0.34807, -0.51471, -0.40470, 0.19951, -0.94071, -0.34449, 0.16645, -0.03159, -1.04031, -1.41150, 0.62266, -0.52420, 0.24784, 0.00658, -0.10363, 0.21119, -0.26221, 0.39846, -0.13305, -0.43709, -0.00179, -0.22525, -0.10231, -0.01775, 0.36339, -1.25348, 0.05793, -0.36390, -0.38081, 0.11662, -1.19382, 0.03612, -0.95850, -0.47956, 0.05842, 0.23172, 0.19030, -1.49366, 0.02668, 0.02465, -0.96838, -0.73409, -1.41137, -1.12039, -1.42101, -0.42162, -0.87992, -1.00394, 0.07893, 0.06100, -0.04211, 0.21989, 0.91649, -0.02361, 0.52196, -2.49690, -0.14789, -1.05854, -0.06663, 0.36346, -0.28523, -0.13781, -0.19752, 0.17326, -0.08851, -0.09455, -0.50070, 0.84033, 0.59072, 0.34374, -0.57032, -0.66533 
0.66120, -0.18897, 0.15163, 0.59713, 0.72513, -0.08523, -0.73013, 0.19232, -0.29582, 1.13353, 1.51245, 0.24482, 0.59623, 0.64949, -0.68165, 0.17715, -0.78376, 0.50486, 0.16781, -1.23861, 0.23030, -2.22422, 0.33997, 0.10663, -0.22586, 0.04868, -0.72175, -0.72788, -0.09097, -0.57873, -0.01250, 0.01705, 0.27805, -0.58600, -1.55508, 1.78528, 0.68880, 0.19876, 1.66629, 0.13278, -0.71984, 0.08521, 0.21152, -0.50627, -0.61172, -0.70248, 0.19654, 0.06087, 0.08073, 0.00680, 0.55068, 0.10633, -0.11945, 0.76955, 0.46863, -0.76327, -0.13610, 2.33672, 0.99844, 1.33018, 0.05734, 1.64309, 0.04390, 0.71238, 0.13662, 1.29159, 0.09753, 0.91868, -0.43891, 0.72172, 0.17946, 0.08086, 1.31519, 0.35657, 0.38740, -1.18683, 0.65316, 0.01306, -5.08546, 1.11689, 1.14361, 0.38633, 0.76868, 0.38612, 0.24857, -1.63729, 0.03451, -1.10206, 1.23767, -0.05768, 0.40918, -0.25554, 0.89917, 0.59049, 0.12465, 0.21501, -0.46348, -0.13563, 0.60059, 0.25242 
0.09783, -0.27966, 0.10504, -0.15667, 1.06818, -0.21765, -0.23961, 0.11871, -0.22546, 0.12741, 1.00003, 0.04655, 1.09598, 0.10322, -0.37537, -0.07591, -0.02300, 0.06699, -0.04632, 0.15840, 0.00219, -0.59918, 0.08904, -0.12694, -1.54978, 0.15407, 0.25113, -2.01910, -0.40923, -0.18090, -0.39353, -0.06098, 0.14783, -0.02650, -0.15328, 0.43173, -0.87094, 0.92977, -0.47279, 0.30578, -0.25098, -0.28556, -0.07371, 0.57019, -0.58622, 0.01734, -0.05229, -0.15180, -0.14067, -0.00012, 1.57292, 0.19539, 0.47143, 0.86687, 0.12634, 0.00561, 0.12530, 0.35933, -0.50705, -0.08240, -0.68235, 0.47198, 1.88280, -0.73058, 0.12548, 1.21588, -0.02108, -0.38654, 0.29965, 0.31105, 0.19670, 0.95382, 0.47533, -0.05188, -0.22605, -0.74283, -0.27806, 0.09675, -0.11489, 0.71495, 0.93721, 0.19219, -0.81105, 0.45150, 0.05450, 0.41001, 0.39068, -0.16493, -0.48627, 0.19117, 0.11399, -0.72674, -0.18721, 0.34603, -0.36738, 1.16646, -0.60470, -1.13240, 0.80294, -1.19809 
0.00504, -0.21393, -0.68536, 0.06533, -0.18003, 0.27071, -0.69798, -0.90470, 0.15614, 0.92157, -0.39148, 0.64100, -0.08053, -0.46752, -0.04784, 0.07340, 0.19882, 0.25474, 0.04268, 0.71337, 0.12848, 0.16544, -0.16877, -0.34549, 0.15272, 0.00336, -0.13065, 0.87178, 0.77188, 0.27192, -0.24542, 0.20255, 0.17278, 0.14086, 0.25204, -0.38138, -0.27493, 0.39660, 0.42290, 0.01129, -0.38480, 0.23254, 0.02679, 0.25209, 0.23899, 0.31800, -0.05511, -0.24149, 0.03226, -0.24546, 1.03272, 0.14742, -0.48288, 0.73819, 0.09657, -0.82811, 0.59192, 0.12590, 0.47251, 0.11721, 0.21269, 0.00980, 0.13615, -0.27823, 1.14449, 0.46304, 0.15928, -0.55185, 1.05845, 0.42925, 0.13948, 1.24919, 0.65882, -0.08292, 0.82488, -0.38508, 1.14653, -1.54338, 0.23046, -0.10392, 0.01629, -0.28712, 0.36510, -0.30697, 0.11797, 0.07878, 0.07673, -0.26785, 0.97186, 0.32091, -0.48548, 0.84653, -0.07862, -1.21130, -0.13984, -0.95504, 0.21673, -0.36483, 0.04463, 0.84398 
1.69690, -0.07833, 0.13645, -0.54249, 0.83169, -1.04945, 0.99311, 0.55406, -1.49574, -1.40153, -0.00717, 0.00321, -1.69852, -0.12400, -0.33101, 0.20065, -1.45930, -0.28464, -0.14530, -0.66439, -0.13589, 0.17922, 0.04275, 0.22536, -0.90519, -0.06639, -0.05414, -0.45912, 0.63855, -0.35027, 0.63857, -0.19366, -0.75299, 0.11351, -0.35914, -0.03445, -0.17686, -1.15024, -0.42949, 0.51908, -2.16829, -0.45396, 0.21977, -0.39554, -0.01240, -0.49680, -0.11603, -0.28758, -0.09600, -0.26337, -0.46658, -0.10757, -0.22629, -2.04813, 0.48641, -0.35019, 0.75444, 0.12856, -0.41159, -5.94985, -0.84345, -0.12397, 0.07767, 0.11499, -0.38272, -1.02294, -0.14257, 0.34452, -0.22000, -1.10497, -0.18065, -0.07785, -2.47030, -0.14536, 0.91198, -0.19526, 0.60269, -0.31713, 0.13480, -0.62033, -1.00521, -0.07687, -11.54684, -0.75077, -0.12255, 0.12289, 1.50974, 0.12078, -0.06972, -0.03183, -0.11108, -0.32942, 0.10316, -0.84483, 0.52635, -0.81601, 0.50529, -0.95202, -0.20844, -0.20015 
