// Neural Network File Format by Kyle Julian, Stanford 2016
6,3,9,20,
3,20,20,20,20,20,9,
0,
-8000.0,-100.0,0.0,
8000.0,100.0,40.0,
0.0,0.0,20.0,-0.7194709316423972,
16000.0,200.0,40.0,26.24923585890485,
8.07146e-01,-1.91632e-01,-1.89904e-01,
1.16717e+00,-9.10135e-02,1.29475e-01,
-4.02254e-01,-2.17833e-01,-2.90140e-01,
-4.96641e-01,1.97881e-01,-2.74971e-01,
1.46080e+00,4.56752e-01,-1.05735e-01,
1.65135e-01,-8.68337e-02,-2.22703e-01,
-1.45628e-01,1.59298e-01,-1.70415e-01,
-2.45257e-01,4.88581e-02,-2.24420e-01,
1.07829e+00,-2.31055e-01,-1.27813e-01,
6.10072e-01,-2.91325e-01,-1.90298e-01,
8.03907e-01,-1.82801e-01,-2.35295e-01,
-8.66703e-02,1.09693e-01,-1.69359e-01,
-1.14035e+00,-2.58786e-01,-1.29302e-01,
2.02075e+00,4.74719e-02,-1.89013e-01,
2.01618e-02,3.18942e-01,1.06699e-01,
-1.00421e+00,2.47701e-01,2.38881e-01,
3.31793e-01,5.61670e-02,-2.44641e-01,
-4.13035e-01,-1.62018e-01,-2.70851e-01,
-8.31177e-01,1.87395e-01,-7.40981e-02,
1.25149e+00,-1.74174e-01,1.18791e-01,
2.36194e-02,
1.18569e-01,
-3.79748e-02,
5.31405e-02,
3.13633e-02,
7.70042e-03,
1.02198e-01,
2.59951e-02,
-2.06661e-02,
6.18462e-02,
1.33808e-02,
8.28882e-02,
2.22286e-02,
-3.35343e-02,
4.57028e-02,
2.62972e-02,
1.57241e-02,
-3.91043e-02,
7.82726e-02,
1.01857e-01,
1.89414e-01,1.43227e-01,1.73587e-01,-1.55980e-02,5.84241e-02,1.24270e-01,7.10204e-03,3.64203e-02,2.66875e-01,1.46254e-01,9.51768e-02,3.43897e-02,1.80925e-01,-3.57045e-02,1.62306e-01,3.49886e-03,-3.33618e-02,2.07052e-01,-7.03930e-02,3.47718e-01,
-1.95683e-01,1.37135e-01,1.86698e-01,9.17107e-02,3.80455e-01,-2.44272e-02,1.32701e-01,2.54057e-01,-7.10029e-01,-3.89791e-01,-2.30925e-02,2.57903e-01,-2.93350e-01,3.15518e-01,2.99455e-01,-8.65292e-01,3.10940e-01,5.34170e-02,-4.40103e-01,2.34414e-01,
1.76480e-01,1.81581e-01,1.79297e-01,-5.43796e-02,1.27539e-01,1.31246e-01,1.76580e-03,2.29910e-02,1.56017e-01,1.85890e-01,1.98741e-01,1.67787e-02,1.33343e-01,4.78622e-02,2.85225e-01,-4.22307e-01,-4.31430e-02,1.53999e-01,-1.80107e-02,2.42748e-01,
-3.40409e-01,-3.71669e-01,1.68721e-01,1.37475e-01,-1.57766e-01,-5.23780e-02,9.01299e-02,3.52436e-02,-1.09318e-01,-1.61311e-01,-2.82075e-01,-2.09622e-02,2.56897e-01,-3.99828e-01,3.23001e-01,3.95969e-01,2.35839e-02,1.56698e-01,2.40168e-01,-4.39691e-01,
5.36998e-02,1.96883e-01,1.18882e-01,2.11737e-01,1.41353e-02,1.15191e-01,1.88576e-01,2.68115e-01,-7.58820e-02,6.19304e-02,-2.48078e-03,1.64398e-01,-1.63701e-01,-1.53186e-01,3.27323e-01,3.83443e-02,3.13655e-02,1.34111e-01,1.52745e-01,1.70483e-01,
6.64875e-02,1.82234e-01,6.22590e-02,2.87244e-01,-1.29211e-02,1.13246e-01,2.43058e-01,2.82834e-01,-1.65462e-01,6.08407e-02,1.03582e-01,1.90637e-01,-2.66248e-01,-1.18511e-01,2.17468e-01,8.17684e-02,1.01024e-01,1.35870e-01,2.64519e-01,1.72703e-01,
1.27430e-01,-2.79651e-02,1.99633e-01,4.68566e-02,3.22794e-01,1.92104e-01,-6.55240e-03,1.99695e-01,4.32575e-02,1.47846e-01,2.03217e-01,7.15911e-02,2.59146e-02,4.64496e-02,6.11177e-01,-4.34777e-01,1.97612e-01,1.89669e-01,-2.54997e-01,1.53831e-01,
-4.53664e-02,-2.19066e-02,7.88662e-03,-5.84928e-02,-3.31987e-04,1.65842e-02,-5.72935e-02,-4.46856e-02,2.24164e-02,-3.93295e-03,-2.83740e-02,3.71620e-02,-1.72014e-02,2.75874e-02,3.17301e-03,-3.16122e-02,1.23800e-02,-3.22315e-02,-2.51545e-02,-5.44960e-02,
3.49004e-02,1.68839e-01,3.80780e-02,2.73299e-01,2.15573e-01,1.67593e-01,2.57753e-01,3.33882e-01,-2.60619e-01,-5.52642e-02,2.04045e-02,3.22131e-01,-1.32372e-01,-1.86000e-01,1.98950e-01,9.11132e-04,2.00620e-01,1.64978e-01,9.28313e-02,4.56572e-02,
5.74169e-02,7.03196e-02,1.95611e-01,8.63693e-03,1.07933e-01,1.42053e-01,-4.93301e-02,6.37182e-02,1.29162e-01,1.54599e-01,8.64867e-02,2.52518e-02,2.27827e-01,1.02267e-01,4.87956e-01,7.34253e-02,2.63309e-02,9.13041e-02,-1.90759e-01,2.35080e-01,
3.75160e-01,-4.22125e-01,1.12983e-01,9.10963e-02,2.58573e-01,3.60986e-01,1.53786e-02,1.40264e-01,4.15055e-01,3.54850e-01,4.18517e-01,3.50750e-02,1.90474e-01,3.78556e-01,1.84273e-01,-5.41456e-01,1.95868e-01,7.38480e-02,-1.87045e-01,-3.69649e-01,
2.39303e-01,-8.42067e-03,2.49684e-01,-1.84703e-01,1.37409e-01,2.45282e-01,-1.64653e-01,-1.67736e-02,1.10457e-01,2.92976e-01,2.39677e-01,-1.13911e-01,3.51064e-01,1.11224e-01,3.43140e-01,-3.63648e-01,-2.69942e-02,2.04427e-01,-9.35650e-02,1.05892e-01,
9.32348e-02,3.72097e-01,-3.09618e-01,-1.39234e-01,2.23294e-01,-1.58092e-01,-8.07882e-02,-9.84901e-02,1.32649e-01,-2.09073e-02,1.35610e-01,-8.80431e-02,-1.04570e-01,4.43286e-01,-1.07970e-01,6.29956e-02,-1.13598e-01,-3.02321e-01,-2.10529e-01,3.71841e-01,
1.94837e-01,9.44111e-02,2.33943e-01,2.46032e-02,3.73481e-02,1.54011e-01,5.68044e-03,1.02198e-01,1.64372e-02,1.30137e-01,1.63559e-01,7.62953e-03,4.21296e-02,1.27701e-01,3.47351e-01,3.28283e-01,1.87864e-03,1.86033e-01,-6.86583e-03,1.77704e-01,
3.16688e-02,-2.71863e-02,-4.71179e-02,2.77152e-02,-3.84068e-02,-1.69377e-03,-2.98241e-02,-1.15601e-02,2.27515e-02,3.71957e-03,-1.06538e-02,-2.71910e-02,-1.05211e-02,-5.83362e-02,2.72975e-02,-2.08461e-02,-3.54652e-03,2.27161e-02,-2.93505e-03,1.28273e-02,
4.94958e-02,2.74634e-01,6.64566e-02,1.77492e-01,1.73260e-01,1.18219e-01,2.13803e-01,2.37969e-01,-1.49405e-01,-1.44141e-02,6.33036e-02,2.11198e-01,-2.68728e-01,-5.93171e-02,3.82633e-01,3.35834e-01,1.77833e-01,6.02260e-02,5.57230e-02,2.48857e-01,
-2.00453e-01,-3.82303e-01,1.90226e-01,7.19536e-03,-2.06130e-01,1.77407e-02,1.03432e-03,-8.58145e-03,-1.15072e-01,2.18575e-03,-2.23673e-01,-3.95429e-02,3.57321e-01,-5.03178e-01,2.70127e-01,-6.59598e-01,-4.49369e-02,9.46462e-02,2.73889e-01,-3.66755e-01,
-1.19945e-02,1.30190e-02,-5.26376e-02,2.76624e-02,1.01876e-02,-4.79312e-02,1.34584e-03,2.99060e-02,-3.91784e-02,-1.82099e-02,-1.33450e-02,-4.50102e-03,-4.69949e-02,-1.98450e-02,-1.55916e-02,-5.64055e-02,-2.99803e-02,-9.85601e-04,1.25161e-02,-2.99508e-03,
-7.24988e-04,6.97289e-02,2.50937e-01,1.42058e-01,3.94739e-01,1.43898e-01,3.06155e-02,8.21206e-02,2.22554e-01,1.28273e-01,1.06239e-01,6.25207e-02,2.65768e-01,-6.76161e-02,3.84526e-01,-5.95070e-02,1.49390e-02,1.59663e-01,-2.46279e-01,2.27286e-01,
2.87225e-01,2.79327e-01,-1.69023e-01,-1.15253e-01,2.91837e-01,-1.04527e-01,-1.16671e-01,-5.54191e-02,4.92064e-01,1.39324e-01,3.00438e-01,-1.79703e-01,-1.01500e-01,5.10606e-01,1.07990e-01,2.47167e-01,-6.41871e-02,-1.68458e-01,-2.88216e-01,3.31277e-01,
-1.31827e-02,
-5.94810e-02,
1.44243e-02,
5.39111e-02,
1.80006e-02,
3.04766e-02,
-6.86505e-02,
-8.68270e-03,
2.77976e-02,
2.25947e-02,
-2.40867e-01,
5.87849e-02,
1.01458e-01,
-2.24579e-02,
-8.07845e-03,
2.11287e-02,
8.21593e-02,
-8.37578e-03,
-3.55234e-02,
5.83209e-03,
-4.50909e-02,-2.35235e-02,1.02889e-03,-2.21273e-02,1.02275e-02,-2.81108e-02,-3.56082e-02,-6.75915e-03,4.07837e-02,6.87364e-03,4.03267e-02,9.53112e-03,-4.30303e-02,-3.78778e-02,1.14570e-02,-2.54020e-02,-3.39063e-02,1.92528e-02,8.65456e-03,-4.60720e-03,
1.02828e-02,-5.82047e-02,2.10058e-02,-7.65483e-01,8.39242e-02,1.15941e-01,9.10641e-02,3.99418e-03,1.17672e-01,9.93198e-02,-6.34062e-02,2.10208e-02,-9.90545e-01,2.96303e-02,-4.31753e-02,1.53258e-01,-1.22662e+00,1.14663e-02,-2.50228e-02,-1.17903e+00,
1.52840e-01,1.57780e-01,1.76891e-01,-1.40611e+00,1.59339e-02,4.60180e-02,1.48265e-01,4.77365e-02,-3.05949e-02,9.61095e-02,3.83060e-02,1.61577e-01,-6.27207e-01,8.35418e-02,4.95012e-02,3.26351e-02,-1.07036e+00,5.16834e-03,1.37453e-01,-6.20966e-01,
-4.73213e-02,6.95780e-01,3.38806e-02,-1.75903e-02,-7.38162e-02,-9.79162e-02,1.69591e-01,4.89505e-02,-1.23777e-02,3.85179e-02,-8.06454e-02,2.20166e-01,-3.09388e-01,-5.83452e-02,-4.01071e-02,-1.36560e-01,3.53946e-01,-2.68100e-02,5.63995e-02,-1.73636e+00,
1.05100e-01,-4.01352e-02,1.30034e-01,-6.75494e-01,6.19431e-02,5.94969e-02,-2.32903e-02,-1.22677e-03,2.91822e-02,3.86110e-02,-2.64289e-01,1.53655e-01,-9.43937e-01,3.33294e-02,-3.74309e-03,6.88631e-02,-7.05749e-01,6.22856e-03,5.64945e-02,-9.74767e-01,
1.02216e-02,9.48464e-01,-4.75103e-02,4.19631e-01,-8.22076e-02,-1.19834e-01,-2.00749e-01,4.91154e-02,-2.07479e-01,1.02884e-01,-1.60993e-01,9.04850e-02,-3.03266e-01,-9.99552e-03,4.83492e-02,-7.16845e-02,4.49948e-01,3.19416e-03,-5.68586e-02,-6.32236e-01,
-2.00671e-02,1.41399e-02,2.74008e-03,1.43153e-03,1.04844e-02,3.38352e-02,-8.82698e-03,-1.30796e-02,-8.78938e-03,3.21324e-02,2.59726e-02,-5.25765e-03,-1.58913e-02,-5.31176e-02,4.75368e-02,-4.95819e-02,-2.12804e-03,-4.09775e-02,-5.24073e-05,1.72854e-02,
1.15510e-01,5.35254e-01,9.45517e-02,-9.94356e-01,2.76879e-02,2.66692e-02,1.00727e-01,4.98297e-02,1.03999e-01,6.56185e-02,-5.64491e-01,5.86419e-02,-8.38366e-01,7.32623e-02,-4.38666e-02,8.42710e-02,-9.37839e-01,9.66602e-03,1.25164e-01,-4.86689e-01,
2.95779e-02,-2.17054e-03,-3.33826e-02,-1.09330e-02,3.01928e-02,5.19454e-04,-3.97726e-02,7.15137e-03,-5.74187e-02,-8.59994e-03,-6.22188e-02,2.06350e-02,-4.28437e-02,-1.02866e-03,1.41052e-02,-1.96906e-02,-3.96728e-02,4.68874e-02,1.98476e-02,-4.73957e-02,
-2.06622e-02,-1.62481e-02,4.59626e-02,-1.47699e-03,-3.92737e-02,-2.55970e-02,-4.48172e-02,1.50317e-02,-1.18706e-02,6.75029e-04,9.57292e-04,-3.30596e-02,-3.98825e-02,2.28101e-02,2.07702e-03,-2.62137e-02,-3.55153e-02,-3.06826e-02,-4.02137e-02,4.12285e-02,
1.49249e-01,-9.22823e-01,1.58877e-01,-7.61301e-01,-2.65435e-02,-8.58780e-03,1.44762e-01,-4.36425e-02,-8.98393e-02,1.29234e-01,2.92978e-01,2.00660e-01,-1.32652e+00,1.06685e-01,1.39389e-02,-7.99245e-02,-7.01384e-01,-3.05686e-02,1.59460e-01,-8.79585e-01,
1.10703e-01,-2.26742e-02,1.86778e-01,-3.77017e-01,-5.37173e-06,-5.74970e-02,1.40881e-01,-1.20361e-02,-5.87862e-02,1.49178e-01,3.04303e-01,2.38394e-01,-1.23222e+00,1.15535e-01,1.85089e-02,-8.51944e-02,-5.20812e-01,-3.96267e-02,1.52198e-01,-9.53792e-01,
3.86469e-02,-2.92315e-01,8.06121e-02,-7.89957e-01,7.64652e-02,8.17448e-02,-4.12816e-02,-4.11992e-02,-2.95448e-02,7.26121e-02,-2.21270e-02,4.63926e-02,-9.07090e-01,2.49013e-02,2.58955e-03,-1.34696e-02,-8.42024e-01,-3.38406e-02,1.80147e-02,-1.13257e+00,
-2.26086e-02,-1.80595e-02,-2.25801e-02,4.86733e-03,-3.87373e-02,-2.35847e-02,-5.28427e-02,-4.51157e-02,-5.20947e-02,-5.46381e-02,-1.90762e-02,2.17975e-02,-4.76373e-02,-2.53206e-03,1.91703e-02,4.03837e-02,8.72482e-03,3.55060e-02,1.67326e-02,1.83894e-02,
-1.15576e-01,7.46951e-01,-4.87762e-02,-1.17727e-01,7.46212e-02,1.31297e-01,7.60940e-03,-2.84970e-02,1.20698e-01,-2.00512e-02,-3.30590e-01,-5.58185e-02,1.14257e-01,4.63018e-02,4.01321e-02,1.40279e-01,-2.89254e-01,-3.45342e-02,-1.25453e-01,1.77987e-01,
1.14328e-01,6.22697e-01,8.53495e-02,-1.08972e+00,2.25006e-02,-1.99102e-02,1.12169e-01,-5.81858e-03,-8.78293e-03,7.82575e-02,-2.39613e-01,1.06146e-01,-7.16802e-01,-4.08502e-03,-1.37033e-02,4.58424e-02,-1.07050e+00,-4.13286e-02,6.86777e-02,-2.64417e-01,
1.19362e-01,4.24073e-01,1.01380e-01,-1.08536e+00,5.60484e-02,-4.04496e-02,-2.31534e-03,3.93902e-02,1.66534e-02,4.78839e-02,-1.11460e-01,1.01763e-01,-8.75191e-01,3.93022e-02,5.25310e-03,2.24143e-02,-9.83220e-01,2.45008e-02,8.92172e-02,-5.94683e-01,
5.41148e-02,-3.48447e-01,4.88183e-02,3.42880e-01,2.09769e-01,2.19116e-01,1.49555e-01,-1.53807e-02,2.16790e-01,3.05175e-02,5.84399e-01,-6.05149e-02,4.44406e-01,9.63579e-03,-3.82311e-02,1.25823e-01,5.01060e-01,2.20904e-02,1.50357e-01,4.19342e-01,
2.29405e-02,1.82944e-01,5.76379e-02,-1.20553e+00,5.19078e-02,6.55920e-02,-3.81361e-02,-3.31459e-02,4.15372e-02,2.62768e-02,-2.35784e-01,4.85716e-02,-6.20002e-01,-2.08020e-02,-2.39299e-02,2.81308e-02,-1.15556e+00,2.88558e-03,-4.60876e-02,-7.86926e-01,
-6.54054e-02,8.60204e-01,-8.61528e-02,2.71668e-02,-2.77716e-02,-3.92119e-02,1.37680e-01,-3.01465e-02,1.20586e-01,9.98423e-02,-1.34699e-01,-1.74145e-01,1.58628e-01,-3.68698e-02,1.31808e-02,1.32879e-01,-1.17427e-01,-2.36311e-02,7.37487e-02,8.16394e-02,
-6.82580e-04,
8.12178e-03,
7.68075e-02,
4.34664e-02,
1.62128e-01,
1.17540e-01,
-1.55838e-03,
-7.54632e-02,
-1.58411e-02,
-1.78640e-03,
-4.31644e-02,
1.18299e-02,
1.08258e-01,
-8.15245e-03,
8.85720e-02,
-2.75954e-02,
4.59827e-02,
4.31852e-02,
1.45954e-01,
-1.93437e-02,
1.15464e-02,-2.01483e-01,8.64623e-03,-1.28464e+00,-3.95128e-02,-1.37331e+00,2.71950e-02,2.80729e-01,4.92502e-03,7.10266e-03,1.77076e-01,1.16776e-01,6.76836e-02,3.65563e-02,3.40400e-01,3.35734e-01,3.00537e-01,1.51057e-03,1.78038e-01,-5.91362e-02,
-2.06732e-02,2.82741e-01,7.07611e-02,7.43004e-01,-9.33384e-02,3.19355e-01,1.76788e-02,2.43244e-01,2.33538e-02,-3.11401e-02,-7.55045e-02,6.10961e-02,1.96690e-02,1.67353e-02,1.71790e-01,7.21552e-03,-7.29485e-02,-6.29710e-02,5.03917e-02,5.12511e-01,
-1.31664e-02,8.58283e-01,1.28457e-01,-5.97581e-03,-4.88202e-01,2.45626e-01,-1.20681e-03,6.75223e-01,-2.38572e-02,3.40126e-02,-4.75658e-01,7.73915e-02,-3.77632e-02,3.44698e-02,-2.99876e-02,4.90944e-01,4.42841e-01,-1.55906e-01,2.62932e-01,-1.31236e-01,
4.32051e-02,3.84280e-01,1.48652e-01,-6.71193e-02,4.42977e-01,1.31228e-01,-5.68357e-03,1.52687e-01,1.10822e-02,-1.82594e-02,1.03503e-02,1.97614e-01,5.36236e-01,-2.82327e-02,3.29749e-01,1.84553e-03,1.18673e-01,-4.23311e-01,5.07639e-01,-2.83650e-01,
-6.41371e-03,7.66528e-01,3.33931e-01,3.90578e-01,2.67503e-01,3.44682e-01,-5.02257e-03,7.23773e-01,-1.68674e-02,-3.18632e-02,5.55511e-01,5.18376e-01,2.41877e-01,3.54836e-03,2.67765e-01,3.81918e-01,2.76006e-01,-4.20852e-01,4.79168e-01,4.24327e-01,
2.06510e-03,1.25037e-01,4.50496e-01,1.90450e-01,4.18723e-01,1.96165e-02,3.50362e-02,-7.29198e-03,2.52960e-02,-3.99008e-02,7.21647e-01,6.70705e-01,3.18213e-01,-1.50473e-02,-4.15812e-01,9.27017e-03,3.29567e-01,-2.81164e-01,2.33828e-01,-1.45370e-01,
-3.29898e-02,4.79710e-01,2.70879e-01,6.89946e-01,2.69894e-01,3.24101e-01,-4.22427e-02,5.33932e-01,2.80326e-02,5.91586e-04,7.41831e-01,7.57812e-01,3.31590e-01,-2.12966e-02,-5.90604e-01,3.47181e-01,3.80611e-01,-3.81566e-01,3.19789e-01,2.06496e-01,
-4.95881e-03,-9.48193e-03,-1.96659e-02,-2.87668e-02,-8.58583e-03,2.23324e-02,-1.03221e-02,-2.98396e-02,-2.39603e-02,4.67697e-02,1.96122e-03,-4.42137e-02,3.70358e-03,3.63714e-02,-2.33045e-02,-2.13234e-02,-3.35605e-03,-5.10748e-02,3.60115e-02,3.09129e-02,
1.45081e-02,7.30028e-01,2.23344e-01,-1.99278e-01,4.45773e-01,-2.72262e-01,-1.53364e-02,3.33711e-01,-3.98105e-02,-4.50919e-03,2.67447e-02,3.07121e-01,4.67874e-01,1.33198e-02,3.58569e-01,1.35839e-01,1.73125e-01,-2.98680e-01,4.05439e-01,3.09713e-01,
-1.24527e-02,4.50613e-01,3.41933e-01,-2.84676e-01,1.49631e-01,1.06571e-01,-8.51781e-03,5.38058e-01,-1.10228e-02,-4.88460e-02,2.95166e-01,4.70782e-01,2.41073e-01,1.07981e-02,1.57713e-01,2.89646e-01,3.00492e-01,-1.72403e-01,3.63881e-01,2.80330e-01,
-3.92864e-02,9.77155e-01,-5.36051e-02,3.74464e-01,2.82384e-01,1.26744e-01,4.97999e-02,1.12532e-01,9.27485e-03,3.92382e-02,1.67388e-01,1.77309e-01,6.28964e-01,5.42700e-02,3.19121e-01,-1.34945e-01,-3.43452e-02,-5.21693e-01,4.63235e-01,2.53502e-01,
8.81440e-03,5.70723e-01,1.30888e-01,-5.61818e-01,1.77398e-01,2.59103e-03,-2.30673e-02,3.53817e-01,1.76236e-02,-4.71786e-02,-1.69365e-02,2.75682e-02,3.84904e-01,-2.39670e-02,3.91533e-01,1.94653e-01,1.18753e-01,-2.63403e-01,4.34660e-01,1.38208e-01,
-2.32558e-03,-1.67628e-01,5.14514e-02,1.25797e+00,1.68426e-01,4.20213e-01,1.49338e-03,-2.86973e-01,4.64517e-02,-1.34586e-02,3.48466e-01,-3.95886e-02,5.00611e-02,2.46520e-02,-3.47887e-01,-3.23829e-01,-3.94590e-02,-3.45335e-02,8.04718e-02,4.34330e-02,
-4.27086e-02,-1.86075e-01,2.69061e-01,-1.10613e+00,1.43747e-02,-1.18061e+00,-4.21364e-02,1.09343e-01,-4.75973e-02,-1.07016e-02,2.46733e-01,1.56456e-01,7.59399e-02,5.38286e-03,4.21007e-01,2.79958e-01,3.10546e-01,-1.05379e-02,2.08675e-01,-3.48462e-02,
-4.56707e-02,-2.98103e-02,-2.68487e-03,-2.71002e-02,1.28164e-02,-4.77605e-02,-9.21583e-03,-1.26446e-02,6.52560e-03,4.98157e-02,3.87237e-02,2.48406e-02,1.47436e-02,-3.85914e-03,1.87035e-02,-2.38549e-02,-4.07854e-02,-4.09434e-02,-3.85465e-02,-2.92905e-02,
1.53031e-02,3.98872e-01,1.77109e-01,6.31398e-01,3.94681e-01,2.41570e-01,1.03625e-02,-3.22905e-01,-3.81536e-03,5.39786e-04,5.67375e-01,5.32317e-01,5.80877e-01,-1.30381e-03,-1.52662e-01,2.67987e-01,2.30678e-01,-4.74642e-01,3.15772e-01,-4.50169e-01,
-4.18777e-02,3.24242e-03,-4.41851e-02,-1.84927e-02,-4.19273e-02,1.75858e-02,-1.41890e-02,-1.04137e-02,3.18485e-02,2.18390e-02,4.91029e-02,-3.01827e-02,1.27674e-02,-3.66284e-02,-3.97547e-02,-3.88383e-02,3.66356e-02,-2.33844e-02,2.13236e-02,4.72372e-02,
-1.21143e-02,-3.62168e-01,1.96943e-01,1.35219e-01,3.09923e-02,-3.60305e-01,-1.86795e-02,-3.23926e-01,-3.66247e-02,1.17652e-02,3.70749e-02,2.53873e-02,-1.10159e-01,3.10768e-02,-2.51599e-01,-1.02189e-01,-2.83917e-03,2.08902e-01,-1.96942e-01,-9.56641e-02,
-3.58692e-04,-1.31131e-02,-2.60269e-03,-1.73900e-02,-3.06533e-03,-4.60973e-02,-3.18514e-02,-4.93354e-02,-3.38610e-02,4.04821e-02,-6.81321e-02,-7.24425e-02,-1.48137e-02,3.59177e-02,3.39192e-04,-3.73378e-02,-5.47466e-02,-4.51552e-02,-5.45860e-02,1.22140e-02,
4.71493e-02,2.76978e-02,1.80066e-02,-3.95952e-02,-2.71126e-02,4.88651e-03,-7.10704e-03,2.82390e-02,1.30236e-02,-1.70857e-02,1.60223e-02,-2.57584e-02,-9.49334e-03,2.71739e-03,-2.88066e-03,-2.21491e-02,-4.91585e-03,-1.79334e-02,-5.79735e-02,5.71137e-03,
-2.62898e-02,
3.52229e-03,
1.09178e-01,
3.12913e-02,
-8.56947e-03,
7.63054e-02,
2.31996e-02,
-8.43727e-03,
-1.08020e-01,
2.02986e-02,
8.64900e-02,
3.62221e-02,
7.75029e-02,
-5.22417e-02,
-6.70484e-03,
1.91271e-02,
-6.94536e-04,
1.53789e-01,
1.56786e-04,
-3.58067e-03,
-4.75372e-01,1.97940e-02,-3.82656e-01,5.45780e-01,1.57398e-01,3.56156e-01,6.46732e-01,-3.02357e-03,2.21563e-01,1.91394e-01,9.83079e-02,3.14354e-01,1.67267e-01,-1.55865e-01,-4.45957e-02,9.46954e-01,-1.79164e-02,-1.87258e-02,3.85904e-02,4.24833e-03,
-3.05836e-01,-7.89632e-02,-1.51693e-01,1.37394e-01,3.58582e-01,-3.55174e-01,-2.72607e-01,-1.51818e-02,6.35760e-01,1.43053e-01,5.90340e-01,2.50315e-01,-1.29652e-01,-9.50600e-02,4.80358e-02,8.79730e-02,-4.49861e-02,-1.70491e-01,-2.35263e-02,-6.03008e-03,
3.62881e-01,2.42656e-01,4.01903e-01,3.19313e-01,3.70052e-01,2.05986e-01,-1.63454e-01,1.01982e-02,4.54492e-01,3.12148e-01,3.77983e-01,2.74916e-01,-1.31857e-01,3.22310e-01,-2.77315e-02,5.34034e-02,1.92189e-03,-5.39269e-01,4.72597e-03,-3.75317e-02,
-2.28674e-01,2.64539e-01,-2.67087e-01,-2.32627e-01,1.39256e-01,2.23161e-01,3.92253e-01,-4.83943e-02,-1.12984e-01,2.50127e-01,1.86805e-01,5.60143e-02,5.73325e-01,-3.25569e-01,-8.23913e-03,2.91732e-02,1.17801e-03,6.05539e-02,-7.63358e-02,1.71431e-02,
-4.35918e-01,4.97509e-01,-3.68017e-02,-5.68257e-03,4.41392e-02,-6.28278e-02,6.11161e-01,-2.83144e-02,-3.65871e-01,4.89980e-02,2.85752e-02,-1.92235e-01,4.96481e-01,-5.93423e-01,-2.76358e-02,-6.28714e-01,2.67534e-02,-2.38688e-02,-2.68478e-02,1.69758e-02,
-5.02208e-02,1.83101e-01,2.76515e-01,1.32145e-01,3.36510e-01,-3.41791e-01,-4.18502e-02,4.03128e-02,1.97838e-01,6.73492e-02,3.82983e-01,1.83592e-01,-1.08688e+00,5.83059e-02,3.51531e-02,-2.51975e-01,1.47310e-02,5.92606e-02,2.30473e-02,5.70819e-02,
7.42863e-01,-1.12058e+00,-2.08667e-01,1.69986e-01,1.70460e-01,4.59318e-01,1.60192e-01,-1.40947e-02,-1.73275e-01,1.94968e-01,-4.34179e-01,-4.77990e-02,-4.54886e-01,6.65858e-01,4.83249e-02,7.54906e-03,-2.57469e-02,-3.74224e-02,-5.16165e-02,3.97682e-02,
-7.85973e-01,-1.21212e-01,-6.08746e-03,5.28060e-01,1.00861e-01,-1.86786e-01,-3.23599e-01,1.07584e-02,2.98218e-01,-1.40631e-02,3.53769e-01,2.20266e-01,2.43584e-01,-3.22507e-01,1.93368e-02,4.54276e-01,-2.10835e-03,-1.84384e-01,-6.75963e-02,2.09329e-02,
-3.55825e-02,-1.33348e-02,-2.22936e-02,2.08677e-02,-2.27533e-02,-8.22057e-03,-1.73146e-03,-4.86890e-02,-1.64956e-02,-4.73104e-02,4.44769e-02,-4.94285e-02,-2.86826e-02,9.30383e-03,3.87909e-02,-1.82970e-02,1.63270e-02,-2.71225e-02,-1.04325e-02,3.52179e-02,
3.97957e-01,-5.92739e-01,7.68030e-02,-1.85218e-01,1.04348e-01,5.80060e-02,-2.14914e-01,-1.26999e-02,2.58724e-01,1.27160e-01,1.97117e-01,4.93259e-02,-7.20093e-01,5.30882e-01,-3.96414e-02,-2.54724e-01,-4.92579e-02,1.68476e-02,-1.73439e-02,1.85161e-02,
-2.81949e-01,5.86553e-01,4.21162e-02,2.27183e-02,3.82085e-01,2.87041e-01,6.20305e-01,2.60720e-02,2.69035e-01,6.92528e-02,-1.62918e-01,2.91946e-02,8.77371e-02,-2.25318e-01,1.05235e-02,6.03514e-01,4.11310e-03,-1.16719e-01,1.16661e-02,2.74419e-02,
2.52290e-01,-5.42912e-01,6.78499e-02,5.92712e-01,2.09095e-01,-6.88112e-03,7.49560e-02,-6.21646e-03,5.33035e-01,1.19489e-01,3.29749e-01,2.58624e-01,-5.41912e-01,2.45717e-01,3.57775e-02,2.15422e-01,-3.30975e-02,-2.03019e-01,2.17243e-02,1.92253e-02,
5.90102e-01,-3.18074e-01,-3.25706e-01,3.84824e-02,4.81940e-01,1.02225e-01,-1.80717e-01,3.60998e-02,4.08900e-01,3.72200e-01,2.03280e-01,3.40561e-01,-1.31587e-01,7.39266e-01,-3.71343e-02,-2.41185e-01,5.01625e-02,-2.75658e-01,9.77592e-04,-1.37615e-02,
1.03112e-01,-1.67318e-01,-6.27037e-01,6.32524e-01,2.30057e-01,4.11031e-01,6.17128e-01,4.32218e-02,3.99620e-01,1.96623e-01,2.17433e-01,3.98500e-01,-2.40247e-01,1.17975e-01,-3.11115e-02,5.75059e-01,3.42735e-02,-2.96692e-01,1.65882e-02,2.80651e-02,
-8.44172e-02,2.31853e-01,1.62796e-02,-2.99588e-01,4.39989e-01,2.88622e-01,-2.11495e-02,4.82398e-03,3.04135e-01,1.58052e-01,3.25452e-01,1.13237e-01,3.02142e-02,5.00951e-02,1.32361e-02,4.63295e-01,-3.07462e-02,9.49270e-02,-5.23910e-02,-2.67431e-02,
-4.18786e-01,4.21255e-01,5.35614e-01,1.86760e-01,3.58772e-01,3.68153e-01,5.31365e-01,2.98673e-02,4.72187e-01,-1.06479e-01,3.88370e-01,1.81893e-01,2.52706e-01,-3.72336e-01,4.29232e-02,9.44384e-01,-7.58791e-03,-2.21458e-01,-2.11878e-02,4.08681e-02,
-2.84799e-02,-4.68309e-02,-2.61945e-04,-1.09992e-02,1.78759e-02,1.04938e-02,2.66340e-02,6.45055e-03,-5.05016e-02,-2.26920e-02,-1.33313e-02,2.22045e-02,-2.23041e-02,-2.88404e-02,6.10594e-03,-9.67770e-03,-2.96272e-02,-9.80007e-03,3.73796e-02,-2.45994e-02,
5.24802e-01,-3.31116e-01,3.49717e-01,3.65670e-01,5.15658e-02,6.76811e-02,-3.43132e-01,4.17966e-02,1.96051e-01,3.26140e-01,-2.93283e-01,3.62804e-01,-4.84109e-01,4.18657e-01,3.81129e-02,-1.31549e-01,-2.65710e-02,3.05023e-02,1.85574e-02,7.37861e-03,
-5.58460e-01,3.72944e-01,-4.04731e-02,-8.45378e-02,3.79238e-01,2.26373e-01,4.17528e-01,-9.99507e-03,1.28358e-01,2.04708e-01,8.05481e-02,7.09891e-02,-8.79810e-02,-6.62454e-01,-4.65477e-02,-6.84328e-02,-1.40117e-02,1.38190e-02,-1.16687e-03,1.56945e-02,
3.98626e-04,-5.26897e-02,-1.80175e-02,-7.49699e-03,-5.83272e-02,-5.71005e-02,-1.45661e-02,3.15041e-02,-1.66683e-02,-3.43741e-02,1.98513e-02,2.80512e-03,1.14665e-02,-5.53596e-02,-9.07427e-04,2.49386e-02,3.60397e-02,8.91471e-03,2.77848e-02,-1.48759e-02,
1.70809e-02,
4.24015e-02,
-1.84761e-01,
3.96810e-02,
1.76777e-02,
-3.35052e-02,
5.29127e-02,
3.07085e-02,
0.00000e+00,
1.45394e-02,
3.57112e-02,
4.08388e-02,
-8.12974e-02,
-7.48451e-02,
8.99383e-03,
-2.41608e-02,
-5.05282e-03,
1.03486e-01,
-1.66689e-02,
-1.03322e-02,
-3.45395e-01,2.06307e-01,-1.25681e-01,8.95140e-02,5.20131e-02,-1.87411e-01,9.04903e-02,-2.58494e-01,-2.77286e-02,-8.14295e-02,3.79044e-02,-3.93988e-01,-1.05789e-01,-3.97564e-01,9.42523e-02,-6.95683e-02,-9.29932e-03,-1.68100e-02,8.38224e-02,-1.81497e-02,
-1.74985e-01,-4.93533e-01,-4.56197e-01,-1.75180e-02,4.09101e-01,4.30956e-01,2.10757e-01,-6.45212e-02,-3.78244e-02,-1.50059e-01,-9.03426e-02,-9.23486e-02,-4.65780e-03,-2.43858e-01,-2.11243e-01,-3.14578e-01,9.56209e-03,1.63963e-01,2.18242e-01,-2.54744e-02,
-3.28251e-01,1.07421e-01,-2.13843e-01,-5.28222e-03,2.91308e-01,7.03955e-01,5.77587e-02,-2.39648e-02,4.09973e-02,1.14080e-01,-1.50903e-01,-4.00346e-01,-5.96278e-01,-9.79474e-02,-1.15275e-01,-1.39683e-01,2.47886e-02,-1.90453e-01,1.51814e-01,7.76383e-03,
-3.95250e-01,-4.03861e-02,-6.52474e-02,-1.64290e-01,4.14174e-01,-2.35418e-02,-6.98235e-02,-3.93936e-02,3.94281e-02,3.49348e-01,-1.63360e-01,-1.00909e-01,-5.46875e-01,3.04198e-01,7.32641e-02,-4.41176e-01,2.49039e-02,1.53028e-02,1.10183e-01,5.98129e-02,
-3.99447e-01,6.22483e-02,-3.26218e-01,-1.11857e-01,1.89627e-01,3.83943e-01,-1.62742e-01,-1.86667e-01,2.19126e-02,-1.06982e-01,-1.03058e-01,-1.27055e-01,-6.23994e-01,1.61267e-01,8.67689e-02,-2.24360e-01,2.61189e-02,-5.73138e-02,2.00614e-01,-1.01315e-02,
-7.35937e-02,-1.36428e-01,-2.07492e-01,-3.48173e-02,4.23737e-01,2.98371e-01,-3.75323e-02,-5.87721e-01,4.61645e-03,3.21933e-01,-1.96762e-01,-2.57143e-02,7.86452e-02,-3.48603e-01,-5.48576e-02,-6.44561e-02,-2.25422e-02,1.46619e-01,-3.73443e-01,-3.98981e-03,
1.66780e-02,-5.17045e-01,-5.72096e-01,1.09360e-01,-7.12579e-02,9.12706e-01,-7.06021e-01,5.22975e-02,-2.44545e-03,8.73752e-01,-6.43204e-02,-2.59903e-01,-5.54467e-01,-1.46503e-02,-2.16970e-01,-5.74431e-03,1.54310e-02,-2.39329e-01,1.85437e-01,-1.46444e-02,
-2.84268e-01,8.17834e-02,1.95560e-02,-3.21026e-01,4.38349e-01,-1.14636e+00,7.44707e-02,-8.39363e-03,1.45617e-02,8.10613e-02,-1.08335e-01,2.06728e-01,7.62927e-02,-1.47410e-01,-1.43251e-01,-1.08993e-01,2.30044e-02,1.71479e-01,-7.54953e-01,1.50045e-02,
-1.74356e-02,1.61208e-01,-5.11648e-01,6.88961e-02,-6.12837e-01,-7.25546e-02,-1.02319e+00,4.27578e-01,3.73085e-02,-2.50122e-01,-1.81146e-01,-1.14399e-01,-1.63708e-01,-1.53289e-02,5.50264e-02,-1.62283e-02,2.13025e-02,-5.37317e-01,-3.86202e-01,1.67718e-02,
2.02291e-02,
3.50380e-03,
1.01050e-02,
1.84004e-02,
3.54512e-04,
5.26210e-03,
2.88920e-02,
1.33885e-02,
9.20717e-02,
