// Neural Network File Format by Kyle Julian, Stanford 2016
6,3,9,20,
3,20,20,20,20,20,9,
0,
-8000.0,-100.0,0.0,
8000.0,100.0,40.0,
0.0,0.0,20.0,-0.7194709316423972,
16000.0,200.0,40.0,26.24923585890485,
8.91579e-01,-2.96341e-01,-1.33111e-01,
1.72243e+00,-2.84421e-02,-1.22510e-01,
3.05466e-03,1.48615e-02,-1.97181e-01,
-1.97344e-02,-1.46425e-03,5.23992e-04,
2.81065e-03,1.71743e-02,-1.97656e-01,
8.89240e-02,1.41535e-01,-3.45527e-01,
-7.81025e-01,4.80132e-01,1.10241e-02,
5.62802e-03,1.44888e-02,-2.01357e-01,
-1.32419e+00,4.01453e-03,-1.37608e-01,
1.10684e-03,1.19683e-02,-1.67158e-01,
1.52160e+00,-1.77731e-02,-1.91661e-01,
1.94870e+00,1.19764e-01,-1.19492e-01,
5.31183e-03,1.14565e-02,-1.78703e-01,
-3.77266e-01,2.18847e-01,-1.35168e-01,
1.35077e+00,-1.74072e-02,-1.33163e-01,
6.19208e-04,4.82122e-03,-1.50934e-01,
-7.10700e-01,6.32468e-02,-2.50427e-01,
1.32281e-03,9.89349e-03,-1.82767e-01,
-3.63422e-01,2.72113e-02,-2.81040e-01,
1.36861e+00,7.81747e-02,-3.44074e-01,
2.41843e-02,
2.21417e-03,
-1.07575e-01,
-1.09125e-02,
-1.08885e-01,
-4.84194e-02,
-6.70267e-02,
-1.10840e-01,
-3.20496e-02,
-9.01255e-02,
-6.27099e-02,
-1.54845e-03,
-9.77796e-02,
6.45427e-02,
2.09846e-02,
-7.81915e-02,
-9.55513e-02,
-9.70020e-02,
1.75689e-02,
-1.54821e-01,
9.75028e-02,3.58457e-01,2.13905e-01,4.06327e-02,1.25953e-01,-2.62627e-02,2.68569e-01,1.78927e-01,4.18461e-01,1.37764e-01,3.64432e-01,1.68498e-01,1.82847e-01,-8.93336e-02,2.53049e-01,1.37018e-01,1.13468e-02,1.74262e-01,6.22963e-02,1.88543e-01,
1.09076e-01,2.69978e-01,2.06035e-01,1.25723e-03,1.83167e-01,-1.46556e-01,-1.38295e-01,1.90967e-01,2.59869e-01,1.63086e-01,1.12381e-01,1.85834e-01,1.58608e-01,-1.83381e-01,2.49981e-01,1.67857e-01,-4.05213e-01,2.16569e-01,6.33150e-02,-3.38624e-02,
-3.10986e-01,-4.75703e-01,-1.24655e-01,-1.78375e-02,-1.44441e-01,2.18122e-01,5.43976e-01,-4.19049e-02,4.63967e-01,-1.27080e-01,-5.82523e-01,9.51408e-03,-4.66052e-02,1.14016e-01,-4.46105e-01,-8.00332e-02,5.62298e-01,-1.52140e-01,-5.54653e-02,-5.58875e-01,
9.78349e-02,3.64645e-01,1.57626e-01,-2.51429e-02,2.17859e-01,3.33077e-03,7.32470e-02,1.40839e-01,3.39221e-01,1.38540e-01,3.32678e-01,2.25803e-01,1.56184e-01,3.31422e-02,2.49645e-01,2.07760e-01,-4.91621e-02,2.25510e-01,1.43204e-01,1.90845e-01,
1.08596e-01,3.03609e-01,2.15492e-01,-1.52434e-02,1.79664e-01,-9.48047e-02,1.64993e-01,1.73029e-01,4.05932e-01,1.84682e-01,2.99022e-01,2.18333e-01,1.62932e-01,-1.27202e-01,2.05330e-01,1.98331e-01,3.52341e-02,1.86800e-01,9.86123e-02,1.60195e-01,
7.95227e-02,4.03887e-01,2.15329e-01,6.15541e-02,1.84520e-01,3.39992e-02,2.19544e-01,1.76191e-01,1.08863e-01,1.69151e-01,3.04256e-01,3.65535e-01,1.04982e-01,-7.25040e-02,2.04359e-01,1.67234e-01,2.60866e-01,1.30672e-01,3.07184e-02,2.00624e-01,
1.24727e-01,4.03264e-01,1.47886e-01,-3.42155e-02,1.31536e-01,-5.67781e-02,1.35338e-01,1.77835e-01,-2.59876e-02,1.21638e-01,3.62638e-01,3.26719e-01,1.77494e-01,-7.29845e-02,1.99339e-01,2.01604e-01,1.51606e-02,1.50690e-01,-6.57331e-02,2.89203e-01,
9.72794e-02,3.52639e-01,1.93166e-01,-2.76313e-02,2.02414e-01,-1.74961e-02,1.57614e-01,2.16696e-01,4.23481e-01,1.82144e-01,3.60990e-01,2.83779e-01,1.19392e-01,3.71958e-02,2.24925e-01,1.60415e-01,3.46833e-02,1.57642e-01,1.54800e-01,1.82536e-01,
3.28677e-02,2.81454e-01,1.73949e-01,-3.17327e-02,1.74154e-01,-2.11048e-01,-3.01256e-01,1.65337e-01,1.96559e-02,1.68491e-01,1.66861e-01,2.82770e-01,1.18400e-01,-1.33406e-01,2.45710e-01,1.42575e-01,-3.16839e-01,1.32572e-01,-3.77698e-02,3.61912e-02,
3.14178e-02,2.85320e-01,1.59214e-01,2.58815e-02,1.25845e-01,-1.26857e-01,-1.56780e-02,1.92456e-01,4.45172e-01,1.15046e-01,2.74285e-01,2.37968e-01,9.19435e-02,-7.88793e-02,1.73695e-01,2.18250e-01,4.54427e-02,1.51711e-01,8.28338e-02,2.31654e-01,
1.94843e-02,3.45302e-01,1.27206e-01,-9.96170e-03,2.19064e-01,-6.48142e-02,2.53818e-02,1.86210e-01,3.53006e-01,1.29516e-01,3.20417e-01,2.38728e-01,1.88595e-01,-3.13980e-03,2.53641e-01,2.18077e-01,-1.05791e-01,1.54894e-01,1.34734e-01,1.22888e-01,
-3.93349e-02,-1.24792e-03,8.86090e-03,9.12488e-03,-2.25251e-02,-1.09940e-02,-4.05343e-03,-1.11010e-02,-4.17769e-02,-1.19455e-02,-9.45076e-04,-2.40840e-02,-1.90910e-02,-4.78996e-02,-3.52444e-02,-1.21877e-02,-7.86976e-03,-6.99232e-03,1.26444e-03,3.28739e-02,
6.15258e-02,3.38050e-01,1.45216e-01,-9.84933e-03,1.81855e-01,-5.69346e-02,1.40341e-01,1.47494e-01,2.65535e-01,1.65275e-01,3.36952e-01,1.68433e-01,1.87173e-01,-4.63929e-02,2.55552e-01,1.34122e-01,-3.07735e-02,1.63657e-01,9.24163e-02,1.44851e-01,
4.87761e-01,4.15491e-01,-8.04197e-02,2.69955e-02,-8.44048e-02,-9.38684e-02,-8.29414e-02,-5.71701e-02,-5.47015e-01,-9.02272e-02,2.60043e-01,7.13111e-01,-3.20957e-02,-4.40287e-01,3.74648e-01,-2.67397e-02,6.78644e-02,-7.84903e-02,-2.29023e-01,5.32296e-01,
-3.72266e-02,-2.10717e-01,-1.14332e-01,-4.76492e-02,-1.04241e-01,1.01708e-01,1.36175e-01,-5.96434e-02,-2.10052e-01,-1.14808e-01,-2.55018e-01,8.67104e-02,-8.47846e-02,1.12023e-02,-2.20997e-01,-1.07524e-01,8.79928e-02,-9.95844e-02,-1.61358e-01,-1.68117e-01,
7.15129e-02,3.99700e-01,-5.49543e-02,-3.63308e-02,-7.56829e-03,-4.37252e-01,-6.70209e-01,-8.84013e-02,1.26880e-01,-9.95216e-04,2.05561e-01,3.58482e-01,-3.41168e-02,-2.84467e-01,2.60660e-01,-3.60557e-02,-3.85714e-01,-6.58834e-02,-1.77460e-01,2.56745e-01,
2.44905e-03,-2.80254e-02,-4.30677e-02,9.93713e-03,1.28204e-02,-6.81297e-03,-4.96169e-02,-4.42140e-02,-2.54619e-02,1.27335e-02,-1.24293e-02,3.86952e-02,-3.32531e-02,-2.75912e-04,-5.05339e-02,1.66265e-03,4.53890e-02,1.44883e-04,1.36364e-02,-3.78258e-02,
1.26332e-01,3.24918e-01,1.31493e-01,2.04021e-03,2.04895e-01,-1.42103e-01,1.32249e-02,1.13262e-01,7.96636e-02,1.85251e-01,2.20468e-01,2.14078e-01,1.65846e-01,-9.23932e-02,2.47402e-01,1.25906e-01,-2.69739e-01,1.96401e-01,-8.11257e-03,1.19082e-01,
3.54229e-02,-5.33844e-02,-1.94022e-02,-8.53654e-03,-3.12846e-02,-4.76340e-02,-1.95352e-03,3.36224e-03,-5.03270e-02,2.05429e-02,5.55472e-03,-4.46554e-02,-3.74758e-02,9.09784e-03,-2.34681e-02,1.80210e-02,3.91171e-02,-4.73402e-03,-2.19749e-02,8.10677e-03,
2.76494e-02,3.39232e-01,1.86361e-01,5.09678e-03,1.73703e-01,-1.46482e-02,1.52321e-01,1.19379e-01,3.26470e-01,1.22752e-01,3.00539e-01,1.99474e-01,1.28794e-01,-4.23859e-02,2.57393e-01,1.44248e-01,-1.14212e-01,1.58672e-01,1.11034e-01,1.83565e-01,
-7.91210e-03,
-9.52543e-03,
6.38821e-02,
6.85848e-03,
-6.71643e-03,
-6.43123e-02,
-1.04816e-02,
4.81099e-02,
-3.12971e-03,
-7.17272e-03,
4.36943e-03,
-1.03766e-03,
5.13992e-03,
-6.13416e-04,
1.36689e-01,
8.64706e-02,
-7.92690e-03,
-2.35243e-02,
-7.36176e-03,
-5.89172e-03,
-4.12891e-02,-3.06319e-02,6.85720e-04,4.16848e-02,-1.21253e-02,-4.05310e-02,-8.71186e-03,-1.86927e-02,-1.11229e-02,-1.32964e-02,-6.74682e-03,-1.35149e-02,4.69798e-03,2.45406e-02,-1.99985e-02,7.35278e-04,-2.49629e-02,-1.34526e-02,2.59519e-04,-2.92957e-02,
-2.66869e-02,-1.61366e-02,-2.23101e-02,1.21524e-02,-2.30799e-02,2.00986e-02,-1.27868e-02,-4.75301e-02,-2.25887e-02,2.54889e-02,3.51498e-02,2.05228e-02,-3.57172e-02,6.31484e-03,-2.34718e-02,2.01760e-02,-3.48747e-02,-2.98193e-02,-3.95504e-02,2.24350e-02,
-1.54201e-02,-1.90710e-01,5.58263e-01,-9.27936e-02,4.58195e-02,1.05870e-01,1.55116e-01,-7.05806e-05,5.52759e-02,2.11877e-02,-1.02017e-01,-3.96686e-02,-7.90958e-02,1.38170e+00,3.53470e-01,-9.57040e-02,-1.45591e-02,-5.79834e-02,7.58441e-03,-1.20376e-02,
2.36843e-02,9.25860e-03,-3.93732e-02,6.51509e-04,1.12426e-02,1.13587e-02,-4.53493e-02,-4.11276e-02,3.37944e-02,-4.03817e-03,4.30658e-02,1.80836e-02,-4.36599e-02,-4.77529e-02,1.46382e-02,3.70618e-02,-4.87006e-02,-1.25076e-02,1.84633e-02,-4.73277e-02,
2.27899e-01,2.39800e-01,-3.20162e-01,1.04373e-01,2.59314e-01,3.91391e-01,2.49840e-01,1.61644e-01,2.34102e-01,2.80590e-01,1.44548e-01,1.21813e-02,1.38161e-01,-1.00920e+00,-2.59448e-01,4.53033e-01,9.48557e-03,1.76166e-01,3.84735e-02,6.56357e-02,
8.08731e-02,-1.84423e-01,5.55032e-01,-4.88228e-02,6.77635e-02,1.34293e-01,2.17557e-01,-4.28108e-03,9.78795e-02,-2.69879e-03,-1.22711e-01,-1.12133e-02,-4.00505e-02,1.40809e+00,2.88956e-01,-8.24139e-03,3.08503e-02,-7.08317e-02,-2.59318e-02,-7.27128e-02,
1.24779e-01,2.04292e-01,-5.10838e-01,1.26828e-01,1.40220e-01,1.73248e-01,9.19036e-02,1.94275e-01,8.41510e-02,2.06281e-01,1.45449e-01,2.48063e-02,7.57769e-02,-1.23500e+00,-1.90940e-01,2.29106e-01,-3.01641e-02,1.28224e-01,-3.41181e-02,1.54638e-01,
-5.40764e-02,-4.79635e-02,-5.73396e-02,1.07821e-02,-3.19678e-02,-3.65414e-02,3.70496e-02,9.03926e-04,1.02889e-02,-7.56372e-03,8.73681e-04,2.11949e-02,2.80699e-02,-3.68894e-02,-2.26407e-02,1.73397e-02,2.27090e-02,-1.80534e-02,1.02509e-02,-2.64815e-02,
5.82489e-02,2.11714e-01,-7.00650e-01,1.21000e-01,1.30469e-01,3.38431e-01,2.87786e-01,1.32883e-01,2.29515e-01,9.23782e-02,1.05887e-01,-2.85916e-03,1.33040e-01,-1.04510e+00,-2.77551e-01,4.68482e-01,6.86958e-03,2.06050e-01,1.96636e-02,1.34768e-01,
3.31706e-02,1.46358e-02,2.70100e-02,-1.76748e-02,-2.02920e-02,-5.45769e-02,1.24851e-02,-5.12088e-02,-7.83639e-03,2.38816e-02,3.50855e-02,-1.27233e-02,1.28829e-02,4.43675e-02,-3.93128e-02,2.98734e-03,-4.76807e-02,-2.63296e-02,-6.60625e-04,-3.37314e-02,
4.50827e-02,2.36326e-01,-9.52981e-01,1.05116e-01,1.03634e-01,2.49203e-01,2.40191e-01,8.61056e-02,3.35423e-01,1.90942e-01,1.73443e-01,-2.13605e-02,9.29353e-02,-1.06176e+00,-2.75183e-01,6.98049e-01,-4.37694e-04,1.88261e-01,-1.44505e-02,1.12210e-01,
2.12582e-01,2.42699e-01,-5.34441e-01,1.64461e-01,1.30533e-01,2.08293e-01,1.71621e-01,1.72831e-01,9.97449e-02,2.49591e-01,1.34744e-01,-4.07128e-02,1.48467e-01,-1.23946e+00,-2.15718e-01,1.25675e-01,-4.57717e-02,1.80904e-01,3.47440e-02,1.55825e-01,
2.77096e-01,2.03671e-01,-1.12572e+00,2.10033e-01,2.12761e-01,2.25407e-01,1.67400e-01,2.12909e-01,2.83900e-03,1.74256e-01,1.79928e-01,3.43207e-02,2.48114e-01,-1.31434e+00,-3.10576e-01,5.11484e-02,-4.81076e-02,2.57875e-01,-3.46371e-02,1.78464e-01,
3.01678e-01,-1.07166e-01,-8.07118e-01,1.86601e-01,2.00949e-01,3.29310e-01,2.62834e-01,2.64551e-01,4.98174e-02,1.64390e-01,2.25380e-01,1.15467e-02,2.23278e-01,-1.44070e+00,-2.77431e-01,-2.74962e-01,1.57452e-02,1.73000e-01,-1.99621e-02,2.62858e-01,
6.73153e-02,-1.42859e-01,4.83932e-01,-8.30670e-02,9.04698e-02,2.81189e-01,2.42245e-01,-2.48656e-02,1.47174e-01,9.53415e-02,-5.44546e-02,-3.49523e-02,-1.64346e-02,1.47710e+00,2.89892e-01,1.39941e-02,-1.06026e-02,1.02647e-02,-3.28113e-02,-7.31352e-02,
-1.40949e-01,2.99343e-01,5.36762e-02,1.33352e-01,-6.34628e-02,-2.74462e-01,-2.27220e-01,2.05553e-01,-4.12628e-01,-1.31347e-01,9.37562e-02,1.72842e-02,-1.52477e-02,-7.51809e-01,2.42548e-01,3.02649e-01,-2.29769e-02,-9.32087e-02,-7.30418e-03,5.29147e-02,
2.77710e-01,3.59669e-01,-2.93595e-01,1.43359e-01,2.00645e-01,1.45572e-01,8.55386e-02,1.46132e-01,-4.79628e-01,1.09792e-01,1.88700e-01,-1.26820e-02,1.60951e-01,-1.55055e+00,-1.34453e-01,-2.23417e-01,-3.98718e-02,1.13112e-01,4.48067e-02,2.45522e-01,
2.61907e-01,1.06796e-01,-1.06595e+00,1.45178e-01,1.91678e-01,9.00855e-02,1.51219e-01,2.49089e-01,-1.93356e-02,1.87898e-01,1.86978e-01,1.98127e-02,2.42047e-01,-1.49210e+00,-2.47822e-01,-1.50707e-01,1.16080e-02,1.30966e-01,-3.53619e-02,1.48085e-01,
2.76755e-01,3.03571e-01,-3.54111e-01,1.11267e-01,2.83690e-01,3.51380e-01,2.41802e-01,1.71415e-01,1.99461e-01,2.87836e-01,1.65044e-01,4.01697e-02,1.73549e-01,-1.02959e+00,-2.07291e-01,3.45286e-01,2.83876e-02,2.10815e-01,9.29080e-03,1.44008e-01,
5.50128e-02,9.99827e-02,-8.96318e-01,8.53922e-02,5.40187e-02,2.24333e-01,1.64476e-01,1.49854e-01,2.64924e-01,1.89956e-01,1.90886e-01,1.77530e-02,1.05550e-01,-1.17157e+00,-2.63465e-01,4.73644e-01,6.29019e-03,1.23280e-01,-7.96459e-03,1.13622e-01,
-6.94515e-04,
-1.07334e-03,
1.22093e-01,
-9.12897e-04,
5.09153e-02,
9.86708e-02,
6.05047e-02,
-8.35198e-03,
1.35039e-02,
-3.83467e-03,
1.31443e-02,
2.81579e-02,
3.81812e-02,
-4.37550e-02,
8.47103e-02,
2.16025e-01,
3.44699e-02,
3.10873e-02,
4.32619e-02,
3.42515e-02,
-2.52003e-02,-3.17778e-02,-1.37462e-02,4.40550e-03,-2.36840e-02,-4.53929e-02,3.41482e-02,-6.46367e-04,2.62782e-03,1.54022e-02,4.04448e-02,1.73146e-03,-8.03953e-03,3.88720e-02,4.23695e-02,-2.40750e-02,-4.22453e-02,-2.58484e-02,-6.71150e-03,-4.46094e-02,
6.69647e-03,4.00509e-02,-3.97211e-02,-1.30647e-02,2.12002e-02,-1.70133e-04,-5.35345e-02,-1.51175e-02,-5.11521e-02,-4.91245e-02,-9.48124e-05,7.77166e-03,1.97484e-02,-5.09358e-02,-4.21041e-03,1.67641e-02,5.53990e-04,2.55062e-02,3.45369e-04,8.69226e-03,
-2.33480e-02,-1.08682e-02,-2.54546e-01,3.28184e-03,2.57850e-01,-2.28486e-01,3.32513e-01,2.44377e-02,3.64072e-01,-3.71216e-02,5.33941e-01,2.99297e-01,6.01548e-01,5.31590e-01,-1.12116e-01,2.53924e-01,8.86134e-02,3.49833e-01,2.61185e-01,5.20212e-01,
-2.34715e-02,2.79307e-02,-1.35841e-02,-4.22272e-02,4.77907e-04,-9.05263e-03,-2.97187e-02,-1.44897e-02,1.29588e-02,3.91770e-03,3.60637e-02,-3.31547e-02,4.27733e-02,-1.04678e-02,7.40751e-03,9.67920e-03,-2.37898e-02,-2.14887e-02,-3.22208e-02,3.53245e-02,
-6.69227e-03,4.50431e-02,-2.38611e-02,5.97841e-03,5.50861e-03,-3.29695e-02,-1.63788e-02,-3.29612e-02,4.59656e-02,-1.54370e-02,3.78303e-02,-2.62349e-02,-4.93206e-02,2.49154e-02,3.54715e-02,8.40465e-03,-3.88141e-04,-1.76532e-02,-4.55512e-02,-2.33610e-02,
1.58844e-02,6.73308e-03,2.82248e-01,4.29955e-02,2.83092e-02,2.69649e-01,-6.79232e-02,3.43448e-02,1.01218e-01,3.18330e-02,2.61653e-01,-3.74155e-02,-4.22497e-01,-7.79308e-01,3.00339e-01,-2.53269e-01,-2.70420e-01,-6.65987e-01,5.58083e-02,-9.94323e-03,
2.17694e-02,-3.10676e-02,-2.03431e-01,3.30258e-02,2.90455e-01,-1.88219e-01,2.31679e-01,-1.78650e-02,3.23697e-01,-1.90242e-02,4.54718e-01,3.22510e-01,5.01860e-01,5.59784e-01,-1.17206e-01,2.48875e-01,8.87681e-03,3.55694e-01,2.87757e-01,4.22960e-01,
-3.67414e-02,2.41762e-02,-1.07951e-01,-4.45982e-02,3.06177e-02,-1.72069e-01,1.66882e-01,-4.44691e-02,2.82124e-01,1.53780e-03,4.75049e-01,2.15604e-01,-9.35182e-03,-2.04635e-01,-1.85499e-01,1.83796e-01,-4.28335e-01,-1.77915e-01,-3.76674e-03,5.96845e-01,
4.43802e-03,6.63954e-03,-4.57943e-01,-1.54839e-02,-1.53991e-01,-4.87456e-01,9.66842e-02,-1.63247e-02,-5.92982e-02,-2.10213e-02,-2.57076e-01,1.15752e-01,3.89147e-01,3.66062e-01,-4.90996e-01,6.57132e-01,5.57701e-01,5.71073e-01,-5.45334e-02,-6.49231e-02,
4.80790e-02,1.32477e-03,1.73644e-01,-4.39711e-02,-2.64498e-01,1.67824e-01,-1.46501e-01,-4.53319e-02,-4.20007e-01,3.50835e-02,-7.34419e-01,-1.22306e-01,9.11379e-02,5.68437e-01,1.94281e-01,2.05055e-01,9.35604e-01,6.11114e-01,-1.07695e-01,-5.48653e-01,
4.46354e-02,-1.48144e-02,-5.41827e-01,-2.38458e-03,3.71177e-01,-4.94287e-01,3.83734e-01,-3.32298e-02,3.90751e-01,3.91621e-02,3.08091e-01,3.22626e-01,4.82836e-01,4.29375e-01,-4.95088e-01,3.69847e-01,3.25833e-01,4.14005e-01,3.94890e-01,3.15947e-01,
1.52281e-02,7.78278e-04,1.28416e-02,3.11688e-02,-2.38593e-02,-1.28245e-02,-4.91514e-02,4.85927e-02,-3.81901e-02,5.43522e-03,1.27935e-02,-1.49513e-02,3.76317e-03,2.41335e-02,-2.58771e-02,-3.83161e-02,4.88972e-02,-3.03375e-02,-4.43382e-02,-4.44672e-02,
-9.99776e-03,-8.28405e-03,-3.54195e-01,-3.34294e-03,3.45491e-01,-2.88378e-01,3.14476e-01,-2.77816e-02,3.82621e-01,-1.42536e-02,4.64064e-01,3.47582e-01,4.83612e-01,6.74760e-01,-1.93924e-01,7.77629e-02,2.10909e-01,4.71052e-01,3.34674e-01,3.75388e-01,
-1.62549e-02,-6.01062e-03,-1.07196e-02,1.98437e-02,-1.16043e-02,1.67892e-02,-7.26340e-03,7.92785e-03,6.65156e-03,-3.13233e-02,8.63778e-03,2.14124e-02,-2.61734e-02,-2.43604e-02,-2.51715e-02,-3.91040e-02,9.80560e-03,-3.78500e-02,-2.43534e-02,-4.54761e-02,
-4.38979e-02,6.25800e-03,-1.90633e-02,1.11815e-02,-3.95001e-02,-1.02710e-02,-1.71708e-02,-7.25475e-03,3.95279e-02,-5.29812e-04,8.70606e-04,2.00416e-02,-9.47909e-05,1.13809e-03,3.40582e-02,-5.57123e-02,3.13973e-02,-3.34953e-02,-4.50098e-02,-5.61654e-02,
-2.19154e-02,1.67202e-02,3.70425e-02,-2.24237e-02,-2.29466e-02,4.16390e-02,1.19300e-01,-3.42522e-04,-2.16808e-01,-4.99638e-02,-2.28214e-01,-7.49222e-02,-2.73632e-01,1.73534e-01,7.16884e-02,-5.59161e-03,-7.00866e-01,1.09318e-01,-3.65395e-02,-2.98035e-01,
-8.75278e-03,-4.77210e-02,-6.16293e-01,-3.26674e-02,2.67524e-01,-5.66688e-01,2.78606e-01,-1.68908e-02,3.26025e-01,1.36370e-02,3.22450e-01,3.23867e-01,5.07529e-01,9.04970e-01,-5.05513e-01,3.94929e-02,3.63897e-01,5.83416e-01,2.57046e-01,3.44159e-01,
-3.16961e-02,2.40754e-02,-2.95369e-01,-1.71220e-02,4.08937e-01,-2.48416e-01,3.16143e-01,4.40456e-02,4.65048e-01,1.75003e-02,4.82591e-01,2.78183e-01,6.30344e-01,7.25315e-01,-1.69298e-01,4.06042e-02,1.69650e-02,4.84233e-01,3.63154e-01,4.18592e-01,
-2.27610e-02,1.93611e-02,2.79165e-02,-4.98871e-02,3.69922e-02,-4.14794e-02,-2.40655e-02,-3.49127e-02,-1.16095e-02,-3.51080e-02,-2.39836e-02,3.24777e-02,-9.53835e-03,1.31838e-02,-2.95116e-02,-2.07596e-02,-1.79787e-02,-2.88186e-02,2.20593e-02,-4.25603e-02,
-2.18694e-02,-3.30676e-02,-5.35184e-01,-3.68635e-02,1.26656e-01,-6.43862e-01,2.24726e-01,-2.40212e-02,2.33905e-01,3.68341e-02,3.59366e-01,1.93768e-01,4.84017e-01,4.90741e-01,-6.28848e-01,2.96827e-01,2.59622e-01,4.87425e-01,8.05474e-02,3.25442e-01,
-6.94539e-04,
-1.74421e-03,
5.41499e-02,
-6.94538e-04,
-6.94538e-04,
1.25682e-03,
3.73224e-02,
5.34130e-02,
1.05523e-01,
8.86368e-02,
9.07421e-02,
-6.94525e-04,
-9.66529e-02,
0.00000e+00,
-1.05758e-03,
5.44150e-02,
-5.27162e-02,
-5.96400e-02,
0.00000e+00,
8.12148e-02,
3.59496e-02,4.17849e-02,1.58707e-01,2.93709e-02,3.73341e-02,-9.61472e-01,9.16589e-02,1.79986e-01,6.26498e-02,1.35467e-03,3.87952e-01,-2.86474e-02,4.89544e-01,-4.92376e-02,-6.58906e-03,3.54061e-01,2.18437e-01,3.19934e-01,-5.06869e-03,8.30647e-02,
-1.91423e-02,1.39466e-02,4.23837e-03,-4.06112e-02,3.37613e-02,-8.87421e-03,-3.92751e-02,-1.51246e-02,1.60909e-02,1.03189e-02,-1.79266e-02,3.07472e-02,-4.50965e-02,-2.03340e-02,3.88083e-02,-2.64732e-02,-2.82827e-02,-5.20353e-02,-1.08973e-02,-6.28581e-03,
-4.24929e-02,-3.42027e-02,2.34330e-01,-3.94380e-02,1.12111e-02,-1.60960e-01,1.23883e-01,-2.69566e-01,-5.81401e-02,5.94961e-02,3.50914e-01,4.10877e-02,-4.83689e-02,3.06276e-02,2.61547e-03,2.85790e-02,-2.22366e-01,5.32819e-02,2.96747e-02,-3.18050e-01,
-3.82779e-02,-1.12350e-02,-4.58240e-01,2.70401e-02,3.63342e-02,-7.86072e-02,-3.97486e-01,-8.02575e-02,1.25453e+00,1.85310e-01,1.84823e-01,4.65217e-02,-5.16225e-01,2.00403e-03,3.98581e-02,-3.75282e-02,-4.18266e-01,-4.90793e-01,3.23894e-02,-4.53194e-01,
3.39695e-02,2.81188e-02,1.55048e-01,-4.15477e-02,1.87930e-02,-1.13656e+00,2.23796e-01,-4.36344e-01,-7.26391e-02,5.57188e-01,5.38131e-01,-2.84943e-02,1.41008e-01,4.64454e-02,3.51290e-03,5.37244e-01,9.99368e-01,2.02474e-01,-3.36013e-02,4.04467e-01,
-5.31870e-03,-1.63701e-02,1.84813e-01,2.70798e-02,-4.43141e-02,-2.24063e-02,1.50803e-01,-7.37365e-01,-5.71028e-02,1.66932e-01,9.87523e-02,-4.90409e-02,-1.40151e-01,-4.03940e-02,-6.60290e-03,7.15507e-02,5.84469e-01,3.15805e-01,-4.24362e-02,-1.13609e-02,
-1.90155e-03,-3.96012e-02,-2.66836e-01,-3.41876e-02,4.81817e-03,-2.62517e-01,-1.36896e-01,-2.29221e-01,4.40915e-01,1.46839e-01,2.66704e-01,-1.09951e-02,-1.19031e-01,-2.59963e-02,4.08018e-02,2.09345e-01,5.78967e-01,-1.22409e-01,4.45105e-02,4.70712e-01,
1.21065e-02,1.22201e-02,3.95374e-02,-3.22143e-02,2.35295e-02,7.59094e-02,2.08627e-03,-2.96267e-01,-2.42715e-01,3.53333e-02,2.72536e-01,-2.49383e-02,5.45473e-01,8.14869e-03,-5.77684e-03,1.05041e-01,-5.91864e-01,1.12243e-01,-4.81393e-02,-7.61960e-01,
3.99213e-02,3.17502e-03,-4.46599e-02,1.50123e-02,-9.72332e-03,-3.77533e-01,4.07007e-02,2.65804e-01,8.51390e-02,6.99558e-02,3.53025e-01,-3.05316e-02,9.72246e-02,2.85824e-02,-2.53243e-02,-3.63948e-02,-2.99538e-01,-1.91171e-01,1.70734e-02,4.23349e-01,
8.75727e-03,-3.54191e-02,-7.22494e-01,-1.41043e-02,-4.00039e-02,1.00657e-01,5.76697e-04,-2.11717e-01,8.73524e-01,2.25907e-01,-9.47913e-01,-4.11969e-02,-6.73000e-01,-4.24892e-02,-1.22502e-02,-2.60246e-01,1.41847e-03,-3.52624e-01,8.45837e-03,1.02171e-01,
-2.98043e-02,-2.33752e-03,-5.03313e-02,-1.76509e-02,-3.18167e-02,-2.26363e-02,-5.26623e-02,-4.27058e-02,-1.99976e-02,2.69087e-02,-5.11730e-02,3.15351e-02,-4.08340e-02,2.87842e-02,2.73885e-02,-2.96042e-02,-2.31284e-02,6.89651e-03,-6.38087e-03,-4.79955e-02,
-4.70812e-02,1.92178e-02,-2.98270e-02,1.53815e-02,-2.38417e-02,-4.45255e-02,-3.69047e-02,-6.22911e-03,2.28526e-02,-7.24516e-03,-3.31105e-02,-2.47330e-02,-4.21115e-02,-2.41163e-02,6.79043e-03,1.45175e-02,-1.94749e-02,-1.14535e-02,1.03101e-02,-3.69297e-02,
-3.23973e-02,-3.40825e-02,3.66035e-01,2.89434e-02,7.29484e-03,-5.79524e-01,2.85754e-01,-6.15951e-02,-7.08162e-01,-4.34552e-01,3.51770e-01,-4.45576e-02,5.37699e-01,-3.24419e-02,1.88046e-02,2.56962e-01,-1.63870e-01,4.19689e-01,2.74230e-02,-2.88803e-01,
-4.00199e-02,-4.41612e-02,4.09169e-01,1.58451e-02,-3.33796e-02,-8.45540e-03,2.09035e-01,-6.64605e-02,-6.87415e-01,-7.32267e-02,-2.29266e-01,-3.75933e-02,4.68306e-01,-2.15846e-02,-2.57506e-02,-1.67631e-02,-4.11909e-01,5.43721e-01,3.37181e-02,-7.13527e-01,
9.10862e-03,-1.87945e-02,2.13296e-01,4.68226e-02,-4.08936e-02,-6.91136e-01,2.36451e-01,7.13324e-01,-2.97012e-01,-4.54983e-01,5.40834e-01,-7.41974e-03,4.24119e-01,-3.11008e-02,2.09924e-02,3.95278e-01,3.43867e-01,3.09595e-01,3.33103e-02,4.02707e-01,
3.63761e-02,4.87549e-02,3.43649e-01,-1.43816e-02,-2.85611e-02,-3.36820e-01,2.59988e-01,8.23449e-02,-4.62752e-01,-1.19410e+00,3.48215e-01,-3.07509e-02,4.02912e-01,-1.81037e-02,-1.90210e-02,5.70266e-03,1.84362e-01,3.67158e-01,1.34687e-02,3.36149e-03,
4.31580e-03,1.92580e-02,-5.11819e-02,-5.76573e-03,-2.91696e-02,-3.31850e-02,-6.60821e-03,-3.36604e-02,-2.97817e-02,5.32801e-03,4.40601e-02,3.13593e-02,-4.08603e-02,-2.21993e-04,-1.96724e-03,-3.55114e-02,-1.92385e-02,-5.03590e-02,4.84558e-03,3.98681e-03,
-4.04348e-02,-3.08471e-02,-3.51690e-02,-4.09908e-02,1.53396e-02,5.91156e-02,-7.88357e-02,-1.74741e-01,1.68444e-01,7.64759e-02,4.19118e-01,-1.71495e-03,-1.03867e-01,4.58348e-02,-3.01217e-03,-9.57136e-02,4.63896e-01,4.00989e-02,-5.09512e-03,4.20136e-01,
3.65466e-02,3.68079e-03,-9.83438e-03,3.10418e-03,-2.90199e-02,-6.78013e-03,-2.53153e-02,-3.58493e-02,-3.81007e-02,-1.85446e-02,5.86610e-03,8.23983e-03,-4.00024e-02,-1.92513e-02,-7.97070e-03,-9.18831e-03,-4.65989e-02,4.58284e-03,-3.67403e-02,-1.58222e-02,
7.25071e-03,4.16912e-02,1.84745e-01,4.01181e-02,-3.16165e-02,6.53354e-02,2.00865e-01,-5.53221e-02,-1.37206e-01,-9.15402e-02,8.46824e-02,-4.37662e-02,4.86672e-01,-9.59669e-03,1.66069e-02,8.79716e-03,1.52208e-01,5.25910e-01,-1.04932e-02,-2.42580e-01,
6.02086e-03,
-3.95124e-03,
1.61677e-02,
5.48623e-02,
-8.88690e-02,
8.94461e-03,
3.77235e-02,
4.10934e-02,
9.60786e-02,
1.10973e-01,
-1.28867e-02,
-7.25234e-03,
-2.43937e-02,
4.55536e-02,
3.43961e-02,
-1.53241e-01,
-7.04294e-03,
5.08151e-02,
0.00000e+00,
7.19534e-03,
-3.12502e-01,-4.97186e-02,1.18016e-01,-3.32293e-02,-1.64151e-01,5.22378e-02,4.19351e-02,7.35857e-02,-5.74963e-02,-3.15019e-02,1.47944e-02,-3.37249e-02,-1.81491e-01,3.08239e-03,-1.43650e-01,-7.15064e-01,-2.90480e-02,7.26254e-02,3.91966e-02,-7.55303e-02,
-4.71223e-01,5.65129e-03,-3.98664e-02,-3.71218e-01,-3.05623e-01,-3.10366e-01,1.24408e-01,-3.66160e-01,4.37533e-02,3.60933e-01,-1.17173e-02,-4.16508e-02,-1.15699e-01,1.74866e-01,6.56410e-02,-4.04762e-01,-1.07648e-02,-9.85443e-02,-4.83123e-02,-4.62925e-02,
-2.42640e-01,1.28088e-02,3.98025e-02,-5.37768e-02,3.27562e-01,8.12995e-03,3.21855e-01,7.88160e-03,-1.97956e-01,7.01147e-02,3.93570e-02,3.04299e-02,-3.26814e-01,1.25083e-01,-4.96439e-01,-6.42411e-01,-2.07318e-02,-1.62565e-01,2.44227e-02,-1.15412e-01,
-4.99232e-02,2.39159e-02,2.43065e-02,-2.35014e-01,-3.72349e-01,-1.16998e-01,-3.51592e-01,-1.53863e-01,1.48193e-01,3.12870e-01,4.32210e-03,-3.03917e-02,-2.54417e-01,-2.27891e-01,1.29239e-02,-1.67490e-01,-2.73528e-02,-1.11566e-01,-4.32971e-02,-2.98578e-01,
-1.53260e-01,3.97100e-02,-1.42887e-01,5.32517e-02,1.53842e-01,5.08349e-02,2.98195e-01,-2.16424e-01,-1.24013e-01,4.48786e-02,1.49803e-02,-2.86849e-02,-5.90697e-01,4.64083e-03,-3.16088e-01,-6.36891e-01,3.76759e-02,-8.56742e-02,-4.67656e-02,7.13172e-02,
-8.04247e-02,-5.11407e-02,-2.36542e-02,-2.72457e-01,-6.40206e-01,-2.67749e-01,-1.54484e-01,1.65732e-01,1.23287e-01,3.63927e-02,-1.50629e-02,3.35347e-03,1.06174e-02,1.81384e-01,-8.90639e-02,1.14539e-01,3.99101e-03,-1.68064e-01,-4.18164e-02,-5.93404e-02,
-1.16111e-01,2.62602e-02,-2.17261e-02,-3.84318e-01,-6.34691e-02,-2.79412e-02,1.25655e-01,-1.89577e-01,1.79190e-01,-5.21058e-02,1.79306e-02,-2.80887e-02,-3.95013e-01,-7.70980e-01,-3.16747e-02,-4.32979e-01,3.86600e-02,1.84511e-01,-3.80491e-02,-1.71527e-01,
-7.06437e-02,4.53872e-02,6.38481e-02,-3.72872e-01,-2.25123e-01,-1.27843e-01,-8.09882e-02,-2.48129e-01,3.25117e-02,4.39699e-01,1.89251e-02,3.30132e-02,-1.62552e-01,-1.78847e-01,-1.06112e-01,-9.22649e-02,-5.55713e-03,-2.64886e-01,-4.65401e-02,-2.74721e-01,
-1.48783e-01,-4.62651e-03,-1.09712e-01,-4.77891e-01,-1.15395e-02,-1.00115e-01,3.44460e-01,-4.74667e-01,6.19296e-04,5.35290e-01,-4.86752e-03,-2.21202e-02,-1.70218e-01,-1.56849e-01,-1.01653e-01,-4.89039e-01,-1.17570e-02,-4.19027e-01,4.83839e-02,-2.38337e-01,
2.20967e-02,
-1.25907e-02,
1.70501e-02,
-9.66486e-03,
2.36138e-02,
4.25202e-03,
6.47588e-02,
-4.39378e-02,
-1.34507e-02,
