// Neural Network File Format by Kyle Julian, Stanford 2016
6,3,9,20,
3,20,20,20,20,20,9,
0,
-8000.0,-100.0,0.0,
8000.0,100.0,40.0,
0.0,0.0,20.0,-0.7194709316423972,
16000.0,200.0,40.0,26.24923585890485,
9.02994e-01,-1.77890e-01,-9.49714e-02,
-3.88878e-01,-2.57745e-01,-2.49191e-01,
4.60252e-02,-2.08496e-01,-7.34139e-03,
-8.36584e-01,5.10995e-02,-2.14115e-01,
6.76203e-01,-1.17985e-01,-2.22334e-01,
7.18283e-01,-5.91745e-02,-2.00494e-01,
7.86016e-01,-4.66607e-02,-1.84859e-01,
1.39178e+00,-2.28034e-02,-1.07130e-01,
1.69301e+00,-6.12573e-02,-3.94224e-02,
-2.31213e-01,-2.29296e-01,-3.28251e-02,
8.40045e-01,-1.61760e-02,-1.92188e-01,
1.20274e+00,7.80898e-04,-1.42599e-01,
2.09700e+00,-1.24278e-01,3.48088e-02,
1.18586e+00,-2.49471e-01,-6.60865e-02,
1.62996e+00,1.04265e-02,-1.72243e-01,
1.00756e+00,-5.77234e-02,-2.01395e-01,
-5.70039e-01,1.85284e-01,3.90489e-02,
-3.00835e-01,-2.44483e-01,6.67715e-02,
-4.73248e-01,1.83562e-01,-2.77782e-01,
8.39560e-01,-2.61823e-01,-1.34996e-01,
-1.20989e-02,
-9.43322e-02,
1.00949e-01,
-9.28065e-02,
-1.00062e-02,
-5.51362e-02,
3.58103e-03,
-5.82995e-03,
-7.27451e-03,
-1.25947e-01,
-9.68217e-02,
2.39707e-02,
1.73357e-02,
-2.80012e-02,
-3.01268e-02,
-6.31404e-02,
9.50975e-02,
-1.69437e-02,
-4.17967e-02,
1.84545e-02,
-2.69317e-01,1.99076e-01,2.51301e-02,-2.09518e-01,1.24901e-01,1.64179e-01,2.17945e-01,2.55489e-01,6.40922e-02,2.83579e-01,-2.00927e-01,1.92542e-01,-6.65406e-01,-8.90647e-02,3.73862e-01,1.98535e-01,2.48908e-02,8.41753e-02,5.85619e-03,-1.87713e-01,
2.23937e-01,3.46964e-02,6.57676e-02,4.19631e-01,1.22813e-01,1.89993e-01,1.51955e-01,-9.69214e-02,-2.19997e-02,3.04855e-02,2.68274e-01,1.74804e-01,7.62326e-01,2.05761e-01,-5.32681e-02,1.27511e-01,-1.99377e-01,1.98382e-01,2.16416e-01,1.64657e-01,
-4.18823e-02,2.25214e-01,9.55980e-02,-5.60259e-02,1.26018e-01,9.64528e-02,1.10351e-01,1.60379e-01,1.07263e-01,4.43500e-01,3.81532e-01,6.53695e-02,-8.15772e-01,-1.80210e-01,1.46444e-01,8.64564e-02,-7.38735e-02,4.87732e-02,-9.57110e-02,1.34591e-02,
-7.87183e-02,1.19211e-01,1.29971e-01,-1.66821e-01,1.76834e-01,2.58169e-01,1.64358e-01,2.61071e-01,1.22689e-01,3.06825e-01,1.23333e-01,1.59896e-01,-6.00452e-01,4.69960e-02,2.39106e-01,2.57296e-01,-9.09023e-03,-9.28833e-04,-7.81416e-02,3.83762e-02,
-5.04728e-02,-2.20101e-02,-2.23717e-02,-3.16735e-02,1.43757e-02,7.53972e-03,1.27693e-02,-2.44491e-02,2.28002e-02,-3.55411e-02,-4.85528e-02,-1.80852e-02,-5.68795e-03,-3.80695e-02,-6.61237e-04,2.21442e-02,-4.26929e-02,4.78846e-02,-4.82420e-02,4.24883e-02,
-1.01206e-01,-7.87973e-02,2.30909e-01,-2.97742e-01,6.52131e-02,1.31218e-01,1.87059e-01,5.54011e-01,6.65646e-01,1.95961e-01,-5.01698e-01,1.43883e-01,1.60997e-01,-4.78734e-01,5.70225e-01,3.69505e-01,1.86747e-01,-1.72727e-01,-3.76185e-01,-1.52197e-01,
5.79455e-02,-3.61515e-01,1.40717e-01,-6.56250e-02,1.86024e-01,1.30365e-01,1.07857e-01,1.12285e-01,2.48749e-02,-2.42160e-01,-8.82515e-01,1.74378e-01,-1.00768e+00,-1.63489e-02,1.18914e-01,1.64058e-01,-6.53053e-02,-2.69004e-01,-1.27224e-01,1.70168e-01,
-1.38385e-01,1.21940e-01,1.26658e-01,-5.40510e-01,1.20619e-01,1.23183e-02,1.18976e-01,8.92120e-02,-2.82146e-01,2.03945e-01,-4.88831e-01,2.45319e-01,-9.51275e-01,1.98412e-01,4.45322e-02,-1.21136e-01,-1.53863e-01,-2.90256e-01,-2.00644e-01,3.05469e-02,
-2.35960e-01,1.53333e-01,1.72738e-01,-2.70889e-01,1.49733e-01,1.33748e-01,2.12242e-01,2.44446e-01,2.14526e-01,4.37891e-01,-2.52297e-01,2.43149e-01,-4.12693e-01,-1.13548e-01,2.11773e-01,2.04598e-01,-4.04262e-02,-2.77852e-02,-2.22661e-01,-1.28582e-01,
4.48394e-03,7.60296e-03,6.66542e-03,-2.80830e-02,-5.08956e-02,1.89891e-02,-1.14499e-03,-1.98977e-02,1.85229e-03,-3.44341e-02,3.63326e-02,4.33857e-02,-5.83205e-03,3.61638e-02,-1.52027e-02,-1.85943e-02,-2.95016e-02,-5.35793e-02,4.27856e-02,-5.40489e-02,
-1.24696e-02,5.78962e-04,1.93198e-01,-9.64222e-02,1.12872e-01,1.86829e-01,1.73209e-01,1.91690e-01,2.06749e-01,4.91926e-01,-2.87572e-01,1.66616e-01,-3.33486e-01,-2.18475e-01,2.13738e-01,2.56047e-01,8.18786e-02,-2.40033e-02,-4.07891e-01,-1.86543e-03,
8.29247e-02,2.48815e-01,1.06820e-01,1.23525e-01,1.41455e-01,1.62094e-01,8.36303e-02,2.77218e-02,-5.88538e-02,-1.91514e-01,4.50663e-01,1.87310e-02,-9.26935e-01,-1.06446e-01,9.97225e-02,1.02158e-01,-2.46005e-03,-1.46510e-01,-3.40905e-02,1.24776e-01,
2.27429e-01,-1.40841e-01,-8.55983e-05,1.20406e-01,1.74908e-02,3.56212e-02,8.22174e-02,-2.28171e-02,-5.12645e-01,6.80062e-02,-6.40871e-01,2.50960e-02,-2.27429e+00,-2.00278e-01,5.88376e-02,2.36895e-02,7.37907e-02,-1.76201e-01,1.49951e-01,4.49318e-02,
2.63055e-01,-2.33005e-01,-3.88894e-02,2.07628e-01,2.29760e-02,4.11509e-02,8.70996e-02,9.70369e-04,-4.54725e-01,-4.45917e-01,-5.60726e-01,-2.17172e-02,-1.91628e+00,1.79092e-02,7.19632e-02,6.10651e-02,6.88701e-02,-2.46093e-01,1.57773e-01,-3.59638e-02,
8.29018e-03,2.25687e-03,-3.27849e-02,1.05115e-02,1.23883e-02,-4.26506e-02,-2.41599e-02,2.04553e-02,-2.58372e-02,7.91281e-03,-3.63128e-02,-3.38950e-02,-3.22666e-02,2.30992e-02,1.74020e-02,-6.12122e-02,-2.76642e-02,3.05629e-02,-1.86028e-02,-1.36611e-02,
1.27506e-01,1.65438e-01,1.12379e-01,-4.83222e-01,1.35301e-01,1.01722e-01,8.00798e-02,1.50650e-01,1.75425e-01,6.08239e-01,-2.40842e-01,9.97481e-02,-5.18122e-01,1.92097e-02,1.48975e-01,-6.55196e-02,-1.11194e-01,3.99054e-02,-3.02426e-01,7.68846e-02,
-5.28731e-02,1.13016e-01,1.21184e-01,-4.02382e-01,1.85834e-01,1.49692e-01,1.17602e-01,8.47085e-02,3.58083e-02,6.21239e-01,-4.13627e-01,2.30754e-01,-7.56554e-01,8.08598e-02,6.33956e-02,1.52868e-02,-3.65684e-02,-1.03436e-01,-2.55605e-01,1.05259e-01,
1.52603e-01,-3.33338e-01,1.09214e-01,2.84901e-01,1.52553e-01,2.16162e-01,1.83260e-01,8.49823e-02,-6.61538e-02,-1.91068e-01,-8.02831e-03,7.52360e-02,-8.72778e-01,-2.56479e-02,1.04081e-01,2.12138e-01,-7.20283e-02,-5.19642e-01,7.80360e-03,1.11196e-01,
1.95402e-01,6.00131e-02,-7.22862e-02,2.57557e-01,-3.16195e-02,7.13677e-02,4.21198e-02,1.08068e-01,3.63536e-01,-4.63614e-01,2.09912e-01,-1.30991e-02,2.61590e-01,-7.06274e-01,2.38347e-01,7.58110e-02,2.38081e-01,-7.28297e-02,1.60675e-01,2.04963e-01,
3.43888e-02,2.25434e-01,5.09286e-02,1.93449e-01,1.38010e-01,1.58530e-01,1.52895e-01,5.52036e-02,-8.98116e-02,-2.51568e-01,2.31330e-01,8.95200e-02,-1.08422e+00,-1.11241e-01,5.00867e-02,1.42425e-02,2.04012e-02,-7.29457e-02,-6.29781e-02,1.47218e-01,
-9.16795e-03,
-5.69486e-02,
-3.76237e-02,
-4.15169e-02,
-8.27197e-03,
4.54483e-02,
-4.68715e-02,
2.08438e-02,
-2.65759e-02,
-3.76437e-03,
-2.23013e-02,
-5.44065e-02,
-3.25307e-02,
-3.48698e-02,
-1.02955e-02,
-2.56078e-02,
-1.84241e-02,
-6.37879e-02,
-3.16192e-02,
-3.95909e-02,
6.64522e-01,-1.10793e+00,-1.00915e-01,1.94329e-01,5.27097e-03,-1.43990e-01,9.39831e-02,3.25955e-01,-1.01454e-01,4.20592e-02,-3.42050e-01,6.49673e-01,6.31919e-01,1.85066e-01,-2.58968e-03,-2.15354e-01,-1.16089e-01,3.88037e-01,-5.11663e-01,8.55386e-01,
2.27581e-01,-5.87563e-01,1.56127e-01,2.14506e-01,1.22517e-02,2.08421e-01,5.19079e-01,1.40308e-01,1.77036e-01,-3.08597e-02,8.03647e-03,2.68094e-01,5.88425e-01,5.06890e-01,1.19734e-02,1.68792e-01,1.62978e-01,6.51660e-01,-6.77027e-01,2.46000e-01,
-1.00323e-02,-1.07906e-02,-4.49560e-02,-7.40154e-03,2.41651e-02,-4.43494e-02,-2.36081e-02,3.79680e-02,-2.23356e-02,1.13178e-02,5.43592e-03,2.23950e-02,3.05020e-02,-1.67303e-02,-1.99577e-02,-2.49532e-02,-1.02375e-02,-4.24823e-02,3.97145e-02,2.57545e-02,
4.30655e-01,-5.72575e-01,2.15612e-01,3.43273e-01,-1.18467e-03,1.70271e-01,5.57899e-01,1.51417e-01,2.27567e-01,-1.93232e-02,1.26109e-01,2.94373e-01,8.66822e-01,7.70746e-01,-2.33371e-02,2.13930e-01,2.64596e-01,6.19665e-01,-4.86097e-01,3.14061e-01,
4.63593e-01,-8.19851e-01,1.24099e-01,3.19637e-01,-2.31054e-03,2.64151e-01,5.10648e-01,1.54639e-01,3.66767e-01,-3.97530e-02,2.08064e-01,8.83415e-02,8.80697e-01,7.06755e-01,-3.72778e-02,-1.67763e-01,4.44154e-02,6.36124e-01,-2.75405e-01,-4.91035e-03,
1.48216e-01,-4.38208e-01,3.36335e-01,1.54472e-01,-5.83739e-03,1.81650e-01,6.28994e-01,1.35942e-01,3.33305e-01,-3.58677e-02,2.70945e-01,1.12985e-01,7.75352e-01,9.06690e-01,-8.91019e-03,4.71498e-01,3.14539e-01,6.58499e-01,-5.86936e-01,6.56679e-02,
1.51053e-01,-4.79385e-01,3.84439e-01,2.07884e-01,-3.31267e-02,3.03247e-01,6.04155e-01,5.12772e-02,3.57074e-01,2.21693e-02,2.81366e-01,-1.66253e-02,5.99246e-01,6.09178e-01,4.76829e-03,4.95921e-01,3.66534e-01,6.38197e-01,-7.06771e-01,-2.31916e-02,
1.64394e-01,-4.70631e-01,5.13560e-01,-8.96222e-02,7.78337e-03,4.34858e-01,5.85501e-01,-4.37486e-01,1.35024e-01,-2.62263e-02,1.80721e-01,1.75256e-01,4.22568e-01,4.71278e-01,-3.19436e-02,1.55477e-01,5.89516e-03,6.04836e-01,-1.57189e-01,9.10645e-02,
-2.73645e-01,-1.04343e-01,1.87276e-02,-2.41784e-01,-3.75790e-02,-2.38710e-02,-9.63262e-02,-7.97226e-02,-2.40049e-01,-2.31888e-02,-3.17775e-01,1.12142e-01,-3.96064e-01,-5.59356e-01,-2.29857e-02,-1.21250e-01,-4.75080e-02,6.60027e-02,1.44916e-01,8.40132e-02,
4.84803e-01,-7.50755e-01,-1.54270e-02,3.01332e-01,-3.95506e-02,2.27248e-01,2.86663e-01,-1.87257e-01,2.50395e-01,4.80293e-03,4.80021e-02,-5.88689e-02,1.11671e+00,8.45428e-01,-3.75780e-02,6.07745e-02,-5.60116e-02,5.24948e-01,-5.86598e-01,-1.53480e-01,
-9.48050e-02,6.57603e-01,-7.63362e-02,5.46465e-02,-4.34372e-02,-3.18886e-02,-4.45855e-01,-1.69911e-01,-9.15349e-04,1.23534e-02,2.92275e-02,-2.44813e-01,-7.86829e-01,-7.76954e-01,-2.98890e-02,-1.25702e-01,-1.85499e-01,-4.69616e-01,5.10659e-01,-1.84408e-01,
4.05062e-01,-6.38589e-01,7.08575e-02,2.30669e-01,4.62646e-02,2.08154e-01,4.42615e-01,1.87997e-01,1.73914e-01,3.39792e-02,3.40925e-02,2.79067e-01,8.25162e-01,6.50030e-01,-3.74250e-02,1.70315e-01,1.33758e-01,5.78261e-01,-5.34692e-01,2.22632e-01,
2.05673e-01,-6.45977e-01,1.52752e-01,1.36374e-01,3.83878e-02,2.82956e-01,5.19365e-01,-3.69584e-02,2.18214e-01,-3.70102e-02,2.60801e-01,1.40129e-01,7.25012e-01,6.35059e-01,-2.59967e-02,2.50938e-01,2.05423e-01,6.79755e-01,-4.71772e-01,1.12106e-01,
1.81529e-02,-5.03826e-02,-2.05519e-03,1.44532e-02,1.76997e-02,-1.36091e-02,4.16338e-02,-1.87194e-02,-3.98455e-02,4.45580e-02,-3.03936e-02,-3.87867e-02,-1.47375e-02,-5.02285e-02,1.44000e-03,3.75013e-02,3.07033e-02,3.38920e-02,-3.78686e-02,-2.42183e-02,
1.84692e-01,-6.14898e-01,5.16872e-01,8.63152e-02,2.32631e-03,3.02836e-01,4.02197e-01,-3.28657e-01,3.12384e-01,-1.50743e-02,3.71338e-01,7.17905e-02,9.73216e-01,1.00940e+00,2.93643e-02,1.60785e-01,1.84892e-02,6.17997e-01,-6.90357e-01,1.62028e-02,
3.44855e-01,-6.84909e-01,4.81771e-02,1.07199e-01,-2.18661e-02,3.23782e-01,4.14815e-01,1.31357e-01,3.35803e-01,2.91945e-02,2.21655e-01,6.49193e-02,7.10686e-01,6.16744e-01,1.62184e-02,1.28676e-01,1.53524e-01,5.93708e-01,-3.33270e-01,6.57111e-02,
2.08038e-01,-3.56570e-01,-2.21160e-01,-4.90470e-01,-1.35484e-02,2.68398e-01,-6.46774e-01,2.78969e-02,1.72588e-01,-2.03417e-02,8.59580e-02,-2.55386e-01,-5.72945e-01,-6.61147e-01,-1.07110e-02,-7.02401e-01,-9.58291e-02,-5.52996e-01,5.81732e-01,-3.50477e-01,
2.24294e-01,-5.00112e-01,2.35994e-01,7.81691e-02,-2.33357e-02,2.22647e-01,6.11179e-01,6.60972e-02,2.86416e-01,5.92645e-03,2.41138e-01,1.28484e-01,3.90377e-01,4.02287e-01,-3.51759e-02,3.15811e-01,2.98622e-01,6.63393e-01,-5.06698e-01,1.52522e-01,
1.85027e-01,-2.60512e-01,2.00521e-01,2.68544e-01,1.77074e-02,2.31164e-01,8.05001e-01,2.79418e-01,3.16414e-01,-3.79373e-02,1.70262e-01,1.62668e-01,-6.11914e-03,-2.34861e-01,-1.38570e-02,3.57768e-01,3.42209e-01,6.30243e-01,-8.08635e-01,1.10215e-01,
-5.60248e-02,1.20996e-01,-4.44708e-01,2.44596e-01,-2.40039e-02,5.57456e-01,6.49409e-02,-6.72970e-01,1.66249e-01,-3.32265e-02,3.32184e-01,-5.16948e-01,-6.34868e-01,-2.58193e-01,-1.66339e-02,-3.73107e-01,-4.89780e-01,-1.51328e-01,3.03056e-01,-4.00858e-01,
2.80335e-02,
-4.00018e-03,
-1.26025e-02,
-4.49487e-02,
-4.96239e-02,
-7.80872e-03,
-2.95697e-02,
-3.59177e-02,
4.30295e-02,
-2.66661e-02,
1.09398e-01,
-2.12679e-02,
-1.19378e-02,
-8.42870e-03,
-2.57616e-02,
-3.33049e-02,
-1.28927e-01,
6.27227e-03,
-5.40802e-03,
-4.78443e-02,
5.78447e-01,3.35137e-01,-1.90532e-02,7.35907e-02,1.28227e+00,1.77173e-01,4.89012e-02,3.00505e-01,-2.00297e-01,8.42341e-01,-3.29415e-01,3.96996e-01,3.42760e-01,-8.07885e-04,3.08207e-01,4.87319e-01,1.31708e+00,1.72849e-01,3.41972e-03,3.21478e-02,
-1.55834e-02,2.94146e-02,-3.70863e-02,3.27114e-02,-3.80614e-02,-4.87956e-02,-4.95595e-02,-4.21584e-02,-4.02523e-02,2.88483e-02,-4.95406e-02,7.80710e-03,6.18950e-03,2.26544e-02,3.25716e-02,-2.64625e-02,4.22471e-02,2.55428e-02,2.41730e-02,-4.18827e-02,
2.10962e-01,1.57947e-01,1.59736e-02,1.53723e-01,9.18048e-01,5.60481e-02,-5.54006e-02,3.29222e-01,-2.81836e-01,4.62705e-01,-1.10779e-01,1.71842e-01,2.61259e-01,4.20514e-02,1.97272e-01,4.69727e-01,1.25420e+00,1.63098e-01,1.65259e-02,-2.06821e-01,
4.68320e-01,3.95126e-01,-1.34450e-02,3.62165e-01,4.17333e-01,-8.96355e-02,-3.70534e-01,2.33679e-01,-2.08026e-02,1.94833e-02,-1.04999e-01,4.57438e-01,6.23317e-02,-4.20282e-02,-5.46117e-01,2.01891e-01,1.36977e+00,7.17764e-02,2.08444e-01,-1.71490e-01,
-3.64903e-02,5.75757e-01,2.38528e-02,7.92477e-01,1.84007e-01,3.60459e-01,4.76763e-01,5.87646e-02,-6.08398e-02,5.62212e-02,-2.97842e-01,5.60414e-01,2.21054e-01,2.96178e-04,1.32944e-01,2.23749e-01,3.83317e-01,3.76005e-01,8.09822e-01,-1.57066e+00,
-2.99158e-01,4.46655e-01,3.49507e-02,4.07441e-01,1.01062e+00,4.11562e-01,6.48385e-01,5.47586e-01,-1.67656e-01,5.93630e-01,-2.65857e-01,4.27436e-01,4.13057e-01,-1.71924e-02,6.24679e-01,6.08280e-01,1.16644e+00,4.19118e-01,3.46056e-01,5.68209e-02,
-1.47714e-01,2.95818e-01,4.00366e-02,1.52298e-01,1.12699e+00,2.95951e-01,4.17067e-01,4.93399e-01,4.55757e-02,6.95449e-01,-2.00121e-01,1.37715e-01,4.25569e-01,4.21391e-02,1.17546e+00,2.93010e-01,1.47326e+00,2.28197e-01,8.76399e-02,-6.14251e-01,
7.21440e-01,4.32389e-01,-3.59847e-02,5.55080e-01,7.40738e-02,9.94336e-02,1.43608e-02,-1.91274e-01,4.15445e-02,2.17967e-01,-3.32098e-01,5.62087e-01,1.05388e-01,2.76704e-02,-1.47255e-01,2.32818e-01,3.21837e-01,1.08094e-01,4.67587e-01,-1.91066e+00,
-9.52304e-01,1.38575e-01,-4.67401e-02,-3.89856e-03,-3.74845e-02,3.19555e-01,1.62322e-01,5.42955e-01,-3.04768e-02,-5.78420e-01,-1.07958e-01,-1.30749e-01,3.41700e-01,2.94771e-02,2.69374e-01,1.48339e-01,3.87831e-01,1.84317e-01,5.80657e-01,7.55495e-02,
4.42662e-01,1.31798e-01,2.37154e-02,1.82565e-01,8.15959e-01,-4.22703e-02,-2.16334e-01,4.92332e-01,-3.69492e-01,4.61107e-01,-2.54036e-02,2.35443e-01,1.92193e-01,3.02176e-02,-1.51644e-01,4.47023e-01,9.76048e-01,1.23443e-01,-9.60262e-02,-1.81386e-01,
-2.67136e-02,-2.96328e-02,-3.30146e-02,2.02751e-03,-4.08753e-02,-2.18016e-02,-2.42958e-02,-3.37461e-02,2.81729e-02,-4.57825e-02,-6.72595e-03,-4.89487e-02,3.82023e-02,1.82443e-03,-3.21447e-02,8.36578e-03,-2.59188e-02,-1.84944e-02,-2.14619e-03,-1.42666e-03,
3.50403e-02,-1.32018e-02,-2.25731e-02,-4.35492e-02,-1.63567e-02,9.37586e-03,-5.58912e-02,-6.32568e-04,-2.37875e-02,-1.19280e-02,-2.59519e-02,-2.70627e-02,1.67479e-02,1.16250e-02,2.79963e-02,-2.10209e-02,4.03635e-02,8.25524e-03,-5.52155e-02,1.63429e-03,
7.21578e-01,1.53947e-01,2.78102e-02,8.30000e-02,9.08421e-01,-2.10218e-01,-3.99073e-01,3.94145e-01,-3.55592e-01,6.25247e-01,-6.91007e-02,3.39438e-01,1.40127e-01,-1.27862e-02,-2.30555e-01,5.08333e-01,1.08743e+00,1.52377e-02,-2.60046e-01,-3.01480e-01,
-1.76634e-02,-2.49239e-02,3.45712e-02,4.42930e-02,3.44787e-02,-3.82236e-02,-4.70084e-02,1.86372e-02,-3.66001e-02,3.95849e-02,-5.63891e-03,2.16920e-02,-1.44705e-03,-1.94498e-02,2.96001e-02,-1.49910e-02,6.91972e-04,-4.84274e-02,-1.26478e-02,-1.78629e-02,
5.45579e-01,3.57572e-01,-2.47810e-02,2.21448e-01,8.70291e-01,7.37758e-02,-1.80257e-01,2.45970e-01,5.22619e-02,4.51686e-01,-2.70085e-01,3.48382e-01,2.33032e-01,4.09361e-02,-6.84927e-02,3.77476e-01,1.62984e+00,1.47069e-01,5.98222e-02,-3.16958e-02,
-2.76508e-03,1.61663e-02,-2.91225e-02,-4.12192e-02,4.92693e-02,-2.57891e-02,-3.83779e-02,2.35807e-02,-8.45828e-03,1.23775e-02,-3.49261e-02,-4.71754e-02,5.00733e-03,-4.29666e-02,3.21291e-02,-4.26345e-02,-4.37716e-02,-4.93679e-02,1.67929e-02,6.81443e-03,
-1.37415e-01,4.68056e-01,-2.05515e-02,5.04989e-01,4.73006e-01,3.31971e-01,4.13037e-01,4.92354e-01,-1.67674e-02,3.63842e-01,-3.09854e-01,4.84916e-01,3.26093e-01,3.06370e-02,3.49475e-01,4.87666e-01,7.98737e-01,3.58232e-01,5.10140e-01,-5.58608e-01,
1.47353e-02,-5.97163e-02,4.91262e-03,-7.45889e-03,-1.90160e-02,1.60472e-02,-6.02366e-02,-2.23166e-02,-1.46370e-02,-4.00723e-03,-2.73104e-02,2.12689e-02,2.50896e-02,3.21433e-02,-1.66006e-02,-1.29545e-02,-3.79914e-02,2.76805e-02,-5.25273e-02,2.94583e-02,
1.16792e-02,4.48897e-01,-4.49141e-02,4.69387e-01,2.39792e-01,2.49978e-02,-5.14151e-02,1.09986e-01,-1.05071e-02,-1.82201e-01,-7.87194e-02,3.60464e-01,9.90122e-02,8.47503e-03,-1.48116e-01,5.09721e-02,1.45093e+00,9.87729e-02,5.80868e-01,-2.11208e-01,
-3.01569e-02,-5.69796e-01,1.07338e-02,-6.79750e-01,-6.19500e-01,-2.58648e-01,-7.53622e-01,-5.82971e-01,3.20635e-02,-1.89068e+00,2.27958e-01,-7.81764e-01,-8.31838e-01,-2.59209e-02,-1.19976e+00,-6.63074e-01,-2.09754e-01,-1.57933e-01,-2.38809e-01,-1.82010e-01,
1.57183e-02,
-3.38501e-03,
4.76498e-02,
-3.44424e-03,
-2.25556e-02,
-7.81537e-02,
-9.21930e-04,
-2.32186e-02,
4.46679e-03,
4.21730e-02,
-6.09235e-03,
-8.12028e-03,
6.17386e-02,
-3.51544e-03,
1.18020e-02,
-6.93660e-04,
6.44139e-04,
-1.14919e-02,
9.51407e-03,
5.85857e-02,
-6.41813e-01,-6.30850e-04,-1.67113e-01,-2.76776e-01,6.88108e-01,-5.69163e-02,4.62757e-01,-1.57308e-01,3.17133e-01,-1.52649e-01,-2.21727e-02,2.59328e-02,-1.45490e-01,-1.49658e-02,-5.85664e-01,1.48385e-02,2.57369e-01,1.67112e-02,2.42273e-03,3.04040e-01,
3.78567e-01,1.19698e-03,2.75932e-01,3.69394e-01,4.78681e-01,5.37811e-01,2.45747e-01,6.98344e-02,5.52175e-01,2.24230e-01,-1.61685e-02,2.11977e-02,1.47757e-01,-3.36422e-03,4.81961e-01,-8.98084e-03,4.81320e-01,-4.42781e-02,3.30776e-01,7.74600e-01,
-6.26678e-01,2.38060e-03,-1.19965e-01,1.99453e-02,1.06276e+00,-2.29580e-01,-3.89313e-01,6.55203e-01,4.67373e-01,-2.90053e-02,2.60070e-02,9.23816e-03,-1.77392e-01,-2.86660e-02,-2.13597e-01,-1.37258e-02,-1.09116e-01,1.22424e-02,7.90856e-02,4.57980e-01,
5.95750e-01,-2.28366e-02,2.42560e-01,1.85572e-01,-3.00355e-01,-1.59304e-01,3.13612e-01,-1.84906e-01,-1.78393e+00,3.14064e-01,2.53384e-02,2.89670e-02,5.63775e-01,-1.85426e-02,3.35361e-01,4.30579e-02,-1.85040e-01,8.93311e-03,-2.88476e-01,6.47613e-02,
1.45408e-01,-2.35184e-02,1.25051e-01,3.49957e-01,5.67008e-01,-6.09433e-02,-2.65320e-02,5.99179e-01,8.48078e-03,1.65817e-01,-4.57238e-02,-4.12616e-02,2.66733e-01,-2.67292e-02,3.35052e-01,-3.42824e-02,2.81538e-01,-1.16967e-02,3.47925e-01,3.68634e-01,
-3.27093e-02,-4.78387e-02,-1.33829e-02,1.68200e-02,2.76758e-02,-9.85601e-03,-5.44765e-02,3.93266e-02,-3.94124e-02,-1.13195e-02,4.73371e-02,8.18605e-03,1.73449e-02,-3.67911e-02,-2.58215e-02,4.60402e-02,2.21015e-02,1.04369e-02,-5.44480e-02,-2.60242e-02,
3.27180e-01,-3.86094e-02,2.58445e-01,5.84864e-02,1.19986e-01,5.19453e-01,4.44474e-01,-4.77601e-01,6.03128e-01,1.64545e-01,-8.47526e-03,-2.82568e-02,1.72863e-01,1.30184e-02,2.62391e-01,-2.08567e-02,4.23622e-01,7.18490e-03,2.36106e-01,1.54738e-01,
-1.56208e-01,3.34525e-02,-5.60411e-02,-1.16770e-01,1.25772e-01,4.49180e-02,2.52083e-01,-4.12267e-01,6.16379e-01,-1.31050e-01,-9.50838e-03,-1.51246e-02,-3.77227e-01,-4.13150e-02,-1.71320e-01,-3.31604e-03,1.71646e-01,4.39271e-02,1.33504e-01,-7.34435e-01,
2.37969e-01,-1.95794e-02,7.69311e-02,4.96319e-01,4.23599e-01,-8.17791e-01,-3.02188e-01,1.13540e+00,-7.42214e-01,2.50491e-01,4.82834e-02,5.12749e-02,4.14668e-01,-3.44200e-02,3.89349e-01,1.20323e-02,1.30945e-01,1.77104e-02,1.65519e-01,-3.15487e-01,
-3.35677e-02,-1.95935e-02,-4.98677e-02,-3.95916e-02,-2.64792e-02,-3.17923e-02,-1.72224e-02,-1.71248e-02,-4.41982e-02,-4.56657e-02,-2.78646e-02,-4.07826e-02,9.21100e-03,4.57753e-02,2.23800e-03,1.95625e-03,-9.47890e-03,2.82388e-02,-2.09464e-02,4.96968e-03,
2.55487e-01,3.83756e-03,2.07572e-01,-1.18686e-01,-1.33675e+00,3.22263e-01,4.02681e-01,-1.62012e+00,4.95907e-02,1.41567e-01,4.07971e-02,-3.11057e-02,1.28453e-01,-1.22661e-02,2.25519e-02,-4.35905e-02,-4.30526e-01,3.97557e-02,-4.36887e-02,-2.77818e-01,
3.03731e-02,4.45165e-04,4.53426e-02,3.92232e-03,-4.00189e-02,-3.40378e-02,4.10008e-02,-1.99537e-02,-3.95453e-03,-2.52821e-02,4.78014e-02,-2.87131e-03,-2.26477e-02,4.47956e-02,-4.15649e-03,-3.45867e-02,-1.85016e-02,-2.58586e-02,-2.71880e-02,-3.25363e-03,
-7.38803e-01,-4.27737e-02,-2.32023e-01,-9.17338e-03,-4.95093e-01,-2.17553e-02,-1.19482e+00,6.62475e-01,4.94811e-01,-7.58917e-02,-3.57170e-02,2.78325e-02,-1.61058e-01,2.01758e-02,-9.82963e-01,-3.15533e-02,-8.72768e-01,3.83505e-02,-2.86577e-01,4.53952e-01,
2.67227e-01,-1.80795e-02,1.19001e-01,2.62487e-01,3.13886e-01,6.65764e-02,5.00316e-02,1.95744e-01,4.66962e-01,1.61223e-01,7.98107e-03,-4.39458e-02,1.49972e-01,1.70882e-02,3.18631e-01,-3.02956e-02,2.42384e-01,-4.52167e-02,2.78087e-01,-9.49316e-02,
5.02682e-01,3.20387e-02,2.97594e-01,1.39541e-01,3.26925e-01,4.80325e-01,4.08280e-01,-3.03270e-01,-2.85426e-02,2.64269e-01,3.99511e-02,-3.28888e-02,2.94049e-01,-3.10138e-02,3.78084e-01,-4.39193e-02,3.56178e-01,4.00670e-02,6.53752e-02,3.48153e-01,
-1.23217e-02,-3.35256e-02,1.51232e-02,6.61974e-04,3.02669e-02,1.56808e-02,1.38981e-02,-7.97127e-03,3.21834e-02,-2.60562e-02,2.80820e-02,-4.31542e-02,-1.82359e-02,-4.92493e-02,-1.97901e-02,-1.99015e-03,-4.48766e-02,-2.17761e-02,-2.02146e-02,-1.08463e-02,
1.96606e-02,3.37039e-02,3.75072e-02,4.37828e-02,-3.91946e-02,-3.94030e-02,-3.00679e-02,-3.94287e-02,-2.64224e-02,-4.37226e-02,-2.67207e-02,4.23255e-02,-3.54351e-02,-2.24623e-02,-1.00195e-02,2.64930e-02,-4.35133e-02,8.81124e-03,-4.67186e-02,-2.41798e-02,
3.56542e-01,1.12738e-02,2.44471e-01,-2.84337e-02,9.72865e-03,5.67629e-01,4.30729e-01,-5.63744e-01,4.07852e-01,2.06768e-01,3.16077e-02,2.91792e-03,1.46467e-01,-4.39347e-02,2.40262e-01,-4.10644e-02,1.92882e-01,-4.91703e-02,1.28625e-02,2.00950e-01,
3.14876e-01,-2.75747e-03,3.35093e-01,2.00942e-01,2.88074e-01,7.39181e-01,5.53175e-01,-3.91766e-01,1.72687e-01,2.13324e-01,-3.51362e-02,1.36508e-02,2.37806e-01,-4.24277e-02,3.44183e-01,3.63359e-02,5.07021e-01,-7.04190e-03,3.86970e-01,2.73716e-01,
-1.22940e-03,-1.70187e-02,-1.79367e-02,3.91061e-02,5.24226e-03,-5.86759e-03,-4.03078e-02,-5.29959e-02,3.40926e-02,-3.35625e-02,-1.83432e-02,2.90529e-02,-1.07935e-02,3.45553e-02,3.86602e-02,4.35917e-03,-2.03635e-02,-4.46343e-02,4.48713e-03,-4.50440e-02,
1.91332e-02,
-1.45442e-01,
1.00917e-01,
-9.16243e-03,
-1.28174e-02,
-1.72061e-03,
1.06623e-02,
-1.63951e-03,
7.06579e-02,
-7.69762e-03,
1.80523e-01,
-1.01709e-02,
2.37772e-02,
1.21462e-02,
-8.72655e-02,
-1.01603e-02,
0.00000e+00,
1.13184e-02,
-6.71347e-02,
-8.21361e-03,
4.75841e-01,-2.83962e-01,-8.34585e-02,1.03683e-01,-9.00727e-02,-2.62988e-02,-1.04676e-01,1.73263e-01,-8.22743e-03,4.54171e-02,2.27510e-01,-3.14202e-02,-1.65997e-01,-9.86507e-02,-1.65177e-01,-3.29568e-02,3.57793e-02,-1.05083e-01,-1.75943e-01,-3.69721e-02,
-1.46808e-01,-1.08986e-01,2.26086e-01,-4.95006e-01,-8.74718e-02,2.34783e-02,-1.09198e-01,3.73742e-03,-5.45142e-01,-7.39335e-03,2.48557e-01,3.45874e-02,-3.59720e-01,-7.53083e-02,-2.82675e-01,1.93005e-02,5.15780e-03,-1.16351e-01,-2.37414e-01,1.39731e-02,
-4.50438e-01,-2.99118e-01,-1.67663e-01,3.40665e-01,-1.99159e-01,-3.70344e-02,-1.62614e-01,3.07612e-01,-2.08485e-02,4.54454e-02,2.14166e-01,2.26443e-02,3.48836e-01,-9.30959e-02,-8.78568e-02,-3.44514e-02,9.61687e-03,-6.54981e-02,-2.75898e-01,-3.64315e-02,
6.11304e-01,-9.97131e-02,-7.45401e-01,-6.04614e-01,-2.24352e-01,2.15149e-02,-1.12774e-02,-2.06372e-01,-5.46759e-01,-3.81104e-02,4.27045e-01,-3.11481e-02,-3.72479e-01,-9.20671e-02,-1.96457e-01,-1.36722e-02,-4.19116e-03,-5.67052e-02,-3.61597e-02,-2.36556e-02,
-1.00136e+00,-9.38325e-02,6.72246e-02,-3.19741e-01,1.52191e-01,4.48190e-05,-2.21602e-01,-8.50254e-01,5.29948e-01,-3.77807e-02,-2.49339e-01,-2.26811e-02,2.50460e-01,3.76822e-02,-2.34928e-01,4.07934e-02,-2.01456e-02,-3.30614e-01,-2.02024e-01,-2.80254e-02,
-5.85374e-01,3.63668e-02,1.94535e-01,5.59904e-04,-2.53327e-01,-1.07348e-02,-2.66526e-01,3.95550e-01,-2.65041e-01,2.35895e-02,1.33451e-01,-3.33700e-03,-2.25774e-02,-3.23539e-01,-8.34974e-02,-2.17543e-02,-4.87729e-02,-1.86702e-01,-1.03835e-01,-2.82947e-02,
-6.66543e-01,-3.65660e-02,2.79429e-01,2.31460e-01,-5.67128e-02,-4.70980e-02,-3.30715e-01,-2.43433e-01,9.69122e-02,4.12138e-02,4.93444e-02,-2.76561e-02,2.27024e-01,-3.84420e-01,-2.11288e-02,-1.09599e-02,-3.96304e-02,-2.36047e-01,-1.58683e-01,-1.79537e-02,
-5.20919e-01,-1.29119e-01,2.81173e-01,-3.07006e-01,-1.07544e-01,3.57953e-02,-1.53013e-01,2.73794e-01,-2.34672e-01,-3.45841e-02,2.00151e-01,-4.40045e-02,4.44036e-01,-1.59753e-01,-8.56311e-02,-3.72851e-02,3.51510e-02,-7.51176e-02,-1.02782e-01,1.95055e-02,
-9.51092e-01,-1.65418e-01,-4.09864e-01,1.69839e-01,-1.02362e-01,-1.24619e-02,-1.38722e-01,-1.22482e+00,1.70748e-01,1.86712e-02,-6.74633e-01,4.49645e-02,1.20390e+00,-1.41298e-01,-9.69656e-02,-4.54050e-02,-3.61449e-02,-1.86064e-01,-1.70396e-01,1.70294e-02,
5.63888e-03,
2.10405e-03,
1.50328e-02,
6.73102e-02,
4.95149e-02,
-2.90050e-02,
-4.22389e-02,
-8.97562e-02,
1.09990e-01,
