// Neural Network File Format by Kyle Julian, Stanford 2016
6,3,9,20,
3,20,20,20,20,20,9,
0,
-8000.0,-100.0,0.0,
8000.0,100.0,40.0,
0.0,0.0,20.0,-0.7194709316423972,
16000.0,200.0,40.0,26.24923585890485,
7.03578e-01,1.27719e-01,-2.47174e-01,
-1.05062e+00,3.78458e-02,-2.62726e-01,
-7.76297e-01,2.62379e-01,-1.94312e-01,
-7.04472e-02,-3.99664e-01,7.70142e-02,
1.17385e+00,1.06380e-01,-2.02471e-01,
8.19885e-01,1.96111e-01,-3.06330e-01,
8.31537e-01,1.32773e-01,-2.17240e-01,
1.32223e+00,2.23004e-01,-2.43235e-01,
-2.10671e+00,-1.43160e-01,-1.41084e-01,
1.13177e+00,-5.84526e-01,-1.78717e-01,
1.95486e+00,-8.17533e-03,-1.65930e-01,
1.15697e+00,-8.83119e-02,-1.84361e-01,
-8.09996e-01,2.36149e-01,-2.43703e-01,
-1.70510e+00,-3.94004e-01,-8.85169e-03,
-1.75062e-01,-5.03821e-01,1.79531e-01,
-7.52498e-01,3.33747e-02,-3.00098e-01,
-6.61884e-01,-1.00234e-01,-1.96485e-01,
-3.84520e-01,-3.62497e-02,-3.07891e-01,
-1.01518e+00,3.58446e-01,-1.58545e-01,
-8.98013e-01,4.17422e-01,-1.78967e-01,
8.24852e-03,
-8.67248e-02,
4.67250e-02,
-2.63537e-02,
-2.17834e-02,
-1.38334e-01,
2.24276e-03,
2.42184e-02,
-2.95683e-03,
1.38162e-02,
1.98748e-02,
1.53675e-02,
2.19417e-02,
-3.00776e-02,
-1.44686e-01,
5.84485e-02,
1.07393e-01,
4.62477e-02,
5.67344e-02,
1.24179e-01,
1.37181e-01,5.81610e-02,1.02826e-01,-1.31374e-01,1.55930e-01,2.14323e-01,1.20372e-01,2.34771e-01,-3.26559e-02,-5.14094e-02,8.77235e-02,1.04000e-01,1.03937e-01,2.50848e-02,-2.57161e-01,1.34792e-01,2.35170e-02,2.41325e-01,1.06956e-01,1.48146e-01,
2.31657e-01,-8.59925e-02,-3.41311e-01,2.00507e-01,3.18786e-01,5.46282e-01,2.21091e-01,3.99669e-01,-8.53799e-01,1.62690e-01,4.64756e-01,2.86524e-01,-3.48081e-01,-5.97511e-01,1.02000e+00,-2.15961e-01,-2.36084e-01,1.58679e-01,-3.68212e-01,-3.46306e-01,
3.02778e-01,5.73694e-02,2.85057e-02,-7.92019e-02,2.71268e-01,2.36522e-01,3.04309e-01,3.98977e-01,-2.75309e-01,-3.99192e-01,2.90092e-01,1.99203e-01,7.83378e-02,2.96943e-02,-2.36162e-01,3.00285e-02,-4.85115e-02,1.47730e-01,3.64584e-02,4.05002e-02,
1.60500e-01,6.29328e-02,1.25798e-01,-8.98856e-02,1.21006e-01,1.77568e-01,1.62725e-01,2.12798e-01,3.11967e-02,1.55219e-02,1.32605e-01,1.25101e-01,1.56617e-01,-8.68810e-02,-2.80215e-01,1.88326e-01,8.12284e-02,2.17881e-01,8.34249e-02,1.44259e-01,
1.35111e-01,-5.63767e-02,1.03019e-01,-9.39022e-02,3.39664e-02,4.00140e-01,9.12796e-02,1.32012e-01,-1.98635e-01,-5.00613e-01,-4.15422e-02,-8.99044e-02,3.27361e-02,-6.81026e-01,-7.83199e-01,-2.08994e-02,-9.92978e-02,7.01218e-02,6.87203e-02,1.29192e-01,
-7.94691e-02,5.35314e-02,-1.41181e-01,2.07533e-01,-7.03169e-02,-1.02730e-01,1.21895e-02,-1.36673e-02,-1.70615e-02,9.73833e-02,1.29546e-01,6.99712e-02,-7.74792e-02,2.98108e-01,2.83930e-01,-6.45907e-02,3.46058e-02,-2.01520e-01,-3.12492e-02,-4.39409e-02,
-2.11779e-01,3.62914e-01,5.83927e-01,-2.34479e-01,-4.24849e-01,-7.57488e-02,-2.47821e-01,-1.89537e-01,4.36894e-01,2.08300e-01,-6.13474e-01,-4.04906e-01,2.90038e-01,-5.21975e-02,-7.93674e-01,-4.82968e-02,-1.97180e-01,-5.80380e-02,5.30304e-01,4.19968e-01,
1.26526e-01,2.95160e-01,3.58416e-01,6.16646e-01,8.66853e-02,3.85666e-02,1.43478e-01,-5.04333e-02,3.00644e-01,5.12929e-01,-5.72691e-02,1.26211e-01,3.34664e-01,5.36540e-01,2.97628e-01,3.69411e-01,2.91518e-01,2.72834e-01,3.37736e-01,3.26640e-01,
-7.62530e-03,-3.27826e-02,7.59273e-03,1.22374e-02,1.33316e-02,2.80491e-02,4.25591e-02,1.55984e-03,2.96110e-02,-4.16462e-02,-5.11710e-02,1.32064e-02,3.11736e-02,-3.62670e-03,6.94873e-06,-4.76145e-02,-4.43428e-02,-2.78103e-02,-4.88842e-02,1.85047e-02,
2.23145e-01,-7.11564e-02,-5.31265e-02,4.19872e-02,3.15319e-01,2.05309e-01,2.18703e-01,4.41102e-01,-3.02555e-01,7.55207e-02,4.20204e-01,3.44862e-01,-7.88083e-02,6.76731e-02,3.90227e-01,3.40085e-02,-6.36733e-03,1.60370e-01,-7.55685e-02,-5.31447e-02,
7.05446e-03,1.03290e-02,2.51387e-02,3.53968e-02,-1.57224e-02,3.76874e-02,7.85206e-03,-2.06518e-02,3.27237e-02,-2.37850e-02,1.16713e-03,-7.44998e-03,3.14371e-02,-4.01159e-02,-7.56971e-03,-5.27693e-02,-2.77615e-02,-1.92733e-02,-1.36170e-02,-1.62092e-02,
1.42927e-01,1.98156e-01,2.63402e-01,2.86533e-02,6.49662e-02,3.06389e-01,7.31859e-02,1.21784e-01,1.92072e-01,7.20460e-02,-5.62675e-02,-9.51206e-02,2.72298e-01,-1.21428e-01,-5.66141e-02,1.51470e-01,6.94019e-02,1.78781e-01,2.59029e-01,2.27871e-01,
9.32641e-02,2.91150e-01,2.93739e-01,1.38844e-01,3.55235e-02,3.48949e-01,1.03351e-01,8.70478e-02,2.52523e-01,1.36541e-01,-1.35096e-01,-6.48193e-02,2.93099e-01,-4.30588e-02,4.70392e-02,2.17247e-01,1.04625e-01,2.34947e-01,2.43531e-01,2.01695e-01,
1.87518e-01,1.05075e-01,8.58230e-02,1.49936e-01,1.58033e-01,2.47048e-01,1.99190e-01,2.45058e-01,-4.56215e-02,1.62561e-01,1.37139e-01,1.23330e-01,1.40791e-01,2.06526e-02,-1.00272e-01,7.31742e-02,6.97677e-02,1.67516e-01,6.04472e-02,7.16115e-02,
1.91209e-01,1.28110e-01,1.51828e-01,-1.95749e-01,1.25730e-01,1.35752e-01,1.01776e-01,2.33921e-01,-5.23377e-02,-3.69837e-02,1.41218e-01,8.66175e-02,1.23314e-01,3.72696e-03,-1.90675e-01,1.26523e-01,4.26396e-02,2.42574e-01,1.11304e-01,1.36386e-01,
3.05797e-04,-2.99284e-02,-1.52253e-02,-5.22943e-02,-3.58614e-02,5.12266e-02,-3.57243e-02,2.08974e-02,-3.20623e-02,1.50734e-02,2.21306e-03,-1.13447e-02,-6.17715e-02,3.00928e-02,-2.85127e-02,-2.77669e-02,1.74268e-02,1.07647e-02,1.26655e-02,1.70720e-02,
1.93227e-01,-2.70538e-02,5.32705e-02,4.81096e-02,1.34731e-01,7.89611e-02,1.78170e-01,2.51849e-01,-2.10476e-01,1.54501e-02,2.12042e-01,2.10353e-01,8.31350e-02,4.71932e-02,1.53376e-01,1.38131e-01,4.52798e-02,1.87367e-01,-2.10197e-02,9.50493e-02,
2.44446e-01,6.31772e-02,-6.31798e-02,-1.26912e-01,2.42628e-01,4.25646e-01,2.25692e-01,2.28912e-01,-8.25424e-01,3.45703e-01,3.24787e-01,3.62054e-01,-1.03979e-01,-7.04537e-01,-3.46110e-01,7.49664e-02,2.78933e-01,2.84245e-01,-1.82014e-01,-2.25845e-01,
1.19048e-01,1.08053e-01,2.37654e-01,-5.79456e-02,5.18973e-02,2.24978e-01,9.84940e-02,1.45116e-01,1.98367e-02,1.01961e-02,-9.92493e-02,-1.30226e-02,2.45447e-01,-1.86028e-01,-2.64786e-01,1.81820e-01,1.62708e-01,2.11458e-01,2.48825e-01,2.30122e-01,
-4.85114e-02,2.54460e-02,3.76337e-02,4.83414e-02,1.67025e-02,2.51355e-02,1.35943e-03,-4.46291e-02,-1.81393e-02,-3.09083e-02,-4.88389e-02,4.83293e-02,-5.15989e-02,-4.85356e-02,-9.14917e-03,-3.17437e-02,-9.24500e-03,2.99337e-04,2.76858e-02,-1.30226e-02,
8.23810e-03,
1.35805e-01,
4.65113e-03,
2.38682e-03,
4.66429e-02,
1.71729e-01,
-2.46229e-02,
-5.41897e-02,
-1.58852e-02,
-3.71633e-03,
-7.54991e-03,
-1.81738e-02,
-7.77483e-02,
-4.27884e-02,
1.50125e-02,
-1.49694e-02,
9.74143e-03,
-2.24459e-01,
-1.86208e-03,
-1.04430e-02,
1.47406e-02,-6.00562e-01,-3.49750e-02,8.49050e-02,-5.69515e-02,-4.29269e-01,-1.15567e+00,2.05983e-01,7.47327e-03,-8.81831e-03,-4.53804e-02,9.40789e-02,1.84854e-01,7.20472e-02,-2.11477e-02,1.58402e-02,1.63841e-02,-7.56570e-01,1.45221e-01,-2.63539e-02,
-2.11503e-01,2.62390e-03,-4.75647e-01,-1.64656e-01,-4.17027e-02,1.77540e-01,1.41863e+00,5.86561e-01,3.01393e-02,-6.13370e-01,2.32474e-02,2.89318e-01,4.23580e-01,-1.88560e-01,-1.88083e-01,-3.17279e-02,-3.75032e-01,-1.66657e-01,1.50541e-01,2.90945e-02,
7.13580e-02,6.27509e-01,9.07481e-02,5.71863e-02,3.10019e-02,3.78015e-01,1.31775e+00,-3.29613e-04,2.40750e-02,9.70708e-02,4.62553e-02,3.12484e-02,1.38482e-02,8.40296e-02,6.99214e-02,3.52428e-02,1.68241e-03,-2.97687e-02,-4.04358e-02,6.15491e-04,
-3.50506e-01,1.20381e-01,2.72772e-02,-4.04888e-01,-2.83330e-01,4.35425e-01,5.50659e-01,-7.36214e-01,-3.18552e-03,-4.06814e-01,8.21745e-03,-1.77728e-01,-1.18773e-02,-2.64186e-01,-3.55932e-01,3.24414e-02,-1.24972e-01,-6.48070e-01,-8.95137e-02,-3.98701e-02,
-7.05134e-03,8.19970e-03,-2.78497e-02,-4.93934e-02,6.00200e-03,-1.19260e-02,-4.48226e-02,-2.80182e-02,-6.21496e-03,-5.24203e-03,-4.86315e-02,-1.10458e-02,3.32769e-02,1.14339e-02,2.56107e-02,2.38748e-02,-8.83453e-03,-4.11706e-02,3.37153e-02,6.65794e-04,
7.50162e-02,-6.74929e-01,3.61986e-02,4.82265e-02,1.05358e-01,-4.25144e-01,-5.81151e-01,8.75430e-02,-3.64652e-02,7.95574e-02,1.92309e-02,1.22246e-01,1.25566e-01,1.19656e-01,2.45343e-02,-4.56695e-02,9.34655e-02,-6.69703e-01,6.59149e-02,-2.23242e-02,
9.80291e-02,-8.22495e-01,6.00773e-03,1.46055e-01,4.55679e-02,-3.56334e-01,-1.01840e+00,9.14813e-02,2.69509e-02,-1.19555e-02,-1.18359e-02,1.33386e-01,2.06929e-02,6.37251e-02,1.36798e-01,-3.24954e-02,1.45591e-01,-9.38573e-01,1.58054e-01,-2.37970e-02,
3.76955e-02,-3.95238e-03,6.44530e-02,1.18526e-02,1.13042e-01,-1.89970e-01,1.31668e+00,2.91994e-02,2.61342e-02,-9.76834e-02,4.67014e-02,1.14870e-01,1.71303e-01,-6.57460e-02,1.16818e-02,-5.03570e-03,-2.85112e-03,-6.55353e-01,1.33201e-01,-2.32927e-02,
-7.00167e-02,-6.92605e-01,-1.93835e-01,-2.68861e-02,-1.32462e-01,2.64773e-01,-4.93273e-01,5.35854e-01,-3.03534e-02,3.64998e-02,-3.39452e-02,3.60344e-02,1.31154e-01,3.67041e-02,-4.85625e-02,4.73376e-02,3.84968e-02,-5.21747e-01,3.72809e-03,-8.96566e-03,
2.92093e-02,-1.67809e-02,-2.85023e-03,4.16376e-03,7.78658e-03,-4.60020e-02,-1.17841e-02,-2.44935e-02,2.43795e-02,-2.17671e-02,4.17188e-02,-8.83730e-03,-1.59790e-02,2.60139e-02,-2.68960e-03,2.22365e-02,-1.54594e-02,-6.22097e-02,-3.39061e-02,3.49944e-02,
-6.50364e-02,-7.52522e-01,-1.90223e-01,-2.64023e-02,-8.92171e-02,2.93633e-01,-6.82781e-01,4.13793e-01,1.54705e-02,-2.77972e-01,2.71038e-02,3.06617e-02,7.29954e-02,-5.72907e-02,-6.99054e-02,1.01035e-03,-1.24306e-01,-7.21091e-01,4.11639e-02,-3.86868e-02,
4.81519e-02,-4.97597e-01,9.65638e-02,1.22443e-01,6.58456e-02,-5.34280e-01,-1.25103e+00,7.91476e-02,-2.47760e-02,8.63250e-02,-4.22100e-02,1.19171e-01,1.05141e-01,8.35391e-02,5.34982e-02,1.52811e-02,1.10530e-01,-7.16459e-01,1.06554e-01,-1.37747e-02,
-1.18748e-01,-9.55046e-01,2.34166e-01,-1.60849e-01,-7.20065e-01,1.84889e-01,-2.16477e-01,-3.88068e-02,-1.29625e-02,2.74041e-01,4.01065e-02,-1.81613e-01,-3.25831e-01,-1.56877e-01,-1.80941e-01,1.71527e-02,-4.31986e-02,-2.47593e-01,-1.52293e-01,-9.60388e-03,
1.85766e-01,-3.30671e-01,2.12667e-01,2.35880e-01,2.05999e-01,-3.55012e-01,-1.15034e+00,1.48736e-01,-3.17846e-02,2.27057e-01,-1.46775e-02,2.28504e-01,2.23717e-01,2.00817e-01,2.14456e-01,-1.59746e-02,1.86861e-01,-7.20490e-01,2.32606e-01,-4.45871e-02,
1.43650e-01,-6.60854e-01,1.50920e-01,8.23957e-02,1.54776e-01,-4.20560e-01,-1.24141e+00,-2.25794e-03,-1.29650e-02,6.97836e-02,-4.23983e-02,7.12832e-02,1.35767e-03,3.61473e-02,1.35672e-01,4.44406e-02,1.17377e-01,-8.16961e-01,1.35052e-01,-4.95363e-02,
9.34614e-02,-8.17274e-01,4.28677e-02,2.75704e-02,3.29398e-02,-3.85682e-01,-1.13569e+00,1.34898e-01,-3.88277e-02,4.94247e-02,-1.20000e-02,9.05017e-02,5.67476e-02,5.25506e-02,1.84986e-02,-7.00715e-04,6.66044e-02,-6.66401e-01,5.72894e-02,-2.26171e-02,
8.62663e-03,1.45444e-02,7.12954e-04,-3.89818e-02,8.12862e-03,-4.23101e-02,-1.77846e-02,2.37613e-02,3.60605e-02,-4.30625e-02,-2.74986e-02,-5.82029e-02,-4.31595e-03,-3.49712e-03,-8.92994e-03,2.88881e-02,-5.28939e-02,-4.39584e-02,2.01611e-02,-4.37509e-02,
2.40826e-02,-3.46119e-01,-1.00785e-02,2.34301e-02,1.39985e-02,-4.18233e-01,-1.09140e+00,2.97857e-01,2.19567e-02,8.35663e-02,-2.73974e-02,1.13092e-01,1.70228e-01,1.28969e-01,-5.94415e-03,-1.65192e-03,1.69830e-02,-6.61339e-01,8.73643e-02,-2.31956e-02,
1.30460e-01,-6.18040e-01,7.53732e-02,5.56531e-02,1.61083e-01,-4.55988e-01,-1.03809e+00,1.84283e-01,1.55067e-02,8.74618e-02,3.30003e-02,1.08837e-01,1.17535e-01,1.20122e-01,1.15710e-01,7.87126e-03,8.90742e-02,-1.03205e+00,1.08084e-01,-3.79949e-02,
6.03252e-02,-5.52679e-01,-6.44792e-02,7.95012e-02,-2.70749e-02,-4.44074e-01,-1.12459e+00,2.32801e-01,-4.73062e-02,3.59187e-02,-1.40568e-04,1.05057e-01,1.35894e-01,9.15163e-02,2.22755e-02,-3.23230e-02,-2.33333e-03,-8.16178e-01,6.01454e-02,-3.86131e-02,
-4.23259e-02,
1.80706e-01,
1.44811e-01,
3.04780e-01,
-3.70555e-03,
-1.66246e-01,
1.18981e-01,
3.64075e-03,
8.46886e-03,
-1.09690e-02,
2.28439e-01,
-4.51142e-02,
1.80611e-01,
7.15224e-02,
1.52888e-02,
-2.25195e-03,
-1.80913e-02,
-1.17621e-01,
-3.42010e-02,
-5.82286e-02,
2.09021e-01,-8.28214e-01,-4.45958e-01,-5.66982e-01,-2.98459e-02,-4.29821e-01,2.20349e-01,-4.42836e-01,5.75415e-01,-4.84184e-02,6.29065e-01,2.71660e-01,-5.48665e-02,1.82059e-01,1.85785e-01,3.03349e-01,-7.14213e-03,1.22948e-01,1.49760e-01,2.04651e-01,
2.50902e-01,8.10069e-02,-8.89057e-02,-2.70361e-01,-3.37497e-02,6.32355e-02,1.03287e-01,-3.42233e-01,-3.67174e-01,4.34701e-02,-1.36147e-01,1.94967e-01,2.98323e-01,3.14077e-01,1.79420e-01,2.36858e-01,-5.56935e-03,-1.11316e-01,-5.08530e-02,1.95887e-01,
2.30741e-01,-1.24483e-01,-4.86544e-01,-3.37468e-01,2.07547e-02,3.72190e-01,1.51598e-01,-2.11968e-02,4.06963e-01,2.08429e-02,4.35407e-01,2.19813e-01,-7.44842e-01,1.13524e-01,7.39832e-02,1.52094e-01,3.34142e-02,3.24556e-01,1.02372e-01,3.03362e-01,
1.76483e-01,-1.70692e-02,2.79800e-01,2.04760e-01,2.64783e-02,-1.08387e-01,1.04853e-01,1.57018e-02,-1.25780e+00,-8.89268e-03,-1.47941e+00,2.02665e-01,-5.90287e-02,4.25186e-01,1.14904e-01,-4.13013e-02,-3.19786e-02,1.39681e-01,2.32033e-01,-2.33982e-01,
4.13559e-01,7.12934e-02,-2.94557e-01,1.20937e-01,-4.60013e-02,2.88530e-01,1.56971e-01,1.29714e-01,2.70497e-03,-2.62686e-02,2.46987e-01,3.88928e-01,-8.91996e-02,1.40014e-01,2.94425e-01,3.30801e-01,2.69877e-02,5.24687e-01,2.93980e-01,3.85094e-01,
3.25890e-01,-7.44801e-03,-3.19250e-01,8.39137e-03,-4.21402e-02,6.11972e-01,1.69924e-01,-5.35851e-03,9.54471e-02,3.61094e-02,4.11610e-01,2.07239e-01,-7.73687e-01,8.99478e-02,2.73123e-01,2.35046e-01,5.79046e-03,3.44069e-01,2.27152e-01,3.76747e-01,
2.18856e-01,-2.49411e-01,-3.10395e-01,2.87764e-01,1.25024e-02,1.31841e-01,2.67703e-01,5.06177e-02,-2.19054e-01,-4.26519e-02,2.04975e-01,2.48044e-01,1.73063e-01,1.81207e-01,2.65043e-01,2.71990e-01,-2.14594e-02,2.54926e-01,2.45054e-01,3.52012e-01,
2.98820e-01,-5.40153e-01,-4.00651e-01,-1.86772e-01,2.64390e-02,-8.96462e-02,2.22794e-01,-8.94240e-01,1.74529e-01,-3.35083e-02,4.45974e-01,2.40592e-01,4.67770e-01,1.22644e-01,3.04383e-01,2.62218e-01,-3.78126e-02,8.61157e-02,1.03959e-01,1.51624e-01,
-1.91771e-02,-3.45191e-02,-2.95046e-03,-1.42236e-02,-2.92731e-02,-4.06348e-02,3.81212e-02,2.03571e-02,7.11844e-03,-2.46143e-02,-3.46594e-03,3.72349e-02,-1.29597e-02,-2.26547e-02,-3.39932e-02,-4.59272e-02,4.43141e-02,-2.98674e-02,1.58370e-02,-4.85517e-02,
1.96534e-01,-1.51032e-01,-4.70933e-01,-1.30152e+00,1.39486e-02,7.91949e-01,2.59166e-01,9.93547e-03,4.78974e-01,8.68651e-03,4.32921e-01,9.50666e-02,-1.51312e+00,1.51043e-01,1.85313e-01,1.45448e-01,7.74563e-03,3.61982e-01,1.80507e-01,3.01034e-01,
-1.98028e-01,-9.05705e-01,3.43641e-03,-3.77894e-01,-4.34098e-02,1.96361e-01,2.93077e-01,1.25072e-01,-7.33143e-03,1.35611e-03,2.85277e-01,-1.27828e-01,1.15216e-01,-1.20625e-03,2.50296e-01,7.10280e-02,-3.56958e-02,-4.33339e-01,1.14843e-01,-1.26680e-01,
2.09766e-01,-2.12894e-01,-3.50731e-01,-5.62765e-01,-1.65872e-02,1.25457e-01,2.60733e-01,1.33723e-01,1.85243e-01,3.19237e-02,4.21323e-01,9.10008e-02,-2.04135e-01,7.12674e-02,2.96946e-01,9.64511e-02,-4.51846e-02,1.15091e-01,1.08461e-01,2.60189e-01,
4.81596e-01,1.34685e-01,-4.54094e-01,1.49817e-01,-6.43080e-03,3.39414e-01,1.37449e-01,1.06351e-01,1.33678e-01,3.40307e-02,3.18013e-01,2.86863e-01,-5.59787e-01,3.35596e-02,2.90629e-01,3.84745e-01,3.95354e-02,5.16752e-01,2.31683e-01,5.73397e-01,
2.37541e-02,2.83077e-03,-6.14684e-03,-2.46480e-02,4.45409e-02,-2.59871e-02,-3.86619e-03,-1.40152e-02,4.07257e-03,3.97819e-02,-3.55151e-02,-1.77671e-02,4.88279e-02,-4.04015e-02,3.99812e-02,-3.32206e-02,-2.47726e-02,-5.31329e-03,-1.46008e-03,3.46697e-02,
-2.92159e-01,-1.04860e-01,1.92341e-01,6.12227e-02,-4.12792e-02,3.73608e-01,-1.08978e-01,-1.01531e-01,7.96743e-01,-2.17889e-02,3.28183e-01,-1.77365e-01,1.82525e-01,-1.94815e-01,-1.35376e-01,-1.91469e-01,2.17202e-02,2.56446e-03,6.64513e-02,-1.33865e-01,
3.46325e-01,-2.79500e-01,-4.52391e-01,1.11456e-02,-2.89826e-02,5.19753e-02,2.12095e-01,3.78185e-02,3.41256e-01,-2.87336e-02,2.97896e-01,1.78070e-01,-2.27865e-01,1.23741e-01,2.19355e-01,2.28175e-01,1.37351e-02,2.95688e-01,1.96756e-01,3.36274e-01,
-5.29855e-02,-5.26401e-03,-5.33381e-02,-1.96466e-02,4.87309e-02,1.03799e-02,-2.99010e-02,2.24853e-02,6.31428e-03,-5.03865e-03,1.05052e-02,-1.40598e-02,2.32973e-02,2.07118e-02,3.26866e-02,-5.34657e-02,-1.61082e-02,2.12547e-02,3.26953e-02,-3.55805e-03,
1.47910e-01,1.13489e-01,-5.47959e-01,-3.98831e-02,-3.57440e-02,-1.17572e-01,2.72360e-01,9.30112e-02,-2.18301e-01,1.75195e-02,2.83916e-01,3.29150e-02,-2.09822e-01,1.34324e-02,2.09347e-01,1.71540e-01,3.12913e-03,-2.03620e-01,-1.01976e-01,1.80826e-01,
-5.01252e-01,2.02021e-02,3.34861e-01,4.44060e-01,-7.64991e-03,-3.58648e-01,-1.84112e-01,-1.12180e-01,7.25818e-01,-1.87133e-02,2.50793e-01,-3.54070e-01,-3.24311e-01,1.04496e-02,-4.63210e-01,-3.23391e-01,-2.38900e-02,-2.52697e-01,-1.62016e-01,-2.98263e-01,
2.34183e-01,-7.19548e-01,-5.33730e-01,-2.53605e-01,3.44122e-03,-1.12107e-01,2.17741e-01,-1.53268e-01,6.52487e-01,4.32534e-02,4.87704e-01,1.72996e-01,-1.60271e-01,2.24608e-01,2.15499e-01,2.12624e-01,-2.44896e-02,2.16173e-01,1.78926e-01,2.80404e-01,
-2.22554e-02,
8.81086e-02,
-1.68282e-02,
9.77474e-02,
-1.49349e-02,
3.45937e-02,
8.70945e-03,
1.84680e-02,
-1.55872e-02,
-2.73340e-02,
2.29100e-01,
6.61871e-02,
-3.30338e-02,
-6.57566e-03,
1.57223e-01,
-4.62942e-02,
-2.40191e-03,
1.41041e-01,
1.00665e-01,
4.50665e-02,
1.78423e-01,5.54029e-01,1.77240e-01,1.38603e-01,2.18380e-01,1.67397e-01,1.32866e-01,-2.88428e-01,-2.44661e-02,2.18520e-01,-1.78625e-01,9.12422e-02,1.91368e-01,4.27120e-02,-7.44101e-01,2.59556e-01,-2.47721e-02,1.37393e-01,-7.92480e-01,1.92905e-01,
9.25898e-02,3.10283e-01,2.85858e-01,3.05010e-01,1.56397e-01,2.11864e-01,1.03909e-01,-8.03558e-01,-7.95113e-03,5.57753e-01,-3.27698e-01,1.03332e-01,1.06853e-01,-2.25914e-02,5.72878e-02,1.08256e-01,3.57614e-02,-2.22089e-01,-6.16864e-02,-5.29245e-02,
-1.57110e-01,3.10538e-02,6.14158e-01,-2.85082e-01,-6.49547e-02,3.56996e-01,2.55473e-02,-3.08720e-01,-3.64160e-02,3.51959e-01,2.44651e-02,4.07814e-01,2.95750e-01,3.50676e-02,1.01857e-02,4.41069e-01,1.69900e-02,6.34546e-01,-9.14787e-02,3.08003e-01,
-2.01214e-01,-2.33981e-01,-8.81478e-02,4.99889e-01,3.81984e-01,1.72798e-01,3.04524e-01,-3.62679e-01,-3.49795e-02,2.70298e-01,-5.52526e-01,1.77192e-02,1.78971e-01,4.10176e-02,1.26824e-01,-2.41292e-01,-4.08108e-02,-3.60722e-01,1.94563e-01,2.61884e-02,
-3.22521e-01,5.95656e-01,2.19060e-01,-6.67566e-01,3.61009e-01,3.81868e-01,2.30028e-01,-4.03657e-01,5.44943e-03,1.67859e-01,2.11169e-01,2.47610e-01,4.24971e-01,-3.97565e-03,-2.65342e-01,3.28245e-01,-2.06210e-02,1.78496e-01,-2.45392e-01,-1.35896e-01,
7.45300e-01,-4.59385e-01,2.56402e-02,-6.07186e-02,-3.23108e-02,1.10044e-01,-2.47617e-01,6.83983e-01,-1.76141e-02,2.26592e-01,2.00054e-01,1.31569e-01,-3.39435e-01,-2.65564e-02,6.11555e-02,1.06370e-01,-2.56697e-02,-1.06642e-01,1.53475e-01,7.12397e-01,
8.44220e-01,-1.53289e-02,1.14465e-01,1.72140e-01,-6.01878e-02,-4.32718e-02,-5.90961e-02,8.57409e-01,2.25189e-02,1.10243e-01,8.53653e-02,1.75923e-01,-3.03614e-01,-3.15662e-02,3.62175e-02,1.61233e-01,-7.40052e-03,-9.38452e-02,-3.22485e-02,6.13766e-01,
-5.69507e-01,1.73852e-01,1.70549e-01,-1.62776e+00,2.90814e-01,3.65108e-01,2.55466e-01,-5.62128e-01,-3.64074e-02,2.15651e-01,-4.63661e-01,2.47211e-01,5.02889e-01,-1.45271e-02,-2.19741e-01,1.56222e-01,-1.41060e-02,6.62646e-01,-2.92245e-01,-3.85532e-01,
-4.96744e-02,-4.51069e-02,-1.44013e-02,-3.13972e-02,-1.42083e-02,1.64505e-02,-3.13156e-02,-3.90117e-02,-3.94431e-02,1.19030e-02,-2.97937e-02,-5.64953e-03,-4.51423e-02,-2.59341e-02,2.37130e-04,-2.00651e-02,-2.49608e-02,-3.77537e-02,-1.64073e-02,-4.91472e-02,
-1.37491e-01,6.14586e-01,7.75690e-02,-6.63332e-01,1.37268e-01,1.42859e-01,3.37905e-01,-4.18669e-01,-8.02097e-03,3.97937e-02,3.51943e-01,1.79422e-01,9.59116e-02,-1.56482e-02,-2.62648e-01,2.66874e-01,-3.08538e-02,1.33639e-01,-6.49168e-01,2.57985e-02,
-3.69563e-01,-7.70467e-02,2.73303e-01,6.59431e-02,7.92719e-03,3.77451e-01,7.92925e-02,-1.25118e+00,-4.12939e-02,1.92666e-01,-2.24789e-01,-4.08935e-01,-2.40186e-02,-2.95953e-02,7.00753e-02,-2.97420e-01,3.53749e-02,-1.07165e-01,9.54627e-02,-1.17167e+00,
4.45139e-01,6.89054e-01,8.73594e-02,4.15063e-02,-3.08925e-01,-1.20289e-01,2.23318e-02,7.49410e-01,3.66708e-02,3.92737e-02,-1.68522e-02,-7.22109e-02,5.36542e-02,-2.76203e-02,-1.92683e-01,9.20957e-02,2.93368e-03,-5.49357e-02,6.31486e-02,8.19204e-02,
-1.74178e-02,-5.11981e-03,-3.19611e-02,-5.81034e-02,5.67038e-03,-2.03128e-02,-3.04646e-02,-2.65875e-02,4.31076e-02,-1.24217e-02,3.67427e-02,-1.30062e-02,4.98350e-02,-2.62303e-02,-5.81345e-02,-4.05828e-02,-3.42634e-02,9.95842e-03,1.58671e-02,1.59869e-02,
-9.98008e-02,-4.29959e-01,2.90611e-01,1.88143e-01,1.41378e-01,1.67995e-01,1.50722e-01,-5.24823e-01,1.16060e-02,4.91960e-01,-4.95087e-01,1.64253e-01,2.91169e-01,-4.74206e-02,1.61682e-01,2.01217e-01,1.70915e-02,-8.31673e-02,-4.51100e-02,1.44665e-01,
-2.02846e-02,-4.00227e-02,1.66350e-02,-4.91987e-03,-2.98294e-02,-3.46100e-02,-4.59460e-02,3.66938e-02,4.93305e-03,1.54128e-02,3.72387e-02,-4.71246e-02,9.18672e-03,1.33087e-02,-5.24331e-03,3.95685e-02,-8.89265e-03,-2.84098e-02,-3.10491e-02,-2.58282e-03,
-2.83723e-02,2.11479e-02,-1.89262e-02,-3.96435e-02,-3.18059e-02,-2.81634e-03,-4.15070e-02,-4.61281e-02,-2.62614e-03,4.89939e-02,-4.65261e-02,-7.19078e-03,2.45807e-03,-1.62837e-02,1.46461e-02,-1.25492e-02,3.60404e-02,-4.42554e-02,-4.00145e-02,4.37176e-02,
1.66080e-01,-3.18831e-01,2.08549e-01,-8.21133e-01,-7.98767e-02,2.08394e-02,1.22370e-01,-4.76654e-01,-1.02061e-02,3.65883e-01,6.02879e-01,1.68876e-01,-2.56978e-01,-3.23842e-02,7.01021e-02,1.55665e-01,4.95136e-02,-3.29124e-02,-2.76415e-02,4.43116e-01,
5.99120e-01,4.37108e-01,1.79810e-01,5.43470e-02,-7.68178e-02,-3.07711e-02,-2.34139e-01,-6.04112e-02,-1.80238e-02,3.80324e-01,-1.43139e-01,-1.11293e-01,-1.18745e-01,-1.34922e-02,1.33549e-01,1.48694e-01,-2.94131e-02,-3.13652e-01,1.88765e-02,-2.33882e-03,
3.09775e-01,3.62563e-01,4.90859e-01,1.85454e-01,-4.91148e-02,1.55230e-02,1.59420e-01,3.87647e-01,-2.29514e-02,2.40307e-01,-9.99487e-02,1.87371e-01,1.56716e-01,-1.69384e-03,4.54740e-02,4.45672e-01,4.90419e-02,2.02232e-01,5.33048e-02,3.40100e-01,
-2.12224e-02,-3.69908e-02,-2.66488e-02,-5.74489e-02,1.80577e-02,1.32484e-02,4.24280e-03,2.25648e-02,-4.45033e-02,-1.44180e-02,1.45524e-02,-5.11802e-02,-7.79580e-03,-2.21819e-02,-6.22257e-03,-5.40760e-02,4.02528e-02,-1.25586e-02,6.70675e-04,2.03841e-02,
4.11916e-02,
4.00533e-02,
-1.30078e-02,
4.23406e-02,
9.60687e-02,
2.62862e-02,
4.14875e-02,
1.11583e-01,
0.00000e+00,
4.37133e-02,
1.60587e-03,
3.07589e-02,
-2.94552e-02,
-1.54652e-01,
-9.40170e-03,
-6.94538e-04,
-8.32591e-03,
-3.58426e-02,
-3.01447e-02,
-1.12858e-02,
-4.60490e-02,1.42361e-01,-1.64197e-01,6.60586e-02,-1.66153e-01,1.42913e-01,-1.09568e-01,-4.82107e-01,-5.35629e-03,-5.14239e-01,-2.60096e-01,4.49861e-02,2.66342e-02,-6.61342e-02,-3.56585e-02,-2.61317e-02,3.34867e-01,1.16627e-01,-1.96069e-01,-1.32675e-02,
-2.95498e-01,-2.32425e-01,-2.30919e-01,6.75890e-02,4.39469e-02,3.21368e-01,3.07778e-01,-6.88743e-01,-1.41078e-02,-3.93894e-01,-2.47431e-01,-1.24604e-02,4.36637e-02,-1.03695e-01,-2.39938e-02,5.55577e-03,5.22324e-02,-1.18904e-01,-9.03840e-02,2.81904e-02,
-1.40720e-01,-1.46459e-01,-1.74491e-01,1.31466e-01,1.15057e-01,-2.24343e-01,-2.53582e-01,5.42638e-02,-1.49917e-02,-2.25877e-01,-1.37293e-01,1.49521e-01,1.46396e-02,-3.87798e-01,6.89158e-03,-2.89593e-02,-6.49128e-01,9.92624e-02,-1.31476e-01,4.40619e-02,
-4.50105e-02,-3.19674e-01,-1.09787e-01,1.26779e-01,-7.30913e-02,3.19901e-01,1.86519e-01,-2.93815e-01,-6.43786e-03,-2.21314e-01,-1.28264e-01,-1.83289e-01,3.01253e-02,-2.92183e-01,1.85330e-02,-2.12916e-02,2.98240e-02,-3.48843e-01,-1.62551e-01,8.77366e-03,
6.07282e-02,-2.57368e-01,-1.40088e-01,1.04823e-02,1.62802e-01,1.81214e-01,2.62662e-01,6.22345e-02,2.77204e-02,-4.32900e-01,1.35707e-01,-3.71692e-01,5.25730e-02,-4.05638e-01,-2.76515e-02,-2.27484e-02,-2.41386e-01,-5.27101e-01,-3.32099e-01,-2.12283e-02,
3.15107e-02,-1.27556e-01,-1.35018e-01,-3.03672e-02,-3.62579e-01,3.42463e-01,2.60703e-01,-2.85883e-02,3.34281e-02,-1.82244e-01,-1.79271e-01,2.55209e-01,3.51902e-02,-5.90573e-01,4.94822e-02,6.01099e-03,-6.32643e-01,1.74302e-02,3.37193e-02,-9.16830e-03,
-3.52680e-01,-5.07468e-02,5.09429e-02,1.40253e-01,-9.69707e-02,-6.29504e-02,-4.26926e-01,7.29365e-02,3.77579e-02,-2.06387e-01,-2.27549e-01,2.70553e-01,-2.46110e-02,-1.71565e-01,2.48531e-02,-2.59384e-02,-2.74408e-01,-3.68978e-01,-2.50220e-02,-9.72452e-03,
-3.03828e-01,-2.83195e-01,-3.36160e-02,-3.69887e-01,-6.06684e-02,1.49559e-01,3.35293e-01,-7.13287e-01,8.63977e-03,-1.45990e-01,4.41528e-01,3.32824e-01,2.08700e-02,-4.94401e-01,4.54122e-02,-1.93497e-02,2.24956e-01,-5.64354e-02,4.02940e-02,2.04982e-02,
-2.73861e-02,-2.45469e-01,-1.87635e-01,-2.48717e-02,1.03082e-01,-1.12764e-01,-2.25490e-01,3.07611e-01,8.88230e-03,1.84915e-01,1.84330e-02,-1.75206e-01,8.72056e-03,-5.83901e-01,-2.33595e-02,-3.18953e-02,-4.46143e-02,-3.49016e-01,-3.35746e-01,5.08301e-03,
1.69945e-02,
-4.75512e-02,
4.59217e-02,
-5.48181e-02,
-7.21997e-03,
-4.24586e-02,
3.99950e-02,
-6.93330e-03,
5.69621e-02,
