// Neural Network File Format by Kyle Julian, Stanford 2016
6,3,9,20,
3,20,20,20,20,20,9,
0,
-8000.0,-100.0,0.0,
8000.0,100.0,40.0,
0.0,0.0,20.0,-0.7194709316423972,
16000.0,200.0,40.0,26.24923585890485,
-8.89055e-01,1.65154e-01,-1.34387e-01,
2.49249e+00,2.72414e-01,-1.01124e-01,
4.96547e-04,-1.23994e-03,-1.99747e-02,
1.62527e+00,-3.35369e-01,6.70179e-02,
6.60920e-01,-2.63998e-01,-1.81992e-01,
6.53483e-01,-2.73872e-01,-1.72484e-01,
1.47340e+00,-9.99390e-02,-8.46323e-02,
7.59002e-01,-1.18859e-01,-1.73868e-01,
-1.08794e+00,4.21900e-02,-1.47560e-01,
-1.37526e+00,-1.63143e-01,-1.48974e-01,
5.75076e-01,2.51664e-03,-1.95017e-01,
-1.10518e-01,2.25574e-01,-2.54719e-01,
1.09511e+00,-2.16037e-01,-1.52093e-01,
6.33732e-01,-6.15111e-02,-1.00619e-01,
1.65991e+00,1.10884e-01,-1.19363e-01,
-8.07329e-01,-3.88752e-01,-2.11324e-01,
9.34518e-01,-6.69077e-02,-5.64390e-02,
1.31661e+00,1.40975e-02,-1.13526e-01,
1.30301e+00,1.71926e-01,-2.05093e-02,
-1.16302e+00,-1.59221e-01,-2.07114e-01,
1.09615e-01,
4.72895e-02,
-1.17047e-02,
9.40141e-02,
5.58600e-02,
7.11361e-02,
-1.46935e-02,
2.51014e-02,
7.99280e-02,
4.18716e-02,
6.22713e-02,
1.04726e-01,
4.79478e-02,
2.57243e-02,
2.12511e-02,
-8.99503e-02,
3.82282e-02,
-3.91578e-02,
1.31661e-01,
-1.89158e-02,
-1.08438e-02,3.19690e-01,-3.71596e-02,2.07536e-01,1.09061e-01,7.76129e-02,1.44450e-01,9.81375e-02,3.87871e-02,1.53278e-01,3.68934e-02,2.38572e-02,1.06378e-01,9.83629e-02,1.61094e-01,2.44773e-01,9.29517e-02,1.64621e-01,5.89419e-02,1.37810e-01,
-3.11867e-02,1.30298e-01,2.28810e-02,1.54984e-01,1.57835e-01,1.47358e-01,1.11132e-01,1.02348e-01,6.97310e-02,1.73180e-01,1.03418e-01,-3.86094e-02,1.54297e-01,7.34317e-03,9.86916e-02,2.25017e-01,1.04965e-01,1.93805e-01,1.02072e-01,1.31800e-01,
1.47453e-02,2.69411e-01,4.18061e-02,1.17646e-01,6.22271e-02,1.56074e-01,2.37170e-01,1.44628e-01,-1.78699e-02,4.63675e-02,1.57993e-01,5.88068e-02,1.58370e-01,1.62786e-01,2.63116e-01,1.03999e-01,1.70515e-01,2.52440e-01,1.26752e-01,4.75182e-02,
-5.79985e-02,2.48246e-01,2.79037e-02,1.68211e-01,1.37767e-01,1.11936e-01,1.52999e-01,1.71338e-01,2.32110e-02,1.13707e-01,1.38575e-01,2.86430e-02,1.82396e-01,1.42308e-01,1.48408e-01,1.55259e-01,1.14056e-01,2.87083e-01,1.01522e-01,5.69882e-02,
-3.42971e-01,3.31459e-01,-1.49225e-02,4.59426e-01,2.09526e-01,1.56044e-01,1.46940e-01,1.68164e-02,-3.53872e-01,-3.78422e-01,-6.66893e-02,-2.37031e-01,1.19186e-01,-1.09973e-02,2.05842e-01,-1.39190e-01,7.54525e-02,2.13986e-01,1.58444e-01,-3.16581e-01,
-7.47502e-02,2.96748e-01,2.13515e-02,2.22700e-01,1.32384e-01,8.92573e-02,2.25556e-01,1.60168e-01,-1.04330e-02,6.69784e-02,1.06025e-01,-4.28095e-02,2.12567e-01,1.22391e-01,2.23455e-01,1.37637e-01,1.12147e-01,2.15866e-01,1.23196e-01,1.09431e-01,
1.04213e-02,2.17464e-01,-2.94152e-02,1.95376e-01,9.14569e-02,1.27583e-01,1.80270e-01,1.03219e-01,8.11666e-02,1.62972e-01,1.12611e-01,-6.58347e-03,1.99261e-01,1.12700e-01,6.45253e-02,2.45776e-01,2.19498e-01,1.43735e-01,1.53692e-01,8.24705e-02,
8.93255e-02,1.83728e-01,-1.76962e-02,-6.42908e-03,-4.64300e-01,-5.06351e-01,-6.07710e-01,-1.97953e-01,1.27078e-01,1.20049e-01,-4.51064e-02,1.02427e-01,-5.38567e-01,-9.41477e-02,1.52951e-02,-5.15753e-01,-1.68593e-01,-1.03668e-01,7.44305e-02,2.37050e-01,
4.04900e-01,-2.60750e-01,2.24571e-02,-3.11238e-01,-1.61433e-01,-2.19973e-01,-2.45695e-01,-1.31153e-01,4.03309e-01,4.23520e-01,-8.48011e-02,1.69772e-01,-2.37284e-01,-2.15774e-01,-1.79295e-01,3.36298e-01,-3.01250e-01,-3.43906e-01,-2.21310e-01,3.13569e-01,
-2.66031e-02,4.34718e-01,1.37764e-02,2.04013e-01,-1.42426e-02,5.75734e-03,2.53593e-01,1.25761e-01,2.89746e-02,-2.11345e-02,1.58905e-01,1.24443e-01,1.31189e-01,2.47178e-01,3.89616e-01,9.07076e-02,1.40227e-01,3.83875e-01,2.56016e-01,9.70436e-03,
-2.52250e-02,3.25840e-01,-1.62003e-02,2.84248e-01,6.00515e-02,1.12973e-01,2.31170e-01,1.11565e-01,-6.42692e-02,6.22642e-02,5.75916e-02,2.02564e-02,1.71094e-01,1.24787e-01,2.16102e-01,9.30091e-02,1.83689e-01,3.26317e-01,8.70369e-02,5.78151e-02,
3.25415e-02,-1.42607e-01,1.78547e-02,-9.77122e-02,-1.26728e-01,-1.13528e-01,-1.43942e-03,-5.34037e-03,-2.60189e-03,-5.33749e-02,8.97366e-04,6.95914e-02,-1.17053e-01,-3.15755e-02,-1.57195e-02,-1.96401e-01,-5.77566e-02,-4.67435e-02,7.52396e-02,-1.08831e-01,
-6.54586e-04,6.08736e-01,-3.70524e-02,6.63848e-02,-2.62673e-02,-2.34745e-02,1.63259e-01,2.32960e-01,2.40490e-02,-2.32392e-02,1.60767e-01,1.82932e-01,-9.53543e-03,2.73176e-01,4.95117e-01,1.45327e-01,1.35402e-01,4.17196e-01,3.17705e-01,-6.31470e-03,
1.03759e-02,3.18538e-02,-3.36453e-02,2.40079e-01,1.96935e-01,2.54364e-01,1.71726e-01,1.83359e-01,9.12587e-03,1.80087e-01,7.17914e-02,-7.94389e-02,2.85001e-01,6.00530e-02,1.47967e-02,2.13997e-01,2.18079e-01,1.26418e-01,4.14173e-02,1.88890e-01,
-9.34203e-02,1.93962e-01,-2.43693e-02,2.76508e-01,6.38260e-02,8.65042e-02,2.10182e-01,1.68470e-01,-7.95777e-03,3.77293e-03,1.09079e-01,-3.20395e-02,1.51256e-01,1.60569e-01,2.25215e-01,1.50232e-01,2.07591e-01,2.77457e-01,1.75011e-01,5.48729e-02,
4.09475e-02,1.97528e-01,1.80264e-02,1.58120e-01,1.63771e-01,1.23253e-01,1.37548e-01,1.35483e-01,4.50527e-02,1.91174e-01,1.01486e-01,2.24801e-02,1.52323e-01,1.68211e-02,6.82306e-02,2.79085e-01,5.74244e-02,1.16515e-01,2.04496e-02,1.91646e-01,
3.88150e-02,-1.29690e-01,-4.80487e-02,-1.51346e-01,-2.25743e-02,-6.88717e-02,-8.08797e-02,-2.63051e-02,-1.14023e-02,-1.06422e-01,-4.37605e-02,7.66196e-02,-1.30090e-01,-4.99323e-02,-3.27300e-03,-1.11715e-01,-3.12954e-02,-1.34998e-01,4.98847e-02,-4.03287e-02,
-4.08676e-01,3.37207e-01,4.05342e-02,2.81646e-01,4.11017e-01,3.94233e-01,2.83765e-01,1.78002e-01,-2.92697e-01,-2.87517e-01,-5.02101e-02,-2.48186e-01,3.24873e-01,8.52231e-02,2.42669e-01,-6.72446e-02,2.59126e-02,2.32171e-01,-2.54670e-01,-2.14496e-01,
-1.07327e-02,3.50398e-02,2.40864e-02,2.62921e-02,-6.87661e-03,-3.57859e-02,-3.42592e-02,5.51199e-03,-4.12252e-02,1.21316e-02,2.23118e-02,-7.48995e-04,-3.52467e-02,2.60338e-02,-5.29497e-02,3.83039e-02,-2.83092e-02,3.33698e-02,-5.33823e-02,-2.25593e-02,
2.45482e-02,3.31531e-01,2.24520e-02,1.27464e-01,-1.86494e-02,5.63020e-02,1.07682e-01,5.97020e-02,7.56955e-02,4.30638e-02,1.03789e-01,3.92318e-02,1.20430e-01,1.11595e-01,2.08243e-01,1.62478e-01,1.16966e-01,2.03554e-01,1.23073e-01,6.76979e-02,
-2.15721e-02,
9.99952e-03,
-1.81272e-02,
-9.46774e-03,
9.16086e-02,
-4.29933e-03,
1.47246e-02,
5.79358e-02,
2.52701e-02,
-1.80293e-02,
-3.18573e-02,
1.58567e-01,
-2.79452e-02,
1.57556e-02,
-8.15060e-03,
8.25421e-03,
1.55466e-01,
9.83847e-04,
-1.23895e-02,
-9.17659e-03,
-4.36470e-02,3.84373e-02,-8.59608e-03,-5.33511e-03,-4.27751e-02,-5.41106e-02,-9.01338e-03,-1.02621e-02,1.70787e-02,-3.51577e-02,-1.23864e-02,-2.47666e-02,-1.71602e-02,3.97663e-03,-3.73439e-02,-6.15816e-03,-1.41651e-02,-3.44476e-02,3.75168e-02,2.79005e-02,
2.22865e-02,-6.19297e-02,1.57597e-02,-5.07947e-02,6.30059e-01,-3.64819e-02,-3.38052e-02,4.24960e-01,7.77209e-01,2.40176e-02,3.46929e-02,1.43219e-01,8.12300e-02,-8.96403e-02,-8.24313e-03,1.62522e-02,1.21038e-01,1.23109e+00,4.94205e-03,2.34938e-02,
1.15528e-01,9.10668e-02,1.05854e-01,1.20686e-01,-2.95565e-01,1.76903e-01,7.71205e-02,-5.71294e-01,-1.25604e+00,9.52011e-02,1.03610e-01,-3.85381e-01,2.93104e-02,1.68389e-01,1.43428e-01,1.34542e-01,-3.61743e-01,-7.19305e-01,-1.49440e-02,3.66159e-02,
-5.18712e-02,-3.84619e-02,-4.46326e-02,-3.87155e-02,-4.55593e-02,-4.38296e-02,3.53808e-02,-2.49092e-02,-4.39751e-03,-4.38323e-02,2.79819e-03,2.73405e-03,2.27999e-02,2.65191e-02,-9.33149e-03,1.83557e-02,2.65702e-02,-2.49727e-02,-1.29818e-02,2.43827e-02,
1.52367e-01,1.12250e-01,1.42420e-01,1.12789e-01,-2.05203e+00,9.68811e-02,1.11818e-01,6.60653e-03,-6.02540e-01,8.40084e-02,1.02037e-01,-3.67623e-01,6.99808e-02,9.61810e-02,5.79471e-02,1.32161e-01,-4.28305e-01,-5.17453e-01,-2.25170e-02,1.48105e-01,
1.58604e-02,5.66352e-02,-1.28592e-01,-6.95457e-02,-1.45374e+00,-6.05539e-02,6.17717e-02,-1.03701e+00,8.39721e-01,-2.31933e-01,-1.42822e-01,1.50171e-01,-3.28751e-01,8.74066e-02,-8.94507e-02,4.12578e-02,1.36025e-01,-1.37773e+00,4.34478e-02,-1.99936e-02,
-9.59166e-03,3.42350e-02,8.59324e-02,2.97351e-02,-1.66927e+00,2.01785e-02,6.19289e-02,1.15491e-01,-5.50375e-01,1.21511e-01,-5.08600e-03,3.05108e-02,1.88555e-01,-4.26022e-02,2.31449e-02,3.57099e-02,2.39628e-02,-1.39428e+00,-1.20298e-02,7.31874e-02,
1.08468e-01,1.90671e-01,1.05233e-01,9.73796e-02,-1.00007e+00,1.62515e-01,1.72493e-01,1.68432e-02,-1.35032e+00,2.84228e-02,1.30138e-01,-3.74212e-01,-5.12242e-02,2.11555e-01,6.80479e-02,1.69337e-01,-3.66786e-01,-4.85386e-01,-3.52351e-02,4.33867e-02,
6.81949e-02,7.80890e-02,4.88100e-02,4.40566e-02,8.39839e-02,1.57437e-01,1.37311e-01,-1.02549e+00,-9.91288e-01,1.35029e-01,1.32136e-01,-2.08460e-01,1.73685e-01,1.73414e-02,1.65043e-01,2.60914e-03,-2.61989e-01,-1.12157e+00,2.36017e-02,1.20521e-01,
8.86111e-02,8.63988e-02,8.45083e-02,9.03789e-02,-3.69442e-02,1.08346e-01,5.33429e-02,-5.21240e-01,-1.10351e+00,4.68564e-02,1.13369e-01,-2.35557e-01,8.04290e-02,5.26555e-02,1.35277e-01,3.89785e-03,-2.54311e-01,-1.06270e+00,-4.19918e-02,4.78877e-02,
1.03771e-01,1.15037e-01,3.68835e-02,1.00081e-01,-4.50369e-01,1.38316e-01,1.21871e-01,6.48110e-02,-2.61148e-01,5.23505e-02,1.27171e-01,7.10657e-02,1.00046e-01,1.13993e-01,4.55035e-02,4.20943e-02,-3.00959e-03,-1.15077e+00,-9.01390e-03,7.73422e-02,
3.31448e-02,4.80211e-03,-1.04983e-02,8.97169e-04,2.42798e-02,-1.03738e-02,5.07950e-03,3.47757e-02,-1.75116e-02,-4.56836e-02,-2.63998e-02,-2.24826e-02,-8.37108e-03,-2.15938e-02,-3.66773e-03,-1.99221e-02,-3.82993e-02,2.10276e-02,1.40026e-02,-5.78118e-04,
-1.70027e-02,-1.01482e-01,-7.85021e-02,-7.40599e-02,8.86125e-01,-3.95848e-02,-5.89127e-02,3.78227e-01,5.42365e-01,2.58212e-02,-1.64086e-02,2.53395e-01,1.57054e-02,-8.03975e-02,-6.65495e-02,-8.52671e-02,1.53436e-01,1.15263e+00,4.54322e-02,-1.53452e-02,
5.35358e-02,2.82873e-02,-2.10795e-02,7.87402e-03,5.76998e-01,1.54173e-02,-4.23648e-02,3.93183e-01,8.01261e-01,3.76614e-02,-3.26504e-02,2.19721e-01,7.91963e-02,-1.05232e-01,-5.67400e-02,6.38008e-03,1.49291e-01,1.25294e+00,-2.05235e-02,5.18118e-02,
1.65182e-01,1.63972e-01,1.04063e-01,7.49398e-02,-4.57052e-02,1.40883e-01,1.92542e-01,-1.01709e+00,-3.65586e-01,1.34293e-01,8.25871e-02,-2.16724e-01,9.51877e-02,9.79681e-02,9.26753e-02,8.97412e-02,-3.22835e-01,-1.25612e+00,-1.79256e-03,1.49243e-01,
1.15539e-01,4.48952e-02,1.72525e-01,1.19440e-01,-1.03313e-01,1.03788e-01,7.34147e-02,4.77426e-01,-1.08682e+00,2.56031e-01,1.38907e-01,-2.14158e-01,2.31443e-01,-1.31880e-02,1.25722e-01,-7.92716e-03,-3.18664e-01,-1.17956e+00,1.26535e-02,1.29165e-01,
-1.65588e-02,3.47959e-02,-7.58554e-03,3.97909e-02,-6.92107e-04,-3.83802e-02,1.71446e-02,-7.87101e-03,2.53403e-02,-1.30548e-02,-4.73988e-02,-3.26650e-02,-3.44670e-02,-4.36074e-02,-3.63104e-02,-3.16900e-02,-5.04477e-02,3.12679e-02,-5.02201e-02,-4.53479e-02,
1.83737e-02,-1.42381e-03,-9.00286e-03,3.05889e-02,-2.57869e-02,3.28385e-02,-2.26248e-02,-4.03766e-02,-2.97935e-02,4.89277e-02,-2.81823e-02,2.57717e-03,-4.17655e-02,-2.28177e-02,-5.93001e-03,-4.99001e-02,-3.83223e-02,-4.68275e-02,2.17990e-02,2.29136e-02,
2.30348e-03,6.05768e-03,7.43430e-02,5.40041e-02,1.05980e-01,8.43564e-02,9.56545e-02,-6.75274e-01,-8.26419e-01,1.85853e-01,5.37909e-02,1.23039e-01,1.95039e-01,7.45039e-02,7.87981e-02,2.08250e-02,6.12840e-02,-9.51048e-01,4.55062e-02,1.24101e-01,
1.54325e-01,1.07325e-01,6.05137e-02,9.29914e-02,-1.96408e+00,1.40468e-01,1.46585e-01,4.08306e-01,-8.30484e-01,8.16699e-02,1.08258e-01,-3.39855e-01,1.48142e-01,1.23390e-01,6.74556e-02,1.33711e-01,-3.83478e-01,-5.27275e-01,-1.08538e-02,8.58676e-02,
-1.48251e-02,
4.90174e-02,
-1.69848e-02,
-6.61468e-03,
-4.86083e-02,
1.33074e-01,
6.12995e-02,
1.77748e-02,
1.78823e-03,
-1.36765e-02,
1.21283e-01,
-6.62374e-03,
4.46176e-02,
6.35383e-02,
2.02118e-02,
-8.03625e-02,
-1.00143e-02,
-6.92907e-04,
1.12194e-01,
-2.77152e-02,
-1.29589e-02,-7.16419e-03,4.41165e-03,4.31603e-02,-4.63296e-02,-4.27462e-02,-4.13310e-02,-2.20893e-02,3.70719e-02,1.77202e-02,-7.43352e-03,1.47106e-02,-4.17190e-02,-4.43465e-02,-3.35991e-02,-7.36107e-03,2.44633e-02,1.22363e-02,-4.70821e-02,-4.05484e-02,
-4.92793e-03,-9.11617e-02,7.14868e-02,-2.54433e-02,6.60223e-01,1.82702e-01,7.83309e-01,1.84320e-01,4.72442e-02,-1.37660e-01,1.52349e-01,8.85635e-04,-3.85083e-01,-7.41419e-02,2.78272e-02,-4.59405e-02,-1.85869e-02,2.89450e-02,7.32544e-02,8.28838e-01,
4.11132e-02,-3.84532e-02,2.67684e-02,-2.49568e-02,-3.41079e-02,-5.34038e-02,-1.53594e-02,1.10336e-02,-2.39539e-02,2.84251e-02,-2.73697e-03,-4.45841e-02,3.28138e-03,-1.61390e-02,-4.13612e-02,-4.23607e-02,1.07046e-02,1.39287e-02,3.84154e-02,5.61811e-03,
-1.53584e-02,-3.19281e-01,-7.32609e-02,-2.54522e-02,-5.20978e-04,-4.53032e-02,3.92924e-02,-4.95791e-01,2.52604e-01,2.16583e-01,2.24265e-01,4.20238e-02,-3.14110e-01,-3.17032e-01,-3.47315e-02,6.51489e-01,-3.79406e-02,8.17810e-03,1.40909e-01,-1.16621e-01,
3.81525e-02,-7.59051e-02,1.15715e-01,-2.41750e-02,9.55472e-01,-4.75665e-01,7.00396e-01,7.93242e-02,2.52436e-02,1.73895e-01,9.54231e-02,5.86684e-03,-1.65052e-01,-2.47371e-02,8.16492e-03,4.66488e-01,4.12465e-02,-4.32492e-02,2.13990e-02,1.15315e+00,
3.96482e-02,-1.01645e-02,9.79558e-03,-1.84906e-03,4.71406e-02,2.32086e-03,1.39347e-02,-4.98350e-02,-2.88677e-02,-1.10646e-02,3.17594e-03,2.01975e-02,3.13197e-02,-3.69882e-02,2.14049e-02,-4.57609e-02,-1.64057e-02,2.47239e-02,-1.92645e-02,-2.03390e-02,
9.64362e-03,-4.14842e-01,1.36906e-01,1.57377e-02,6.19789e-01,1.46472e-02,2.37515e-01,1.38518e-01,1.90286e-01,1.07954e-01,1.51654e-01,-2.65255e-02,-5.58444e-01,-4.41558e-01,2.04743e-01,1.59703e-01,2.87651e-02,-2.71865e-02,2.04492e-01,5.09487e-01,
-2.72406e-02,1.58640e-01,2.51987e-02,-5.74231e-02,-5.47415e-01,-6.06954e-01,-5.90184e-01,2.95365e-01,2.41366e-01,1.40964e-01,-1.70970e-01,-1.30513e-02,3.15596e-01,1.62898e-01,2.78862e-01,3.80534e-02,1.08476e-02,7.30497e-03,3.32922e-01,-6.60013e-01,
-3.74549e-02,-4.86672e-01,2.97268e-01,8.34919e-03,2.69140e-01,-6.39389e-02,7.12153e-02,4.49311e-02,2.83605e-01,4.07416e-01,1.46699e-01,-4.69649e-02,-4.36855e-01,-4.13629e-01,9.34094e-02,3.90294e-01,3.90724e-03,4.97755e-02,2.25808e-01,1.81008e-01,
-4.39871e-02,-4.20208e-02,3.48410e-01,-2.92790e-02,1.60828e-01,-1.34337e+00,2.66660e-01,2.12936e-02,5.29602e-01,4.17565e-01,-1.08193e-01,-8.44670e-03,1.50880e-02,-6.16527e-02,2.98166e-01,-3.76850e-02,-5.73558e-03,-1.93446e-02,1.35136e-01,1.44496e-01,
4.43586e-02,1.61098e-03,-3.24406e-02,-1.49881e-02,2.90466e-02,-3.44724e-03,2.25153e-02,-3.73848e-02,3.13265e-02,-1.38871e-03,1.22395e-02,1.93514e-02,-2.93633e-02,-1.21331e-02,-2.99702e-02,-2.66134e-02,1.83499e-02,-4.76521e-03,-2.49900e-02,-1.37908e-02,
-6.07069e-03,2.18716e-01,2.13232e-01,3.65814e-02,-3.03456e-01,-3.94071e-01,-2.91411e-01,5.54978e-01,1.59785e-01,1.79034e-01,-1.13369e-02,8.46191e-03,1.86985e-01,2.10642e-01,1.73537e-01,3.30652e-01,2.85200e-02,2.26579e-02,-7.98763e-02,-2.54448e-01,
-3.64731e-02,-4.83022e-01,1.96505e-01,3.15727e-02,6.18501e-01,2.77231e-01,1.65564e-01,9.56511e-02,2.18810e-01,1.37248e-01,1.40622e-01,4.94600e-02,-4.91668e-01,-4.31044e-01,2.35768e-01,5.14796e-02,8.46141e-03,-3.14621e-02,2.42043e-01,4.77958e-01,
2.76243e-02,3.13311e-03,-4.00527e-02,3.23948e-02,2.87889e-02,2.86895e-02,1.13217e-02,-4.12191e-02,-4.14836e-02,3.61840e-02,-5.17113e-02,2.72379e-02,-2.96313e-02,-1.92003e-02,-2.89706e-02,1.82325e-02,8.47361e-03,-2.54203e-02,9.23198e-05,-1.83600e-02,
2.17124e-02,-2.90162e-01,1.52980e-01,1.36799e-02,4.78931e-01,-6.32714e-01,4.27819e-01,1.90599e-02,2.10061e-01,3.00865e-01,1.17804e-01,2.71214e-02,-3.38971e-01,-2.24315e-01,9.18839e-02,4.17912e-01,2.74369e-02,3.69863e-02,2.07263e-01,4.01607e-01,
-1.62588e-02,-6.32754e-01,2.34626e-01,8.26943e-03,2.61934e-01,2.85920e-01,6.80735e-02,3.04993e-01,1.38953e-01,1.61862e-01,1.31711e-01,-4.08917e-02,-7.28009e-01,-5.41717e-01,1.60476e-01,-4.22082e-02,4.48148e-02,-9.62901e-03,8.87106e-02,9.23245e-03,
4.13045e-03,1.59880e-02,-2.44707e-02,1.91221e-03,-2.86653e-02,1.12048e-02,3.59123e-02,2.68205e-03,-4.05050e-02,1.19625e-02,-1.45159e-03,-2.37223e-02,-2.86429e-02,-3.00121e-02,-1.35698e-02,1.58004e-02,-3.96733e-02,3.29669e-02,-3.44239e-02,1.80337e-04,
-3.23873e-02,-4.90368e-01,4.78901e-01,4.85338e-04,2.65207e-01,-2.02178e-02,-6.59362e-02,5.82191e-01,2.20053e-01,4.14562e-01,3.61905e-02,4.31046e-02,-5.56430e-01,-4.38805e-01,2.72513e-01,3.22656e-01,-3.53376e-02,-2.88458e-02,1.25413e-01,1.83564e-01,
-8.58992e-03,-1.95225e-01,2.24676e-02,-3.19525e-02,7.38021e-01,5.65376e-01,5.57279e-01,6.49591e-02,-6.15993e-02,-1.08413e-01,1.37286e-01,2.21375e-02,-4.18439e-01,-1.23674e-01,-4.16226e-02,-1.16569e-01,-3.55580e-02,4.08020e-02,-5.18939e-02,1.00205e+00,
-3.80102e-02,-1.92764e-01,3.43481e-01,2.01452e-02,1.73847e-01,-7.29670e-01,-1.56855e-01,5.13539e-01,1.69796e-01,3.43092e-01,6.07729e-02,-2.03089e-02,-2.18015e-01,-1.95881e-01,1.58710e-01,5.44430e-01,2.29036e-02,1.98172e-02,1.12729e-01,-4.27616e-02,
-6.94512e-04,
4.01659e-02,
-1.16880e-03,
1.11266e-01,
-7.93692e-02,
-6.94538e-04,
8.58318e-02,
5.89779e-02,
1.46050e-01,
7.00293e-02,
-1.48049e-02,
1.08751e-01,
9.45265e-02,
-1.01220e-02,
7.76910e-02,
1.14112e-01,
-6.70772e-03,
-8.84209e-02,
5.99833e-02,
-8.97174e-02,
-4.54991e-02,1.69457e-02,-4.51827e-02,-2.63401e-02,-5.46650e-02,-2.17848e-03,3.66789e-02,-1.95691e-02,-4.96870e-02,-5.43950e-02,-4.77585e-02,9.72624e-03,-1.86631e-02,-4.34811e-02,-3.68559e-02,2.97081e-02,3.60901e-02,3.73244e-02,-4.06210e-02,-3.92245e-02,
-1.86778e-02,-1.99108e-01,-2.52515e-03,3.09476e-01,-5.05219e-01,-3.96600e-02,1.09450e-01,1.45953e-02,1.14694e-02,1.32471e-01,5.58158e-02,-2.36572e-02,1.24479e-01,-1.38528e-02,-4.21182e-03,3.92302e-01,6.53094e-03,6.39540e-01,-7.15303e-01,-2.14536e-02,
-3.53196e-02,5.12995e-01,-1.92049e-02,1.53008e-01,4.73970e-01,-4.80859e-02,-4.38112e-03,-1.00205e-01,-1.25870e-01,2.11440e-02,-2.42040e-02,2.27249e-02,-8.10701e-02,-4.48626e-03,-1.85471e-03,-3.12314e-01,3.90416e-03,-9.18649e-01,8.44095e-01,-1.96440e-01,
2.09333e-02,-1.07783e-01,1.68004e-02,-4.15487e-02,3.80231e-02,-3.34306e-02,8.74958e-02,5.56517e-02,-1.14376e-01,3.93384e-01,5.44326e-03,-8.44137e-02,5.23329e-03,-2.84166e-02,1.15369e-01,4.02187e-01,2.88484e-02,6.74478e-01,-3.69495e-01,2.69920e-01,
1.80969e-02,2.86343e-01,-4.29145e-02,5.61654e-01,4.24912e-01,-2.53028e-02,2.24978e-01,-2.09127e-01,3.76115e-01,1.60000e-01,-4.99576e-02,-1.56457e-01,9.70705e-02,1.35933e-02,3.18121e-01,1.56312e-02,1.12560e-02,-7.16437e-02,2.56867e-01,-3.08815e-01,
-2.01962e-02,2.12472e-02,1.34222e-02,7.56325e-03,2.24163e-02,3.48914e-02,1.20267e-03,-9.01568e-02,-3.87008e-03,-2.22174e-02,1.33991e-02,-5.97990e-02,-3.07105e-02,2.25907e-03,-3.44757e-02,1.61883e-02,-2.95645e-02,-4.37315e-02,-6.11971e-03,-3.23286e-02,
-3.28535e-02,3.07207e-01,4.16652e-02,1.73045e-01,1.34195e-02,2.17273e-02,1.08664e-01,-9.96309e-01,9.61930e-02,-5.08719e-01,-1.63822e-02,-4.30867e-01,1.95128e-01,-9.68841e-03,-7.91304e-03,-2.19114e-01,-3.41505e-03,-5.14060e-01,4.95077e-01,-1.09978e+00,
3.92614e-02,-3.41351e-02,-3.31599e-02,3.34812e-02,-2.09642e-02,-3.64460e-02,3.48813e-02,-2.11511e-02,3.15792e-02,-5.93951e-02,1.18311e-02,-4.81718e-02,-1.01844e-02,3.27465e-03,-8.30885e-03,-1.48199e-02,-4.43926e-02,-1.85937e-02,1.68868e-02,6.45922e-03,
5.55206e-03,1.01351e-01,-4.47640e-02,-8.32781e-02,1.74444e-01,-4.78229e-02,4.21587e-01,-3.33043e-02,4.07934e-01,1.23514e-01,2.77519e-02,1.15580e-02,3.44665e-01,-3.90125e-02,2.27483e-01,5.10845e-01,-5.24204e-03,-1.04523e-02,2.27329e-02,-1.18184e-02,
4.72683e-02,-1.72823e-01,1.56176e-02,8.32272e-01,-9.99676e-02,-9.97906e-03,9.15656e-02,-2.97691e-01,3.98325e-01,-1.02225e-02,-1.05320e-02,-7.89854e-02,-7.70292e-03,-4.05068e-02,1.91943e-01,4.23760e-01,2.09032e-02,3.18978e-01,-3.60335e-01,-3.37903e-01,
2.68080e-02,4.39691e-02,4.86760e-02,-4.02540e-01,1.52757e-01,-4.69290e-02,-7.23038e-02,-6.66666e-02,-6.51011e-02,6.31168e-01,-2.43724e-02,-7.46901e-02,-6.15910e-02,-3.94750e-02,9.14051e-02,-2.23417e-01,-3.08707e-03,-5.41403e-01,5.92807e-01,5.86770e-01,
-1.06119e-02,4.24434e-02,-9.54929e-04,-3.29227e-01,4.70366e-01,-4.46530e-02,1.53147e-01,-3.49131e-02,-2.60052e-02,2.17008e-01,-1.85942e-02,9.47683e-02,6.97936e-02,-2.93186e-02,1.54398e-01,-4.02840e-01,-3.30440e-02,1.57638e-03,-1.32289e-01,5.67000e-01,
-3.54966e-02,-1.52359e-02,-1.17094e-02,-4.08007e-01,4.52795e-01,6.23377e-03,1.50143e-01,-9.23370e-02,-9.19385e-02,8.96507e-02,2.69427e-02,6.52872e-02,2.38066e-02,2.28899e-02,1.26965e-01,-4.77709e-01,-1.50434e-02,-2.95056e-01,2.26782e-01,6.30886e-01,
3.10112e-02,1.85768e-02,-2.02749e-02,-1.92532e-01,1.45626e-01,-4.00620e-03,2.72600e-01,6.39594e-02,3.64635e-01,2.85585e-01,3.00516e-02,-7.55304e-02,3.48079e-01,2.77133e-02,1.35808e-01,3.43047e-01,-3.40008e-02,-1.81756e-01,1.93962e-01,7.68354e-02,
-2.44692e-02,7.18593e-02,-4.49423e-02,2.17580e-02,-3.63587e-02,2.92085e-02,2.83527e-01,-8.71383e-03,2.87508e-01,1.91144e-01,1.79612e-02,-1.67063e-01,3.69537e-01,-1.80351e-02,9.64228e-02,6.18814e-01,2.59082e-02,8.38459e-02,7.12706e-02,-1.55800e-01,
2.05731e-02,1.60500e-01,6.02210e-03,3.17112e-01,4.37455e-01,-2.77444e-02,3.92257e-01,-6.04014e-01,3.70318e-01,1.83070e-01,2.14404e-02,-2.65721e-01,2.28396e-01,4.74028e-02,3.18471e-01,7.80517e-03,-9.68166e-03,-5.01707e-01,3.46643e-01,1.43510e-01,
2.06799e-02,5.93823e-02,2.11869e-02,-9.88204e-02,-7.47416e-02,4.20497e-02,4.94050e-01,5.28954e-02,5.08859e-01,1.93706e-01,2.03812e-03,-7.87692e-02,5.45532e-01,2.36569e-02,2.36417e-01,3.76636e-01,3.44341e-02,-3.60969e-01,1.40174e-01,-2.34254e-01,
1.97240e-02,2.63634e-02,-2.97290e-02,-7.97600e-03,-4.40343e-02,-1.31521e-02,-2.53767e-02,-2.45157e-02,4.14959e-02,-3.86812e-02,-3.23527e-02,-4.16710e-02,-4.52900e-02,1.05659e-02,-3.51769e-02,-3.70438e-02,4.00806e-03,-4.69429e-02,1.50863e-02,-3.88083e-02,
3.71199e-02,1.20960e-01,-4.20965e-02,-8.74344e-02,-1.32935e-01,-3.47589e-02,1.56105e-01,-1.04516e-01,-1.15862e-01,-9.71229e-03,-2.97995e-02,-8.26683e-02,3.85375e-01,1.26899e-02,-1.64914e-01,1.56553e-01,-5.51707e-03,-4.01847e-01,4.42607e-01,-5.66599e-01,
3.45960e-02,-2.42311e-02,-1.37042e-02,-2.57898e-02,-1.52146e-01,1.30857e-02,-9.13235e-02,3.17811e-02,-3.35356e-01,1.17955e-01,4.42867e-02,4.81377e-03,-6.36217e-02,3.21494e-02,-4.08173e-01,2.51212e-01,3.93774e-02,-5.14344e-01,5.05387e-01,4.50644e-02,
-1.82819e-02,
9.55958e-02,
2.99001e-02,
6.67446e-02,
-3.17543e-02,
-4.44759e-03,
-3.01068e-02,
-2.33044e-05,
-1.55580e-01,
7.83135e-02,
8.46082e-03,
2.62796e-03,
4.62768e-02,
1.11937e-02,
3.97444e-02,
-2.99341e-02,
-7.99397e-02,
-9.51952e-03,
9.87658e-02,
8.55489e-02,
2.50951e-03,1.15564e-01,8.78849e-02,4.47216e-03,5.35193e-02,-3.22594e-02,-3.91978e-01,-1.83115e-02,-4.10053e-01,4.19491e-03,-2.29506e-04,7.65820e-02,1.70499e-01,-1.75646e-01,-2.31689e-01,-1.97272e-01,-1.90117e-01,4.09559e-02,-4.95021e-04,2.38193e-02,
-3.55308e-02,2.41628e-02,-1.91018e-02,5.14583e-02,-1.89212e-01,-2.54253e-02,-1.23554e+00,-3.09195e-02,-1.18760e-01,-8.52607e-01,-7.90574e-03,7.70075e-02,-9.75190e-03,1.66065e-02,-7.34767e-02,-4.56661e-01,6.32363e-02,-2.07465e-02,2.48449e-01,-2.61863e-02,
6.33589e-03,-4.05822e-01,2.27700e-01,-1.43460e-01,-2.71000e-02,2.23469e-02,-5.79283e-01,2.28278e-02,-5.57926e-02,2.07873e-01,-6.57826e-01,-3.75212e-04,-5.90610e-02,-1.57029e-01,-1.40522e-01,-1.28508e-01,-3.48719e-01,1.14273e-02,-2.52101e-01,2.73036e-02,
-2.15478e-02,-1.07873e-01,-3.19505e-01,-1.44296e-01,-3.57928e-01,2.51160e-02,-1.13551e-01,-1.13394e-02,1.64120e-01,-4.27167e-01,2.15034e-01,-9.47792e-02,7.02613e-04,1.08089e-02,-8.36917e-02,-4.96603e-01,1.12376e-01,-1.75318e-02,7.22255e-02,-1.31781e-02,
-1.76475e-02,-8.84791e-02,-4.67909e-02,-1.07535e-01,-6.56867e-02,2.11682e-02,4.57087e-01,4.08230e-02,-4.82471e-02,5.92813e-02,-6.97600e-01,1.38583e-01,-2.30513e-01,-1.02295e-01,-1.24032e-01,-1.37831e-01,-2.32254e-01,-2.48579e-02,-1.30671e-01,-3.17974e-01,
-6.74414e-03,2.73646e-01,-9.24799e-01,1.85662e-01,-9.39479e-02,1.99623e-03,1.52422e-01,1.92287e-02,3.61964e-02,-2.22514e-02,-6.24396e-02,-9.74116e-02,-1.84400e-01,-2.65450e-02,9.13251e-02,-3.51086e-01,2.89014e-02,3.08053e-02,3.46110e-01,-1.13820e-01,
-5.36410e-02,-1.34244e-01,2.69816e-01,-1.44189e-01,-1.73145e-01,-3.33451e-02,5.06673e-01,-5.73942e-02,-1.91001e-02,2.80216e-01,-5.67524e-01,-2.45729e-01,-3.90766e-01,-1.40839e-01,-2.71678e-02,-1.75979e-01,-2.03294e-02,-5.33119e-03,7.16411e-02,2.04511e-01,
2.97295e-02,-3.55094e-02,-6.27542e-01,-2.33590e-01,-2.10639e-01,-3.17931e-02,1.52057e-01,-3.90198e-02,-7.10731e-02,-2.87925e-01,-7.25371e-01,1.42684e-01,1.28535e-01,-9.66188e-02,1.70322e-01,-1.77576e-01,2.87388e-02,1.45153e-03,1.08305e-01,-4.11515e-01,
4.12878e-03,4.63488e-03,-3.64684e-01,-2.36208e-01,-2.04510e-01,3.94152e-02,3.09419e-01,-3.70428e-02,-1.51493e-01,-3.04741e-02,-7.16335e-01,2.94889e-01,-1.25775e-01,-9.10206e-02,-7.77604e-02,-1.71657e-03,-9.06574e-02,3.02457e-02,2.82018e-01,-2.68768e-01,
7.05436e-03,
4.70312e-03,
4.71406e-02,
4.92953e-02,
4.62236e-02,
-3.51187e-03,
1.29180e-02,
3.55512e-02,
-1.66200e-02,
